{"learner":{"attributes":{"scikit_learn":"{\"_estimator_type\": \"classifier\"}"},"feature_names":["sma_5","ema_5","sma_10","ema_10","sma_14","ema_14","sma_20","ema_20","sma_50","ema_50","sma_100","ema_100","sma_200","ema_200","price_to_sma10","price_to_sma20","price_to_sma50","rsi_7","rsi_14","rsi_21","rsi_28","macd","macd_signal","macd_hist","bb_upper_10","bb_middle_10","bb_lower_10","bb_width_10","bb_position_10","bb_upper_20","bb_middle_20","bb_lower_20","bb_width_20","bb_position_20","atr_7","atr_pct_7","atr_14","atr_pct_14","atr_21","atr_pct_21","adx_14","adx_20","stoch_k_14","stoch_d_14","stoch_k_21","stoch_d_21","obv","volume_sma_10","volume_sma_20","volume_ratio","volume_trend","return_1","momentum_1","return_3","momentum_3","return_5","momentum_5","return_10","momentum_10","return_20","momentum_20","acceleration_5","acceleration_10","volatility_5","volatility_10","volatility_20","hl_range","hl_range_sma10","high_5d","low_5d","high_20d","low_20d","dist_to_high_5d","dist_to_low_5d","trend_consistency_5","trend_consistency_10","hour","day_of_week","is_weekend"],"feature_types":["float","float","float","float","float","float","float","float","float","float","float","float","float","float","float","float","float","float","float","float","float","float","float","float","float","float","float","float","float","float","float","float","float","float","float","float","float","float","float","float","float","float","float","float","float","float","float","float","float","float","float","float","float","float","float","float","float","float","float","float","float","float","float","float","float","float","float","float","float","float","float","float","float","float","float","float","int","int","int"],"gradient_booster":{"model":{"cats":{"enc":[],"feature_segments":[],"sorted_idx":[]},"gbtree_model_param":{"num_parallel_tree":"1","num_trees":"488"},"iteration_indptr":[0,1,2,3,4,5,6,7,8,9,10,11,12,13,14,15,16,17,18,19,20,21,22,23,24,25,26,27,28,29,30,31,32,33,34,35,36,37,38,39,40,41,42,43,44,45,46,47,48,49,50,51,52,53,54,55,56,57,58,59,60,61,62,63,64,65,66,67,68,69,70,71,72,73,74,75,76,77,78,79,80,81,82,83,84,85,86,87,88,89,90,91,92,93,94,95,96,97,98,99,100,101,102,103,104,105,106,107,108,109,110,111,112,113,114,115,116,117,118,119,120,121,122,123,124,125,126,127,128,129,130,131,132,133,134,135,136,137,138,139,140,141,142,143,144,145,146,147,148,149,150,151,152,153,154,155,156,157,158,159,160,161,162,163,164,165,166,167,168,169,170,171,172,173,174,175,176,177,178,179,180,181,182,183,184,185,186,187,188,189,190,191,192,193,194,195,196,197,198,199,200,201,202,203,204,205,206,207,208,209,210,211,212,213,214,215,216,217,218,219,220,221,222,223,224,225,226,227,228,229,230,231,232,233,234,235,236,237,238,239,240,241,242,243,244,245,246,247,248,249,250,251,252,253,254,255,256,257,258,259,260,261,262,263,264,265,266,267,268,269,270,271,272,273,274,275,276,277,278,279,280,281,282,283,284,285,286,287,288,289,290,291,292,293,294,295,296,297,298,299,300,301,302,303,304,305,306,307,308,309,310,311,312,313,314,315,316,317,318,319,320,321,322,323,324,325,326,327,328,329,330,331,332,333,334,335,336,337,338,339,340,341,342,343,344,345,346,347,348,349,350,351,352,353,354,355,356,357,358,359,360,361,362,363,364,365,366,367,368,369,370,371,372,373,374,375,376,377,378,379,380,381,382,383,384,385,386,387,388,389,390,391,392,393,394,395,396,397,398,399,400,401,402,403,404,405,406,407,408,409,410,411,412,413,414,415,416,417,418,419,420,421,422,423,424,425,426,427,428,429,430,431,432,433,434,435,436,437,438,439,440,441,442,443,444,445,446,447,448,449,450,451,452,453,454,455,456,457,458,459,460,461,462,463,464,465,466,467,468,469,470,471,472,473,474,475,476,477,478,479,480,481,482,483,484,485,486,487,488],"tree_info":[0,0,0,0,0,0,0,0,0,0,0,0,0,0,0,0,0,0,0,0,0,0,0,0,0,0,0,0,0,0,0,0,0,0,0,0,0,0,0,0,0,0,0,0,0,0,0,0,0,0,0,0,0,0,0,0,0,0,0,0,0,0,0,0,0,0,0,0,0,0,0,0,0,0,0,0,0,0,0,0,0,0,0,0,0,0,0,0,0,0,0,0,0,0,0,0,0,0,0,0,0,0,0,0,0,0,0,0,0,0,0,0,0,0,0,0,0,0,0,0,0,0,0,0,0,0,0,0,0,0,0,0,0,0,0,0,0,0,0,0,0,0,0,0,0,0,0,0,0,0,0,0,0,0,0,0,0,0,0,0,0,0,0,0,0,0,0,0,0,0,0,0,0,0,0,0,0,0,0,0,0,0,0,0,0,0,0,0,0,0,0,0,0,0,0,0,0,0,0,0,0,0,0,0,0,0,0,0,0,0,0,0,0,0,0,0,0,0,0,0,0,0,0,0,0,0,0,0,0,0,0,0,0,0,0,0,0,0,0,0,0,0,0,0,0,0,0,0,0,0,0,0,0,0,0,0,0,0,0,0,0,0,0,0,0,0,0,0,0,0,0,0,0,0,0,0,0,0,0,0,0,0,0,0,0,0,0,0,0,0,0,0,0,0,0,0,0,0,0,0,0,0,0,0,0,0,0,0,0,0,0,0,0,0,0,0,0,0,0,0,0,0,0,0,0,0,0,0,0,0,0,0,0,0,0,0,0,0,0,0,0,0,0,0,0,0,0,0,0,0,0,0,0,0,0,0,0,0,0,0,0,0,0,0,0,0,0,0,0,0,0,0,0,0,0,0,0,0,0,0,0,0,0,0,0,0,0,0,0,0,0,0,0,0,0,0,0,0,0,0,0,0,0,0,0,0,0,0,0,0,0,0,0,0,0,0,0,0,0,0,0,0,0,0,0,0,0,0,0,0,0,0,0,0,0,0,0,0,0,0,0,0,0,0,0,0,0,0,0,0,0,0,0,0,0,0,0,0,0,0,0,0,0,0,0,0,0,0,0,0,0,0,0,0,0,0,0,0,0,0,0,0,0,0,0,0,0,0],"trees":[{"base_weights":[1.6458641E-1,4.6901563E-1,-7.60793E-3,1.4146874E-2,-1.6852725E-1,1.6997913E-3,-5.910507E-3],"categories":[],"categories_nodes":[],"categories_segments":[],"categories_sizes":[],"default_left":[0,0,0,0,0,0,0],"id":0,"left_children":[1,3,-1,-1,5,-1,-1],"loss_changes":[1.4215436E1,2.2099323E1,0E0,0E0,3.0514734E0,0E0,0E0],"parents":[2147483647,0,0,1,1,4,4],"right_children":[2,4,-1,-1,6,-1,-1],"split_conditions":[4.349669E3,5.017867E1,-7.60793E-3,1.4146874E-2,1.5988685E-2,1.6997913E-3,-5.910507E-3],"split_indices":[13,17,0,0,39,0,0],"split_type":[0,0,0,0,0,0,0],"sum_hessian":[5.252495E1,3.939371E1,1.3131237E1,1.6847626E1,2.2546087E1,1.1892441E1,1.06536455E1],"tree_param":{"num_deleted":"0","num_feature":"79","num_nodes":"7","size_leaf_vector":"1"}},{"base_weights":[-2.3648603E-2,3.9828768E-1,-7.029481E-1,1.3634663E-2,-1.5767308E-1,-8.0739846E-4,-1.3881489E-2,3.784477E-3,-7.4069137E-3],"categories":[],"categories_nodes":[],"categories_segments":[],"categories_sizes":[],"default_left":[0,0,0,0,0,0,0,0,0],"id":1,"left_children":[1,3,5,-1,7,-1,-1,-1,-1],"loss_changes":[1.4736046E1,1.5614532E1,6.897765E0,0E0,5.495349E0,0E0,0E0,0E0,0E0],"parents":[2147483647,0,0,1,1,2,2,4,4],"right_children":[2,4,6,-1,8,-1,-1,-1,-1],"split_conditions":[4.310544E3,5.133882E1,-5.8781276E-3,1.3634663E-2,1.6115563E-2,-8.0739846E-4,-1.3881489E-2,3.784477E-3,-7.4069137E-3],"split_indices":[13,17,56,0,67,0,0,0,0],"split_type":[0,0,0,0,0,0,0,0,0],"sum_hessian":[5.005225E1,3.0732464E1,1.9319786E1,1.1907328E1,1.8825136E1,9.908549E0,9.411237E0,9.4136505E0,9.411486E0],"tree_param":{"num_deleted":"0","num_feature":"79","num_nodes":"9","size_leaf_vector":"1"}},{"base_weights":[7.721766E-2,4.1423053E-1,-7.917851E-3,1.2156147E-2,-1.4915475E-1,4.821533E-3,-7.953674E-3],"categories":[],"categories_nodes":[],"categories_segments":[],"categories_sizes":[],"default_left":[0,0,0,0,0,0,0],"id":2,"left_children":[1,3,-1,-1,5,-1,-1],"loss_changes":[1.3417771E1,1.4564223E1,0E0,0E0,7.3027086E0,0E0,0E0],"parents":[2147483647,0,0,1,1,4,4],"right_children":[2,4,-1,-1,6,-1,-1],"split_conditions":[4.3391616E3,5.2366013E1,-7.917851E-3,1.2156147E-2,4.601761E6,4.821533E-3,-7.953674E-3],"split_indices":[13,42,0,0,46,0,0],"split_type":[0,0,0,0,0,0,0],"sum_hessian":[4.8073524E1,3.4462322E1,1.3611205E1,1.5141969E1,1.9320353E1,9.416817E0,9.903536E0],"tree_param":{"num_deleted":"0","num_feature":"79","num_nodes":"7","size_leaf_vector":"1"}},{"base_weights":[-1.6301738E-2,9.964852E-3,-2.5378293E-1,8.858335E-2,-7.3232637E-3,6.7510447E-3,-6.957301E-3],"categories":[],"categories_nodes":[],"categories_segments":[],"categories_sizes":[],"default_left":[0,0,0,0,0,0,0],"id":3,"left_children":[1,-1,3,5,-1,-1,-1],"loss_changes":[1.1218104E1,0E0,6.2192926E0,9.30613E0,0E0,0E0,0E0],"parents":[2147483647,0,0,2,2,3,3],"right_children":[2,-1,4,6,-1,-1,-1],"split_conditions":[3.8261226E3,9.964852E-3,1.5700245E-2,4.3826772E3,-7.3232637E-3,6.7510447E-3,-6.957301E-3],"split_indices":[26,0,37,11,0,0,0],"split_type":[0,0,0,0,0,0,0],"sum_hessian":[4.9804886E1,9.434996E0,4.0369892E1,2.2289738E1,1.8080154E1,1.3139673E1,9.150064E0],"tree_param":{"num_deleted":"0","num_feature":"79","num_nodes":"7","size_leaf_vector":"1"}},{"base_weights":[1.14219084E-1,5.7258546E-1,-3.6590084E-1,1.1171437E-2,-2.6346375E-3,-7.917799E-3,2.7324345E-3],"categories":[],"categories_nodes":[],"categories_segments":[],"categories_sizes":[],"default_left":[0,0,0,0,0,0,0],"id":4,"left_children":[1,3,5,-1,-1,-1,-1],"loss_changes":[1.2013308E1,1.1142618E1,6.317705E0,0E0,0E0,0E0,0E0],"parents":[2147483647,0,0,1,1,2,2],"right_children":[2,4,6,-1,-1,-1,-1],"split_conditions":[5.2366013E1,4.364713E3,1.5578474E-2,1.1171437E-2,-2.6346375E-3,-7.917799E-3,2.7324345E-3],"split_indices":[42,11,61,0,0,0,0],"split_type":[0,0,0,0,0,0,0],"sum_hessian":[5.3278297E1,2.7529112E1,2.5749187E1,1.7643982E1,9.885129E0,1.6338467E1,9.410721E0],"tree_param":{"num_deleted":"0","num_feature":"79","num_nodes":"7","size_leaf_vector":"1"}},{"base_weights":[1.3849038E-1,-6.0101785E-3,4.0648484E-1,7.6343966E-1,-4.0075538E-4,1.3952746E-2,1.2318377E-3],"categories":[],"categories_nodes":[],"categories_segments":[],"categories_sizes":[],"default_left":[0,0,0,0,0,0,0],"id":5,"left_children":[1,-1,3,5,-1,-1,-1],"loss_changes":[9.359845E0,0E0,6.012508E0,6.676688E0,0E0,0E0,0E0],"parents":[2147483647,0,0,2,2,3,3],"right_children":[2,-1,4,6,-1,-1,-1],"split_conditions":[8.501472E-3,-6.0101785E-3,5.1872585E1,4.366237E3,-4.0075538E-4,1.3952746E-2,1.2318377E-3],"split_indices":[72,0,43,12,0,0,0],"split_type":[0,0,0,0,0,0,0],"sum_hessian":[4.9061363E1,1.3125432E1,3.5935932E1,2.0088177E1,1.5847755E1,1.0439749E1,9.648427E0],"tree_param":{"num_deleted":"0","num_feature":"79","num_nodes":"7","size_leaf_vector":"1"}},{"base_weights":[-9.698429E-2,1.805641E-1,-8.690782E-3,8.4399795E-3,-1.9600572E-1,-8.433891E-3,2.602424E-3],"categories":[],"categories_nodes":[],"categories_segments":[],"categories_sizes":[],"default_left":[0,0,0,0,0,0,0],"id":6,"left_children":[1,3,-1,-1,5,-1,-1],"loss_changes":[1.013149E1,8.477678E0,0E0,0E0,6.0429416E0,0E0,0E0],"parents":[2147483647,0,0,1,1,4,4],"right_children":[2,4,-1,-1,6,-1,-1],"split_conditions":[4.3897256E3,4.9867275E1,-8.690782E-3,8.4399795E-3,1.06524836E5,-8.433891E-3,2.602424E-3],"split_indices":[9,42,0,0,48,0,0],"split_type":[0,0,0,0,0,0,0],"sum_hessian":[4.9293133E1,3.5461052E1,1.3832081E1,1.3675845E1,2.1785206E1,9.405074E0,1.2380132E1],"tree_param":{"num_deleted":"0","num_feature":"79","num_nodes":"7","size_leaf_vector":"1"}},{"base_weights":[-1.3540183E-1,1.6589768E-1,-9.0044625E-3,9.12721E-3,-1.563523E-1,5.1456653E-3,-6.8225404E-3],"categories":[],"categories_nodes":[],"categories_segments":[],"categories_sizes":[],"default_left":[0,0,0,0,0,0,0],"id":7,"left_children":[1,3,-1,-1,5,-1,-1],"loss_changes":[1.1213957E1,8.280839E0,0E0,0E0,7.771762E0,0E0,0E0],"parents":[2147483647,0,0,1,1,4,4],"right_children":[2,4,-1,-1,6,-1,-1],"split_conditions":[4.3265054E3,5.017867E1,-9.0044625E-3,9.12721E-3,6.348164E0,5.1456653E-3,-6.8225404E-3],"split_indices":[13,17,0,0,32,0,0],"split_type":[0,0,0,0,0,0,0],"sum_hessian":[5.1020176E1,3.5709602E1,1.5310572E1,1.1449949E1,2.4259655E1,1.0157589E1,1.4102066E1],"tree_param":{"num_deleted":"0","num_feature":"79","num_nodes":"7","size_leaf_vector":"1"}},{"base_weights":[-6.280069E-2,2.5457668E-1,-1.298553E-2,1.1955707E-2,-2.4471674E-2,9.3137575E-3,-4.713469E-1,-8.741182E-3,-2.7229296E-4],"categories":[],"categories_nodes":[],"categories_segments":[],"categories_sizes":[],"default_left":[0,0,0,0,0,0,0,0,0],"id":8,"left_children":[1,3,-1,-1,5,-1,7,-1,-1],"loss_changes":[1.8237495E1,9.579248E0,0E0,0E0,1.1781382E1,0E0,2.8122416E0,0E0,0E0],"parents":[2147483647,0,0,1,1,4,4,6,6],"right_children":[2,4,-1,-1,6,-1,8,-1,-1],"split_conditions":[4.441342E3,5.681209E0,-1.298553E-2,1.1955707E-2,4.0376E3,9.3137575E-3,4.273424E3,-8.741182E-3,-2.7229296E-4],"split_indices":[12,32,0,0,68,0,24,0,0],"split_type":[0,0,0,0,0,0,0,0,0],"sum_hessian":[4.8290092E1,3.7943157E1,1.0346934E1,9.176332E0,2.8766827E1,9.203048E0,1.9563778E1,1.0418536E1,9.145241E0],"tree_param":{"num_deleted":"0","num_feature":"79","num_nodes":"9","size_leaf_vector":"1"}},{"base_weights":[1.6134392E-2,8.297163E-3,-1.5329811E-1,-7.3724347E-3,1.2172875E-1,5.6836926E-3,-5.681045E-3],"categories":[],"categories_nodes":[],"categories_segments":[],"categories_sizes":[],"default_left":[0,0,0,0,0,0,0],"id":9,"left_children":[1,-1,3,-1,5,-1,-1],"loss_changes":[7.117764E0,0E0,6.6547656E0,0E0,7.8600087E0,0E0,0E0],"parents":[2147483647,0,0,2,2,4,4],"right_children":[2,-1,4,-1,6,-1,-1],"split_conditions":[4.3564606E-1,8.297163E-3,1.0139417E-2,-7.3724347E-3,4.9255997E1,5.6836926E-3,-5.681045E-3],"split_indices":[49,0,72,0,20,0,0],"split_type":[0,0,0,0,0,0,0],"sum_hessian":[5.29794E1,9.670425E0,4.3308975E1,1.4829635E1,2.847934E1,1.7855305E1,1.0624036E1],"tree_param":{"num_deleted":"0","num_feature":"79","num_nodes":"7","size_leaf_vector":"1"}},{"base_weights":[2.0845838E-2,9.521366E-3,-2.141057E-1,3.1259283E-3,-4.764041E-1,-8.7875396E-2,-1.3282803E-2,-7.729225E-3,6.5928977E-3],"categories":[],"categories_nodes":[],"categories_segments":[],"categories_sizes":[],"default_left":[0,0,0,0,0,0,0,0,0],"id":10,"left_children":[1,-1,3,-1,5,7,-1,-1,-1],"loss_changes":[1.1606903E1,0E0,5.937909E0,0E0,8.254902E0,9.30111E0,0E0,0E0,0E0],"parents":[2147483647,0,0,2,2,4,4,5,5],"right_children":[2,-1,4,-1,6,8,-1,-1,-1],"split_conditions":[4.037E3,9.521366E-3,-6.987761E-3,3.1259283E-3,4.609861E3,4.16225E3,-1.3282803E-2,-7.729225E-3,6.5928977E-3],"split_indices":[68,0,53,0,29,2,0,0,0],"split_type":[0,0,0,0,0,0,0,0,0],"sum_hessian":[5.4964783E1,1.1685444E1,4.327934E1,1.4367925E1,2.8911415E1,1.9800732E1,9.110683E0,1.0638602E1,9.162128E0],"tree_param":{"num_deleted":"0","num_feature":"79","num_nodes":"9","size_leaf_vector":"1"}},{"base_weights":[2.8339557E-3,2.3592353E-1,-7.5556706E-3,1.04200905E-2,-2.2290604E-1,3.0709296E-3,-7.915637E-3],"categories":[],"categories_nodes":[],"categories_segments":[],"categories_sizes":[],"default_left":[0,0,0,0,0,0,0],"id":11,"left_children":[1,3,-1,-1,5,-1,-1],"loss_changes":[8.276245E0,1.34125395E1,0E0,0E0,6.5499377E0,0E0,0E0],"parents":[2147483647,0,0,1,1,4,4],"right_children":[2,4,-1,-1,6,-1,-1],"split_conditions":[4.399752E3,5.150239E1,-7.5556706E-3,1.04200905E-2,1.5700245E-2,3.0709296E-3,-7.915637E-3],"split_indices":[8,42,0,0,37,0,0],"split_type":[0,0,0,0,0,0,0],"sum_hessian":[5.0010437E1,3.8201324E1,1.1809114E1,1.4703819E1,2.3497503E1,1.1636628E1,1.1860875E1],"tree_param":{"num_deleted":"0","num_feature":"79","num_nodes":"7","size_leaf_vector":"1"}},{"base_weights":[-0E0,7.805718E-3,-2.4422197E-1,4.0479335E-3,-4.7896138E-1,-7.1373297E-4,-1.2455105E-2],"categories":[],"categories_nodes":[],"categories_segments":[],"categories_sizes":[],"default_left":[0,0,0,0,0,0,0],"id":12,"left_children":[1,-1,3,-1,5,-1,-1],"loss_changes":[8.443559E0,0E0,5.327629E0,0E0,7.032664E0,0E0,0E0],"parents":[2147483647,0,0,2,2,4,4],"right_children":[2,-1,4,-1,6,-1,-1],"split_conditions":[-6.1303345E-3,7.805718E-3,4.0510713E3,4.0479335E-3,1.5967272E-2,-7.1373297E-4,-1.2455105E-2],"split_indices":[53,0,24,0,37,0,0],"split_type":[0,0,0,0,0,0,0],"sum_hessian":[4.6524986E1,1.1401998E1,3.512299E1,9.184708E0,2.5938282E1,1.6803652E1,9.134631E0],"tree_param":{"num_deleted":"0","num_feature":"79","num_nodes":"7","size_leaf_vector":"1"}},{"base_weights":[-1.1428307E-1,6.7333183E-3,-5.210452E-1,-8.2214844E-1,-0E0,-2.5234858E-3,-1.4684801E-2],"categories":[],"categories_nodes":[],"categories_segments":[],"categories_sizes":[],"default_left":[0,0,0,0,0,0,0],"id":13,"left_children":[1,-1,3,5,-1,-1,-1],"loss_changes":[1.4788789E1,0E0,5.058605E0,5.858822E0,0E0,0E0,0E0],"parents":[2147483647,0,0,2,2,3,3],"right_children":[2,-1,4,6,-1,-1,-1],"split_conditions":[-6.360111E-3,6.7333183E-3,5.216056E1,4.01332E3,-0E0,-2.5234858E-3,-1.4684801E-2],"split_indices":[54,0,20,2,0,0,0],"split_type":[0,0,0,0,0,0,0],"sum_hessian":[4.80076E1,1.6631824E1,3.1375776E1,1.977211E1,1.1603667E1,1.0169191E1,9.602918E0],"tree_param":{"num_deleted":"0","num_feature":"79","num_nodes":"7","size_leaf_vector":"1"}},{"base_weights":[7.282015E-4,8.376895E-3,-2.8949317E-1,1.7217161E-3,-6.4961785E-1,-1.061941E-3,-1.2217838E-2],"categories":[],"categories_nodes":[],"categories_segments":[],"categories_sizes":[],"default_left":[0,0,0,0,0,0,0],"id":14,"left_children":[1,-1,3,-1,5,-1,-1],"loss_changes":[1.0750326E1,0E0,5.68721E0,0E0,4.759696E0,0E0,0E0],"parents":[2147483647,0,0,2,2,4,4],"right_children":[2,-1,4,-1,6,-1,-1],"split_conditions":[3.9767725E3,8.376895E-3,1.0334375E0,1.7217161E-3,4.3265054E3,-1.061941E-3,-1.2217838E-2],"split_indices":[1,0,50,0,13,0,0],"split_type":[0,0,0,0,0,0,0],"sum_hessian":[4.5761036E1,1.2449327E1,3.3311707E1,1.4561375E1,1.8750332E1,9.414318E0,9.336015E0],"tree_param":{"num_deleted":"0","num_feature":"79","num_nodes":"7","size_leaf_vector":"1"}},{"base_weights":[5.59717E-3,2.3264873E-1,-6.45669E-3,8.545907E-3,-2.4093297E-1,-7.6625664E-3,2.309116E-3],"categories":[],"categories_nodes":[],"categories_segments":[],"categories_sizes":[],"default_left":[0,0,0,0,0,0,0],"id":15,"left_children":[1,3,-1,-1,5,-1,-1],"loss_changes":[6.6911883E0,9.956501E0,0E0,0E0,4.514285E0,0E0,0E0],"parents":[2147483647,0,0,1,1,4,4],"right_children":[2,4,-1,-1,6,-1,-1],"split_conditions":[4.6194E3,5.01287E1,-6.45669E-3,8.545907E-3,9.379957E-3,-7.6625664E-3,2.309116E-3],"split_indices":[70,42,0,0,14,0,0],"split_type":[0,0,0,0,0,0,0],"sum_hessian":[4.82586E1,3.573111E1,1.252749E1,1.6435959E1,1.9295153E1,9.649757E0,9.645395E0],"tree_param":{"num_deleted":"0","num_feature":"79","num_nodes":"7","size_leaf_vector":"1"}},{"base_weights":[-3.6427323E-2,1.1198508E-2,-3.1492132E-1,-0E0,-7.86186E-3,-6.701503E-3,8.890201E-3],"categories":[],"categories_nodes":[],"categories_segments":[],"categories_sizes":[],"default_left":[0,0,0,0,0,0,0],"id":16,"left_children":[1,-1,3,5,-1,-1,-1],"loss_changes":[1.4404234E1,0E0,5.019764E0,1.207251E1,0E0,0E0,0E0],"parents":[2147483647,0,0,2,2,3,3],"right_children":[2,-1,4,6,-1,-1,-1],"split_conditions":[3.985E3,1.1198508E-2,4.307477E3,4.116279E3,-7.86186E-3,-6.701503E-3,8.890201E-3],"split_indices":[68,0,13,4,0,0,0],"split_type":[0,0,0,0,0,0,0],"sum_hessian":[4.7505047E1,9.215149E0,3.8289898E1,2.2308474E1,1.5981423E1,1.2879049E1,9.429423E0],"tree_param":{"num_deleted":"0","num_feature":"79","num_nodes":"7","size_leaf_vector":"1"}},{"base_weights":[-1.9260747E-2,2.1775296E-1,-5.9290244E-3,9.269697E-3,-2.61456E-1,-6.994966E-3,1.20033E-3],"categories":[],"categories_nodes":[],"categories_segments":[],"categories_sizes":[],"default_left":[0,0,0,0,0,0,0],"id":17,"left_children":[1,3,-1,-1,5,-1,-1],"loss_changes":[6.112366E0,1.03854065E1,0E0,0E0,2.9489675E0,0E0,0E0],"parents":[2147483647,0,0,1,1,4,4],"right_children":[2,4,-1,-1,6,-1,-1],"split_conditions":[4.365131E3,5.074393E1,-5.9290244E-3,9.269697E-3,6.3433918E1,-6.994966E-3,1.20033E-3],"split_indices":[11,42,0,0,17,0,0],"split_type":[0,0,0,0,0,0,0],"sum_hessian":[4.6504402E1,3.2020607E1,1.4483796E1,1.3721322E1,1.8299284E1,9.148332E0,9.150952E0],"tree_param":{"num_deleted":"0","num_feature":"79","num_nodes":"7","size_leaf_vector":"1"}},{"base_weights":[1.7904492E-1,6.355433E-1,-2.3626727E-1,1.18446415E-2,-0E0,2.1931953E-3,-9.344404E-3],"categories":[],"categories_nodes":[],"categories_segments":[],"categories_sizes":[],"default_left":[0,0,0,0,0,0,0],"id":18,"left_children":[1,3,5,-1,-1,-1,-1],"loss_changes":[9.678933E0,6.9510527E0,7.6325636E0,0E0,0E0,0E0,0E0],"parents":[2147483647,0,0,1,1,2,2],"right_children":[2,4,6,-1,-1,-1,-1],"split_conditions":[5.102142E1,4.369614E3,7.649631E0,1.18446415E-2,-0E0,2.1931953E-3,-9.344404E-3],"split_indices":[17,8,32,0,0,0,0],"split_type":[0,0,0,0,0,0,0],"sum_hessian":[4.9470993E1,2.3783354E1,2.5687637E1,1.3224748E1,1.0558607E1,1.5090021E1,1.0597616E1],"tree_param":{"num_deleted":"0","num_feature":"79","num_nodes":"7","size_leaf_vector":"1"}},{"base_weights":[9.039075E-2,3.565458E-1,-5.853218E-3,1.0984296E-2,-9.490381E-3,6.593061E-3,-7.37987E-3],"categories":[],"categories_nodes":[],"categories_segments":[],"categories_sizes":[],"default_left":[0,0,0,0,0,0,0],"id":19,"left_children":[1,3,-1,-1,5,-1,-1],"loss_changes":[8.2949E0,8.869126E0,0E0,0E0,9.918095E0,0E0,0E0],"parents":[2147483647,0,0,1,1,4,4],"right_children":[2,4,-1,-1,6,-1,-1],"split_conditions":[4.373482E3,6.8229E1,-5.853218E-3,1.0984296E-2,3.8006943E3,6.593061E-3,-7.37987E-3],"split_indices":[11,38,0,0,31,0,0],"split_type":[0,0,0,0,0,0,0],"sum_hessian":[4.8204388E1,3.4484978E1,1.371941E1,1.2172083E1,2.2312895E1,1.1414321E1,1.0898574E1],"tree_param":{"num_deleted":"0","num_feature":"79","num_nodes":"7","size_leaf_vector":"1"}},{"base_weights":[3.0681735E-2,3.369925E-1,-7.619274E-3,-2.1567156E-3,5.9858906E-1,1.2754685E-2,1.7743966E-3],"categories":[],"categories_nodes":[],"categories_segments":[],"categories_sizes":[],"default_left":[0,0,0,0,0,0,0],"id":20,"left_children":[1,3,-1,-1,5,-1,-1],"loss_changes":[1.152416E1,5.325894E0,0E0,0E0,5.9038534E0,0E0,0E0],"parents":[2147483647,0,0,1,1,4,4],"right_children":[2,4,-1,-1,6,-1,-1],"split_conditions":[4.3767856E3,4.0944597E3,-7.619274E-3,-2.1567156E-3,4.099723E-3,1.2754685E-2,1.7743966E-3],"split_indices":[11,11,0,0,57,0,0],"split_type":[0,0,0,0,0,0,0],"sum_hessian":[5.0188683E1,3.6004005E1,1.4184679E1,1.1437152E1,2.456685E1,9.709154E0,1.48576975E1],"tree_param":{"num_deleted":"0","num_feature":"79","num_nodes":"7","size_leaf_vector":"1"}},{"base_weights":[-7.393349E-2,-3.1844094E-1,5.7797963E-3,-8.774723E-3,-2.8191874E-2,-5.3967717E-3,4.7366656E-3],"categories":[],"categories_nodes":[],"categories_segments":[],"categories_sizes":[],"default_left":[0,0,0,0,0,0,0],"id":21,"left_children":[1,3,-1,-1,5,-1,-1],"loss_changes":[7.285442E0,4.854512E0,0E0,0E0,5.330019E0,0E0,0E0],"parents":[2147483647,0,0,1,1,4,4],"right_children":[2,4,-1,-1,6,-1,-1],"split_conditions":[1.529041E5,1.0628819E-2,5.7797963E-3,-8.774723E-3,-4.947333E-3,-5.3967717E-3,4.7366656E-3],"split_indices":[48,72,0,0,58,0,0],"split_type":[0,0,0,0,0,0,0],"sum_hessian":[4.7942738E1,3.4804844E1,1.3137894E1,1.205246E1,2.2752384E1,1.1617506E1,1.1134878E1],"tree_param":{"num_deleted":"0","num_feature":"79","num_nodes":"7","size_leaf_vector":"1"}},{"base_weights":[-3.751829E-2,6.7522484E-3,-2.1891622E-1,-4.104252E-1,2.4950511E-3,-1.2582651E-2,2.9528148E-5],"categories":[],"categories_nodes":[],"categories_segments":[],"categories_sizes":[],"default_left":[0,0,0,0,0,0,0],"id":22,"left_children":[1,-1,3,5,-1,-1,-1],"loss_changes":[5.692159E0,0E0,3.3965664E0,8.992187E0,0E0,0E0,0E0],"parents":[2147483647,0,0,2,2,3,3],"right_children":[2,-1,4,6,-1,-1,-1],"split_conditions":[7.724894E-3,6.7522484E-3,8.357143E1,-1.3188475E1,2.4950511E-3,-1.2582651E-2,2.9528148E-5],"split_indices":[73,0,36,21,0,0,0],"split_type":[0,0,0,0,0,0,0],"sum_hessian":[4.6949543E1,9.401622E0,3.7547924E1,2.6872486E1,1.0675437E1,9.361509E0,1.7510977E1],"tree_param":{"num_deleted":"0","num_feature":"79","num_nodes":"7","size_leaf_vector":"1"}},{"base_weights":[6.674611E-3,-2.3322801E-1,9.344253E-3,6.4925225E-3,-5.1055616E-1,-2.2464989E-1,-9.911505E-3,1.1233231E-3,-6.141288E-3],"categories":[],"categories_nodes":[],"categories_segments":[],"categories_sizes":[],"default_left":[0,0,0,0,0,0,0,0,0],"id":23,"left_children":[1,3,-1,-1,5,7,-1,-1,-1],"loss_changes":[1.0612444E1,9.216197E0,0E0,0E0,3.0778384E0,2.3297558E0,0E0,0E0,0E0],"parents":[2147483647,0,0,1,1,4,4,5,5],"right_children":[2,4,-1,-1,6,8,-1,-1,-1],"split_conditions":[7.496076E0,4.6944556E0,9.344253E-3,6.4925225E-3,3.605342E-3,8.550363E-3,-9.911505E-3,1.1233231E-3,-6.141288E-3],"split_indices":[27,32,0,0,53,64,0,0,0],"split_type":[0,0,0,0,0,0,0,0,0],"sum_hessian":[4.9191284E1,3.8530914E1,1.0660372E1,9.148903E0,2.9382011E1,1.828616E1,1.1095852E1,9.1329565E0,9.153202E0],"tree_param":{"num_deleted":"0","num_feature":"79","num_nodes":"9","size_leaf_vector":"1"}},{"base_weights":[-1.0770575E-1,8.4643485E-3,-3.2896838E-1,4.0176436E-3,-5.5193067E-1,9.5959136E-4,-1.3034328E-2],"categories":[],"categories_nodes":[],"categories_segments":[],"categories_sizes":[],"default_left":[0,0,0,0,0,0,0],"id":24,"left_children":[1,-1,3,-1,5,-1,-1],"loss_changes":[1.0109695E1,0E0,6.675643E0,0E0,1.4044478E1,0E0,0E0],"parents":[2147483647,0,0,2,2,4,4],"right_children":[2,-1,4,-1,6,-1,-1],"split_conditions":[-1.6819868E-2,8.4643485E-3,3.9205105E3,4.0176436E-3,6.558789E0,9.5959136E-4,-1.3034328E-2],"split_indices":[53,0,3,0,32,0,0],"split_type":[0,0,0,0,0,0,0],"sum_hessian":[5.043709E1,9.4418335E0,4.099526E1,9.450955E0,3.1544302E1,1.6035315E1,1.5508987E1],"tree_param":{"num_deleted":"0","num_feature":"79","num_nodes":"7","size_leaf_vector":"1"}},{"base_weights":[-1.0079491E-2,2.2616617E-1,-6.7633367E-3,-1.8930668E-1,1.1565902E-2,2.102443E-3,-4.9910787E-3],"categories":[],"categories_nodes":[],"categories_segments":[],"categories_sizes":[],"default_left":[0,0,0,0,0,0,0],"id":25,"left_children":[1,3,-1,5,-1,-1,-1],"loss_changes":[7.227399E0,1.26854315E1,0E0,2.6375036E0,0E0,0E0,0E0],"parents":[2147483647,0,0,1,1,3,3],"right_children":[2,4,-1,6,-1,-1,-1],"split_conditions":[4.3826772E3,4.221466E3,-6.7633367E-3,5.158026E1,1.1565902E-2,2.102443E-3,-4.9910787E-3],"split_indices":[11,8,0,17,0,0,0],"split_type":[0,0,0,0,0,0,0],"sum_hessian":[4.7426926E1,3.4235832E1,1.3191093E1,2.3049803E1,1.1186029E1,9.224113E0,1.3825689E1],"tree_param":{"num_deleted":"0","num_feature":"79","num_nodes":"7","size_leaf_vector":"1"}},{"base_weights":[-7.03704E-2,8.415299E-3,-2.9345724E-1,-8.989361E-3,5.8128014E-2,7.759719E-3,-6.5388056E-3],"categories":[],"categories_nodes":[],"categories_segments":[],"categories_sizes":[],"default_left":[0,0,0,0,0,0,0],"id":26,"left_children":[1,-1,3,-1,5,-1,-1],"loss_changes":[9.537784E0,0E0,8.007442E0,0E0,1.1253544E1,0E0,0E0],"parents":[2147483647,0,0,2,2,4,4],"right_children":[2,-1,4,-1,6,-1,-1],"split_conditions":[4.037E3,8.415299E-3,1.3678456E-2,-8.989361E-3,1.6749088E-2,7.759719E-3,-6.5388056E-3],"split_indices":[68,0,72,0,37,0,0],"split_type":[0,0,0,0,0,0,0],"sum_hessian":[4.9629635E1,9.714264E0,3.991537E1,1.5712233E1,2.4203136E1,1.232982E1,1.1873318E1],"tree_param":{"num_deleted":"0","num_feature":"79","num_nodes":"7","size_leaf_vector":"1"}},{"base_weights":[-5.810428E-2,2.5064012E-1,-3.8056096E-1,-8.914987E-4,8.567418E-3,-9.75513E-3,5.855541E-5],"categories":[],"categories_nodes":[],"categories_segments":[],"categories_sizes":[],"default_left":[0,0,0,0,0,0,0],"id":27,"left_children":[1,3,5,-1,-1,-1,-1],"loss_changes":[5.2764664E0,5.0918784E0,5.622508E0,0E0,0E0,0E0,0E0],"parents":[2147483647,0,0,1,1,2,2],"right_children":[2,4,6,-1,-1,-1,-1],"split_conditions":[5.102142E1,-1.4381633E-2,9.133358E-3,-8.914987E-4,8.567418E-3,-9.75513E-3,5.855541E-5],"split_indices":[17,15,14,0,0,0,0],"split_type":[0,0,0,0,0,0,0],"sum_hessian":[5.157506E1,2.592544E1,2.564962E1,1.6045858E1,9.879581E0,1.0853199E1,1.4796421E1],"tree_param":{"num_deleted":"0","num_feature":"79","num_nodes":"7","size_leaf_vector":"1"}},{"base_weights":[3.0794596E-2,3.6964422E-1,-7.455429E-3,1.1798447E-2,-9.3252175E-2,-4.8224605E-3,3.4859362E-3],"categories":[],"categories_nodes":[],"categories_segments":[],"categories_sizes":[],"default_left":[0,0,0,0,0,0,0],"id":28,"left_children":[1,3,-1,-1,5,-1,-1],"loss_changes":[1.2796749E1,1.2531055E1,0E0,0E0,3.433173E0,0E0,0E0],"parents":[2147483647,0,0,1,1,4,4],"right_children":[2,4,-1,-1,6,-1,-1],"split_conditions":[4.331563E3,5.150239E1,-7.455429E-3,1.1798447E-2,5.5417694E1,-4.8224605E-3,3.4859362E-3],"split_indices":[13,42,0,0,19,0,0],"split_type":[0,0,0,0,0,0,0],"sum_hessian":[5.1353252E1,3.5472134E1,1.5881119E1,1.3734639E1,2.1737494E1,1.210857E1,9.628923E0],"tree_param":{"num_deleted":"0","num_feature":"79","num_nodes":"7","size_leaf_vector":"1"}},{"base_weights":[-3.2539822E-2,9.612611E-3,-2.4361783E-1,6.0088206E-3,-4.9630985E-1,8.669061E-4,-8.729486E-1,-1.2995297E-2,-4.698912E-3],"categories":[],"categories_nodes":[],"categories_segments":[],"categories_sizes":[],"default_left":[0,0,0,0,0,0,0,0,0],"id":29,"left_children":[1,-1,3,-1,5,-1,7,-1,-1],"loss_changes":[1.0318942E1,0E0,9.047235E0,0E0,7.6641884E0,0E0,2.3013096E0,0E0,0E0],"parents":[2147483647,0,0,2,2,4,4,6,6],"right_children":[2,-1,4,-1,6,-1,8,-1,-1],"split_conditions":[6.9058514E-3,9.612611E-3,3.95753E3,6.0088206E-3,6.5797134E1,8.669061E-4,1.0926546E-2,-1.2995297E-2,-4.698912E-3],"split_indices":[73,0,4,0,36,0,64,0,0],"split_type":[0,0,0,0,0,0,0,0,0],"sum_hessian":[5.253789E1,9.14639E0,4.3391502E1,9.936994E0,3.3454506E1,1.3054669E1,2.0399837E1,1.0547056E1,9.852781E0],"tree_param":{"num_deleted":"0","num_feature":"79","num_nodes":"9","size_leaf_vector":"1"}},{"base_weights":[-9.428112E-2,1.451101E-1,-1.1085303E-2,6.4085007E-1,-4.153497E-3,1.774855E-3,1.2013433E-2],"categories":[],"categories_nodes":[],"categories_segments":[],"categories_sizes":[],"default_left":[0,0,0,0,0,0,0],"id":30,"left_children":[1,3,-1,5,-1,-1,-1],"loss_changes":[1.1116012E1,1.0331426E1,0E0,4.1494656E0,0E0,0E0,0E0],"parents":[2147483647,0,0,1,1,3,3],"right_children":[2,4,-1,6,-1,-1,-1],"split_conditions":[4.424121E3,5.133882E1,-1.1085303E-2,3.1122297E1,-4.153497E-3,1.774855E-3,1.2013433E-2],"split_indices":[10,17,0,42,0,0,0],"split_type":[0,0,0,0,0,0,0],"sum_hessian":[4.7358677E1,3.7835567E1,9.5231085E0,1.9832441E1,1.8003126E1,1.0629808E1,9.202633E0],"tree_param":{"num_deleted":"0","num_feature":"79","num_nodes":"7","size_leaf_vector":"1"}},{"base_weights":[-0E0,2.981256E-1,-1.0137021E-2,1.0165502E-2,-1.1679719E-1,4.5227953E-3,-9.050307E-3],"categories":[],"categories_nodes":[],"categories_segments":[],"categories_sizes":[],"default_left":[0,0,0,0,0,0,0],"id":31,"left_children":[1,3,-1,-1,5,-1,-1],"loss_changes":[1.3948849E1,1.0263846E1,0E0,0E0,9.20745E0,0E0,0E0],"parents":[2147483647,0,0,1,1,4,4],"right_children":[2,4,-1,-1,6,-1,-1],"split_conditions":[4.3525103E3,5.017867E1,-1.0137021E-2,1.0165502E-2,7.956343E0,4.5227953E-3,-9.050307E-3],"split_indices":[13,17,0,0,32,0,0],"split_type":[0,0,0,0,0,0,0],"sum_hessian":[4.7813053E1,3.6396664E1,1.141639E1,1.4208389E1,2.2188272E1,1.2633179E1,9.555095E0],"tree_param":{"num_deleted":"0","num_feature":"79","num_nodes":"7","size_leaf_vector":"1"}},{"base_weights":[-7.778749E-2,9.5125595E-3,-3.0179715E-1,1.1807351E-1,-8.389495E-1,6.3027837E-3,-3.981032E-3,-1.2148496E-2,-5.2262964E-3],"categories":[],"categories_nodes":[],"categories_segments":[],"categories_sizes":[],"default_left":[0,0,0,0,0,0,0,0,0],"id":32,"left_children":[1,-1,3,5,7,-1,-1,-1,-1],"loss_changes":[1.1207016E1,0E0,9.941023E0,5.7417684E0,1.20014E0,0E0,0E0,0E0,0E0],"parents":[2147483647,0,0,2,2,3,3,4,4],"right_children":[2,-1,4,6,8,-1,-1,-1,-1],"split_conditions":[4.1286933E-1,9.5125595E-3,1.3123207E-3,-9.904729E0,2.994012E-3,6.3027837E-3,-3.981032E-3,-1.2148496E-2,-5.2262964E-3],"split_indices":[49,0,53,22,60,0,0,0,0],"split_type":[0,0,0,0,0,0,0,0,0],"sum_hessian":[5.1507675E1,9.157743E0,4.234993E1,2.368181E1,1.8668121E1,1.234727E1,1.133454E1,9.065044E0,9.603077E0],"tree_param":{"num_deleted":"0","num_feature":"79","num_nodes":"9","size_leaf_vector":"1"}},{"base_weights":[7.715353E-2,2.8829107E-1,-7.3617795E-3,7.548596E-1,-1.2703829E-1,3.7706061E-3,1.1975611E-2,2.788438E-3,-6.8326914E-3],"categories":[],"categories_nodes":[],"categories_segments":[],"categories_sizes":[],"default_left":[0,0,0,0,0,0,0,0,0],"id":33,"left_children":[1,3,-1,5,7,-1,-1,-1,-1],"loss_changes":[8.250573E0,8.158609E0,0E0,2.2156973E0,4.4890046E0,0E0,0E0,0E0,0E0],"parents":[2147483647,0,0,1,1,3,3,4,4],"right_children":[2,4,-1,6,8,-1,-1,-1,-1],"split_conditions":[4.398134E3,5.881041E1,-7.3617795E-3,2.4443659E-1,6.941425E1,3.7706061E-3,1.1975611E-2,2.788438E-3,-6.8326914E-3],"split_indices":[11,42,0,33,38,0,0,0,0],"split_type":[0,0,0,0,0,0,0,0,0],"sum_hessian":[5.0759975E1,4.0332363E1,1.0427612E1,1.9137459E1,2.1194902E1,9.935755E0,9.201705E0,1.1857663E1,9.33724E0],"tree_param":{"num_deleted":"0","num_feature":"79","num_nodes":"9","size_leaf_vector":"1"}},{"base_weights":[-4.759986E-2,5.1287804E-3,-2.9253206E-1,1.1156067E-2,-1.048887E-2,6.0083983E-3,-4.4809766E-3],"categories":[],"categories_nodes":[],"categories_segments":[],"categories_sizes":[],"default_left":[0,0,0,0,0,0,0],"id":34,"left_children":[1,-1,3,5,-1,-1,-1],"loss_changes":[6.422259E0,0E0,7.5127563E0,5.87127E0,0E0,0E0,0E0],"parents":[2147483647,0,0,2,2,3,3],"right_children":[2,-1,4,6,-1,-1,-1],"split_conditions":[-6.025703E-3,5.1287804E-3,4.390751E3,1.6442532E-2,-1.048887E-2,6.0083983E-3,-4.4809766E-3],"split_indices":[53,0,10,37,0,0,0],"split_type":[0,0,0,0,0,0,0],"sum_hessian":[4.921194E1,1.5085605E1,3.4126335E1,2.369871E1,1.0427625E1,1.0634882E1,1.30638275E1],"tree_param":{"num_deleted":"0","num_feature":"79","num_nodes":"7","size_leaf_vector":"1"}},{"base_weights":[1.3179971E-2,9.118848E-3,-2.3268455E-1,1.9993493E-1,-9.411071E-3,7.2465786E-3,-2.9081574E-3],"categories":[],"categories_nodes":[],"categories_segments":[],"categories_sizes":[],"default_left":[0,0,0,0,0,0,0],"id":35,"left_children":[1,-1,3,5,-1,-1,-1],"loss_changes":[1.0799558E1,0E0,1.1343776E1,5.562475E0,0E0,0E0,0E0],"parents":[2147483647,0,0,2,2,3,3],"right_children":[2,-1,4,6,-1,-1,-1],"split_conditions":[4.037E3,9.118848E-3,6.8229E1,1.0907334E0,-9.411071E-3,7.2465786E-3,-2.9081574E-3],"split_indices":[68,0,38,50,0,0,0],"split_type":[0,0,0,0,0,0,0],"sum_hessian":[5.0533894E1,1.1461331E1,3.9072563E1,2.331774E1,1.5754821E1,1.1809724E1,1.1508017E1],"tree_param":{"num_deleted":"0","num_feature":"79","num_nodes":"7","size_leaf_vector":"1"}},{"base_weights":[-6.224999E-2,5.3152186E-3,-3.4370407E-1,-2.3991253E-2,-1.1535781E-2,4.899678E-3,-5.912739E-3],"categories":[],"categories_nodes":[],"categories_segments":[],"categories_sizes":[],"default_left":[0,0,0,0,0,0,0],"id":36,"left_children":[1,-1,3,5,-1,-1,-1],"loss_changes":[7.6698704E0,0E0,7.3638964E0,6.1861577E0,0E0,0E0,0E0],"parents":[2147483647,0,0,2,2,3,3],"right_children":[2,-1,4,6,-1,-1,-1],"split_conditions":[-6.1303345E-3,5.3152186E-3,4.6062534E3,1.0371412E0,-1.1535781E-2,4.899678E-3,-5.912739E-3],"split_indices":[53,0,29,50,0,0,0],"split_type":[0,0,0,0,0,0,0],"sum_hessian":[4.8051666E1,1.5617719E1,3.243395E1,2.3239576E1,9.19437E0,1.1890336E1,1.134924E1],"tree_param":{"num_deleted":"0","num_feature":"79","num_nodes":"7","size_leaf_vector":"1"}},{"base_weights":[4.1244496E-2,2.5725013E-1,-8.5433945E-3,1.1929812E-2,-1.7411519E-2,5.576061E-3,-4.7531095E-3],"categories":[],"categories_nodes":[],"categories_segments":[],"categories_sizes":[],"default_left":[0,0,0,0,0,0,0],"id":37,"left_children":[1,3,-1,-1,5,-1,-1],"loss_changes":[9.083978E0,9.934774E0,0E0,0E0,7.2255917E0,0E0,0E0],"parents":[2147483647,0,0,1,1,4,4],"right_children":[2,4,-1,-1,6,-1,-1],"split_conditions":[4.442474E3,1.4890133E-2,-8.5433945E-3,1.1929812E-2,4.6525948E1,5.576061E-3,-4.7531095E-3],"split_indices":[12,37,0,0,20,0,0],"split_type":[0,0,0,0,0,0,0],"sum_hessian":[4.9982956E1,4.0315567E1,9.667389E0,9.681828E0,3.0633738E1,1.31755E1,1.7458237E1],"tree_param":{"num_deleted":"0","num_feature":"79","num_nodes":"7","size_leaf_vector":"1"}},{"base_weights":[1.2482407E-2,-1.6429797E-1,7.184396E-3,3.0654338E-1,-5.861876E-1,9.04719E-3,-2.1647338E-3,-1.0961048E-2,-2.1493048E-3],"categories":[],"categories_nodes":[],"categories_segments":[],"categories_sizes":[],"default_left":[0,0,0,0,0,0,0,0,0],"id":38,"left_children":[1,3,-1,5,7,-1,-1,-1,-1],"loss_changes":[6.189279E0,8.24304E0,0E0,5.5228214E0,3.207808E0,0E0,0E0,0E0,0E0],"parents":[2147483647,0,0,1,1,3,3,4,4],"right_children":[2,4,-1,6,8,-1,-1,-1,-1],"split_conditions":[7.6574707E0,6.6418495E1,7.184396E-3,4.3678506E3,1.8433351E-2,9.04719E-3,-2.1647338E-3,-1.0961048E-2,-2.1493048E-3],"split_indices":[27,36,0,11,39,0,0,0,0],"split_type":[0,0,0,0,0,0,0,0,0],"sum_hessian":[5.091343E1,4.006898E1,1.0844449E1,1.8662928E1,2.1406052E1,9.198767E0,9.464161E0,9.274863E0,1.2131188E1],"tree_param":{"num_deleted":"0","num_feature":"79","num_nodes":"9","size_leaf_vector":"1"}},{"base_weights":[8.20915E-2,3.8550115E-1,-5.6157666E-3,-0E0,1.314255E-2,3.8410984E-3,-3.5189933E-3],"categories":[],"categories_nodes":[],"categories_segments":[],"categories_sizes":[],"default_left":[0,0,0,0,0,0,0],"id":39,"left_children":[1,3,-1,5,-1,-1,-1],"loss_changes":[8.443665E0,1.000528E1,0E0,2.6252477E0,0E0,0E0,0E0],"parents":[2147483647,0,0,1,1,3,3],"right_children":[2,4,-1,6,-1,-1,-1],"split_conditions":[4.3599463E3,4.275828E3,-5.6157666E-3,4.8018185E1,1.314255E-2,3.8410984E-3,-3.5189933E-3],"split_indices":[8,8,0,19,0,0,0],"split_type":[0,0,0,0,0,0,0],"sum_hessian":[4.507343E1,3.049215E1,1.458128E1,2.1283983E1,9.208166E0,1.019765E1,1.1086334E1],"tree_param":{"num_deleted":"0","num_feature":"79","num_nodes":"7","size_leaf_vector":"1"}},{"base_weights":[-1.7257884E-1,-3.9323127E-1,3.113888E-3,-1.1085097E-2,-5.8329813E-2,4.566438E-3,-6.2748734E-3],"categories":[],"categories_nodes":[],"categories_segments":[],"categories_sizes":[],"default_left":[0,0,0,0,0,0,0],"id":40,"left_children":[1,3,-1,-1,5,-1,-1],"loss_changes":[4.989951E0,6.744268E0,0E0,0E0,5.9499936E0,0E0,0E0],"parents":[2147483647,0,0,1,1,4,4],"right_children":[2,4,-1,-1,6,-1,-1],"split_conditions":[1.5589267E5,8.671746E-3,3.113888E-3,-1.1085097E-2,4.34018E6,4.566438E-3,-6.2748734E-3],"split_indices":[48,72,0,0,46,0,0],"split_type":[0,0,0,0,0,0,0],"sum_hessian":[4.743494E1,3.2621677E1,1.4813266E1,1.0514678E1,2.2106998E1,1.1271113E1,1.0835885E1],"tree_param":{"num_deleted":"0","num_feature":"79","num_nodes":"7","size_leaf_vector":"1"}},{"base_weights":[-7.558759E-2,-8.317676E-3,2.1622428E-1,8.006971E-3,-7.1914494E-2,6.62399E-3,-1.1407289E-2],"categories":[],"categories_nodes":[],"categories_segments":[],"categories_sizes":[],"default_left":[0,0,0,0,0,0,0],"id":41,"left_children":[1,-1,3,-1,5,-1,-1],"loss_changes":[1.05138855E1,0E0,5.6644077E0,0E0,1.6300404E1,0E0,0E0],"parents":[2147483647,0,0,2,2,4,4],"right_children":[2,-1,4,-1,6,-1,-1],"split_conditions":[9.079858E-3,-8.317676E-3,3.8237E3,8.006971E-3,1.5734226E-2,6.62399E-3,-1.1407289E-2],"split_indices":[72,0,71,0,39,0,0],"split_type":[0,0,0,0,0,0,0],"sum_hessian":[4.9686813E1,1.4670644E1,3.501617E1,1.2405088E1,2.2611082E1,1.3273241E1,9.33784E0],"tree_param":{"num_deleted":"0","num_feature":"79","num_nodes":"7","size_leaf_vector":"1"}},{"base_weights":[-3.656341E-2,5.6644226E-3,-3.095942E-1,-1.07315015E-2,-0E0,5.0081774E-3,-5.26443E-3],"categories":[],"categories_nodes":[],"categories_segments":[],"categories_sizes":[],"default_left":[0,0,0,0,0,0,0],"id":42,"left_children":[1,-1,3,-1,5,-1,-1],"loss_changes":[7.8387237E0,0E0,7.4082007E0,0E0,5.77518E0,0E0,0E0],"parents":[2147483647,0,0,2,2,4,4],"right_children":[2,-1,4,-1,6,-1,-1],"split_conditions":[-6.1303345E-3,5.6644226E-3,-7.5851837E-3,-1.07315015E-2,6.8229E1,5.0081774E-3,-5.26443E-3],"split_indices":[54,0,58,0,38,0,0],"split_type":[0,0,0,0,0,0,0],"sum_hessian":[5.019081E1,1.5834987E1,3.4355827E1,1.0214095E1,2.4141731E1,1.2329026E1,1.1812705E1],"tree_param":{"num_deleted":"0","num_feature":"79","num_nodes":"7","size_leaf_vector":"1"}},{"base_weights":[1.02204494E-1,-7.771854E-3,3.7629893E-1,1.1815645E-2,5.1914517E-2,5.5971798E-3,-7.303385E-3],"categories":[],"categories_nodes":[],"categories_segments":[],"categories_sizes":[],"default_left":[0,0,0,0,0,0,0],"id":43,"left_children":[1,-1,3,-1,5,-1,-1],"loss_changes":[1.0813405E1,0E0,8.168203E0,0E0,9.074489E0,0E0,0E0],"parents":[2147483647,0,0,2,2,4,4],"right_children":[2,-1,4,-1,6,-1,-1],"split_conditions":[8.501472E-3,-7.771854E-3,6.2015433E0,1.1815645E-2,4.9557804E1,5.5971798E-3,-7.303385E-3],"split_indices":[72,0,32,0,19,0,0],"split_type":[0,0,0,0,0,0,0],"sum_hessian":[4.702501E1,1.121651E1,3.58085E1,1.0386788E1,2.5421711E1,1.5834173E1,9.587538E0],"tree_param":{"num_deleted":"0","num_feature":"79","num_nodes":"7","size_leaf_vector":"1"}},{"base_weights":[9.4396174E-2,3.8050127E-1,-5.542598E-3,-0E0,9.321995E-3],"categories":[],"categories_nodes":[],"categories_segments":[],"categories_sizes":[],"default_left":[0,0,0,0,0],"id":44,"left_children":[1,3,-1,-1,-1],"loss_changes":[7.9860444E0,5.7610793E0,0E0,0E0,0E0],"parents":[2147483647,0,0,1,1],"right_children":[2,4,-1,-1,-1],"split_conditions":[4.3599463E3,3.9020837E3,-5.542598E-3,-0E0,9.321995E-3],"split_indices":[8,31,0,0,0],"split_type":[0,0,0,0,0],"sum_hessian":[4.4793E1,3.0984417E1,1.3808583E1,1.7844463E1,1.3139954E1],"tree_param":{"num_deleted":"0","num_feature":"79","num_nodes":"5","size_leaf_vector":"1"}},{"base_weights":[2.6066527E-2,-2.024559E-1,8.799934E-3,3.0767256E-3,-5.3107935E-1,5.431816E-4,-1.0439879E-2],"categories":[],"categories_nodes":[],"categories_segments":[],"categories_sizes":[],"default_left":[0,0,0,0,0,0,0],"id":45,"left_children":[1,3,-1,-1,5,-1,-1],"loss_changes":[8.593088E0,5.8958254E0,0E0,0E0,5.945817E0,0E0,0E0],"parents":[2147483647,0,0,1,1,4,4],"right_children":[2,4,-1,-1,6,-1,-1],"split_conditions":[7.8668413E0,6.2015433E0,8.799934E-3,3.0767256E-3,4.6282524E1,5.431816E-4,-1.0439879E-2],"split_indices":[27,32,0,0,20,0,0],"split_type":[0,0,0,0,0,0,0],"sum_hessian":[4.5292793E1,3.5180805E1,1.0111987E1,1.3789272E1,2.1391533E1,9.143307E0,1.2248225E1],"tree_param":{"num_deleted":"0","num_feature":"79","num_nodes":"7","size_leaf_vector":"1"}},{"base_weights":[1.1252279E-1,3.757553E-1,-5.4084137E-3,3.3311304E-2,1.1928526E-2,8.02335E-3,-4.797373E-3],"categories":[],"categories_nodes":[],"categories_segments":[],"categories_sizes":[],"default_left":[0,0,0,0,0,0,0],"id":46,"left_children":[1,3,-1,5,-1,-1,-1],"loss_changes":[8.29265E0,8.757246E0,0E0,9.034549E0,0E0,0E0,0E0],"parents":[2147483647,0,0,1,1,3,3],"right_children":[2,4,-1,6,-1,-1,-1],"split_conditions":[4.3599463E3,4.134255E3,-5.4084137E-3,3.9617966E3,1.1928526E-2,8.02335E-3,-4.797373E-3],"split_indices":[8,5,0,5,0,0,0],"split_type":[0,0,0,0,0,0,0],"sum_hessian":[5.0179276E1,3.5659157E1,1.4520119E1,2.4997128E1,1.0662029E1,1.0187334E1,1.4809794E1],"tree_param":{"num_deleted":"0","num_feature":"79","num_nodes":"7","size_leaf_vector":"1"}},{"base_weights":[-0E0,6.9764624E-3,-1.9547442E-1,4.8410207E-2,-1.0087974E-2,-3.4824056E-3,7.2313785E-3],"categories":[],"categories_nodes":[],"categories_segments":[],"categories_sizes":[],"default_left":[0,0,0,0,0,0,0],"id":47,"left_children":[1,-1,3,5,-1,-1,-1],"loss_changes":[6.0604334E0,0E0,7.169007E0,6.9201465E0,0E0,0E0,0E0],"parents":[2147483647,0,0,2,2,3,3],"right_children":[2,-1,4,6,-1,-1,-1],"split_conditions":[-1.2998579E-2,6.9764624E-3,4.58342E3,5E0,-1.0087974E-2,-3.4824056E-3,7.2313785E-3],"split_indices":[14,0,29,77,0,0,0],"split_type":[0,0,0,0,0,0,0],"sum_hessian":[4.768336E1,1.0382702E1,3.730066E1,2.816442E1,9.136242E0,1.749859E1,1.0665829E1],"tree_param":{"num_deleted":"0","num_feature":"79","num_nodes":"7","size_leaf_vector":"1"}},{"base_weights":[-1.5120766E-3,6.3876566E-3,-2.9060435E-1,2.3555725E-3,-5.841756E-1,-1.3909121E-3,-9.610887E-3],"categories":[],"categories_nodes":[],"categories_segments":[],"categories_sizes":[],"default_left":[0,0,0,0,0,0,0],"id":48,"left_children":[1,-1,3,-1,5,-1,-1],"loss_changes":[8.621806E0,0E0,5.3247156E0,0E0,2.7927938E0,0E0,0E0],"parents":[2147483647,0,0,2,2,4,4],"right_children":[2,-1,4,-1,6,-1,-1],"split_conditions":[-6.1303345E-3,6.3876566E-3,6.523879E1,2.3555725E-3,2.8048523E1,-1.3909121E-3,-9.610887E-3],"split_indices":[53,0,36,0,40,0,0],"split_type":[0,0,0,0,0,0,0],"sum_hessian":[4.943538E1,1.56021805E1,3.38332E1,1.2026565E1,2.1806635E1,9.574507E0,1.2232128E1],"tree_param":{"num_deleted":"0","num_feature":"79","num_nodes":"7","size_leaf_vector":"1"}},{"base_weights":[2.5917878E-2,8.825384E-3,-1.5986766E-1,-9.294152E-3,1.3334015E-1,4.7350028E-3,-1.8623912E-3],"categories":[],"categories_nodes":[],"categories_segments":[],"categories_sizes":[],"default_left":[0,0,0,0,0,0,0],"id":49,"left_children":[1,-1,3,-1,5,-1,-1],"loss_changes":[7.91793E0,0E0,8.989571E0,0E0,2.9449193E0,0E0,0E0],"parents":[2147483647,0,0,2,2,4,4],"right_children":[2,-1,4,-1,6,-1,-1],"split_conditions":[4.037497E-1,8.825384E-3,9.10347E-3,-9.294152E-3,4.2123385E6,4.7350028E-3,-1.8623912E-3],"split_indices":[49,0,72,0,46,0,0],"split_type":[0,0,0,0,0,0,0],"sum_hessian":[5.112416E1,9.634437E0,4.1489723E1,1.2169561E1,2.9320162E1,1.5012367E1,1.4307795E1],"tree_param":{"num_deleted":"0","num_feature":"79","num_nodes":"7","size_leaf_vector":"1"}},{"base_weights":[1.1668523E-1,4.5579457E-1,-2.6604322E-1,9.424033E-3,1.0641122E-3,4.600659E-4,-6.548676E-3],"categories":[],"categories_nodes":[],"categories_segments":[],"categories_sizes":[],"default_left":[0,0,0,0,0,0,0],"id":50,"left_children":[1,3,5,-1,-1,-1,-1],"loss_changes":[6.3145113E0,3.5645971E0,2.5630207E0,0E0,0E0,0E0,0E0],"parents":[2147483647,0,0,1,1,2,2],"right_children":[2,4,6,-1,-1,-1,-1],"split_conditions":[2.0854834E-3,1.02709E0,7.956343E0,9.424033E-3,1.0641122E-3,4.600659E-4,-6.548676E-3],"split_indices":[53,50,32,0,0,0,0],"split_type":[0,0,0,0,0,0,0],"sum_hessian":[4.7193108E1,2.539081E1,2.18023E1,1.0873619E1,1.451719E1,1.1271757E1,1.0530542E1],"tree_param":{"num_deleted":"0","num_feature":"79","num_nodes":"7","size_leaf_vector":"1"}},{"base_weights":[-1.5785521E-1,8.2738996E-2,-1.0341194E-2,7.752721E-3,-2.4324834E-1,1.5572162E-3,-9.022785E-3],"categories":[],"categories_nodes":[],"categories_segments":[],"categories_sizes":[],"default_left":[0,0,0,0,0,0,0],"id":51,"left_children":[1,3,-1,-1,5,-1,-1],"loss_changes":[9.776558E0,8.120665E0,0E0,0E0,6.1080093E0,0E0,0E0],"parents":[2147483647,0,0,1,1,4,4],"right_children":[2,4,-1,-1,6,-1,-1],"split_conditions":[4.358656E3,5.017867E1,-1.0341194E-2,7.752721E-3,7.956343E0,1.5572162E-3,-9.022785E-3],"split_indices":[13,17,0,0,32,0,0],"split_type":[0,0,0,0,0,0,0],"sum_hessian":[4.8271557E1,3.725044E1,1.1021119E1,1.2668641E1,2.4581797E1,1.4834648E1,9.7471485E0],"tree_param":{"num_deleted":"0","num_feature":"79","num_nodes":"7","size_leaf_vector":"1"}},{"base_weights":[-0E0,5.2931253E-3,-3.1895924E-1,2.8394905E-3,-7.5027985E-3],"categories":[],"categories_nodes":[],"categories_segments":[],"categories_sizes":[],"default_left":[0,0,0,0,0],"id":52,"left_children":[1,-1,3,-1,-1],"loss_changes":[7.355207E0,0E0,6.6103373E0,0E0,0E0],"parents":[2147483647,0,0,2,2],"right_children":[2,-1,4,-1,-1],"split_conditions":[6.348164E0,5.2931253E-3,-6.025703E-3,2.8394905E-3,-7.5027985E-3],"split_indices":[32,0,53,0,0],"split_type":[0,0,0,0,0],"sum_hessian":[4.5874275E1,1.7676168E1,2.8198107E1,1.0876759E1,1.7321348E1],"tree_param":{"num_deleted":"0","num_feature":"79","num_nodes":"5","size_leaf_vector":"1"}},{"base_weights":[3.6780282E-3,9.9059865E-3,-2.0890641E-1,3.1887717E-3,-5.492005E-1,-1.9478292E-3,-1.0248357E-2],"categories":[],"categories_nodes":[],"categories_segments":[],"categories_sizes":[],"default_left":[0,0,0,0,0,0,0],"id":53,"left_children":[1,-1,3,-1,5,-1,-1],"loss_changes":[1.0588524E1,0E0,7.5379457E0,0E0,3.4685402E0,0E0,0E0],"parents":[2147483647,0,0,2,2,4,4],"right_children":[2,-1,4,-1,6,-1,-1],"split_conditions":[3.9873E3,9.9059865E-3,6.541487E1,3.1887717E-3,1.9566526E-3,-1.9478292E-3,-1.0248357E-2],"split_indices":[68,0,36,0,51,0,0],"split_type":[0,0,0,0,0,0,0],"sum_hessian":[5.198895E1,9.697958E0,4.229099E1,1.6667946E1,2.5623043E1,1.4244764E1,1.137828E1],"tree_param":{"num_deleted":"0","num_feature":"79","num_nodes":"7","size_leaf_vector":"1"}},{"base_weights":[9.25512E-2,4.5319682E-1,-2.3882034E-1,1.0494935E-2,-1.8816452E-3,-7.706446E-3,2.0542257E-3],"categories":[],"categories_nodes":[],"categories_segments":[],"categories_sizes":[],"default_left":[0,0,0,0,0,0,0],"id":54,"left_children":[1,3,5,-1,-1,-1,-1],"loss_changes":[5.9878087E0,8.301249E0,5.493575E0,0E0,0E0,0E0,0E0],"parents":[2147483647,0,0,1,1,2,2],"right_children":[2,4,6,-1,-1,-1,-1],"split_conditions":[4.9867275E1,4.3599463E3,9.133358E-3,1.0494935E-2,-1.8816452E-3,-7.706446E-3,2.0542257E-3],"split_indices":[42,8,14,0,0,0,0],"split_type":[0,0,0,0,0,0,0],"sum_hessian":[4.8558193E1,2.3599295E1,2.4958899E1,1.296051E1,1.0638784E1,1.19706955E1,1.2988204E1],"tree_param":{"num_deleted":"0","num_feature":"79","num_nodes":"7","size_leaf_vector":"1"}},{"base_weights":[-5.6448687E-2,1.8568458E-1,-8.9033395E-3,8.0230115E-3,-1.3333401E-1,-5.106458E-3,3.7411945E-3],"categories":[],"categories_nodes":[],"categories_segments":[],"categories_sizes":[],"default_left":[0,0,0,0,0,0,0],"id":55,"left_children":[1,3,-1,-1,5,-1,-1],"loss_changes":[9.422543E0,6.933363E0,0E0,0E0,4.0771365E0,0E0,0E0],"parents":[2147483647,0,0,1,1,4,4],"right_children":[2,4,-1,-1,6,-1,-1],"split_conditions":[4.429757E3,4.2658585E6,-8.9033395E-3,8.0230115E-3,2.7090038E1,-5.106458E-3,3.7411945E-3],"split_indices":[12,46,0,0,41,0,0],"split_type":[0,0,0,0,0,0,0],"sum_hessian":[4.829481E1,3.6787354E1,1.1507458E1,1.3404975E1,2.338238E1,1.4039058E1,9.343321E0],"tree_param":{"num_deleted":"0","num_feature":"79","num_nodes":"7","size_leaf_vector":"1"}},{"base_weights":[-9.716282E-2,1.5552954E-1,-7.7078566E-3,-2.04446E-1,7.101696E-3,-7.163695E-3,3.211243E-3],"categories":[],"categories_nodes":[],"categories_segments":[],"categories_sizes":[],"default_left":[0,0,0,0,0,0,0],"id":56,"left_children":[1,3,-1,5,-1,-1,-1],"loss_changes":[7.7414947E0,6.426779E0,0E0,4.8824058E0,0E0,0E0,0E0],"parents":[2147483647,0,0,1,1,3,3],"right_children":[2,4,-1,6,-1,-1,-1],"split_conditions":[4.609861E3,4E0,-7.7078566E-3,8.479026E4,7.101696E-3,-7.163695E-3,3.211243E-3],"split_indices":[29,77,0,47,0,0,0],"split_type":[0,0,0,0,0,0,0],"sum_hessian":[4.7304207E1,3.3562298E1,1.3741907E1,1.9452745E1,1.4109554E1,1.0357813E1,9.094932E0],"tree_param":{"num_deleted":"0","num_feature":"79","num_nodes":"7","size_leaf_vector":"1"}},{"base_weights":[-1.1734721E-1,7.2824103E-3,-3.1789947E-1,1.3433681E-1,-6.730965E-1,6.400262E-3,-3.197651E-3,-1.26526095E-2,-3.7013707E-4],"categories":[],"categories_nodes":[],"categories_segments":[],"categories_sizes":[],"default_left":[0,0,0,0,0,0,0,0,0],"id":57,"left_children":[1,-1,3,5,7,-1,-1,-1,-1],"loss_changes":[8.416184E0,0E0,7.0770016E0,3.956487E0,7.503956E0,0E0,0E0,0E0,0E0],"parents":[2147483647,0,0,2,2,3,3,4,4],"right_children":[2,-1,4,6,8,-1,-1,-1,-1],"split_conditions":[4.037E3,7.2824103E-3,1.0133766E0,1.5300807E-2,9.423919E-3,6.400262E-3,-3.197651E-3,-1.26526095E-2,-3.7013707E-4],"split_indices":[68,0,50,39,63,0,0,0,0],"split_type":[0,0,0,0,0,0,0,0,0],"sum_hessian":[5.2150867E1,9.934472E0,4.2216396E1,1.8338102E1,2.3878292E1,9.106015E0,9.232086E0,1.2801414E1,1.10768795E1],"tree_param":{"num_deleted":"0","num_feature":"79","num_nodes":"9","size_leaf_vector":"1"}},{"base_weights":[-3.5253733E-2,9.182472E-3,-2.8683737E-1,-6.344598E-1,3.3090052E-3,-1.2914578E-3,-1.1972108E-2],"categories":[],"categories_nodes":[],"categories_segments":[],"categories_sizes":[],"default_left":[0,0,0,0,0,0,0],"id":58,"left_children":[1,-1,3,5,-1,-1,-1],"loss_changes":[1.0448266E1,0E0,7.8900547E0,5.484337E0,0E0,0E0,0E0],"parents":[2147483647,0,0,2,2,3,3],"right_children":[2,-1,4,6,-1,-1,-1],"split_conditions":[3.6933E3,9.182472E-3,6.5915924E1,2.876687E1,3.3090052E-3,-1.2914578E-3,-1.1972108E-2],"split_indices":[71,0,45,44,0,0,0],"split_type":[0,0,0,0,0,0,0],"sum_hessian":[4.6261993E1,9.638941E0,3.662305E1,2.3423203E1,1.3199848E1,1.1955198E1,1.1468004E1],"tree_param":{"num_deleted":"0","num_feature":"79","num_nodes":"7","size_leaf_vector":"1"}},{"base_weights":[1.2051665E-1,9.463255E-3,-9.68409E-2,-3.61475E-1,5.03229E-3,2.486828E-3,-7.3183435E-3],"categories":[],"categories_nodes":[],"categories_segments":[],"categories_sizes":[],"default_left":[0,0,0,0,0,0,0],"id":59,"left_children":[1,-1,3,5,-1,-1,-1],"loss_changes":[8.928188E0,0E0,6.164551E0,5.6366014E0,0E0,0E0,0E0],"parents":[2147483647,0,0,2,2,3,3],"right_children":[2,-1,4,6,-1,-1,-1],"split_conditions":[4.037E3,9.463255E-3,1.7775269E5,6.8428633E3,5.03229E-3,2.486828E-3,-7.3183435E-3],"split_indices":[68,0,48,48,0,0,0],"split_type":[0,0,0,0,0,0,0],"sum_hessian":[5.1679466E1,1.1426121E1,4.0253345E1,2.7925068E1,1.2328277E1,9.519525E0,1.8405542E1],"tree_param":{"num_deleted":"0","num_feature":"79","num_nodes":"7","size_leaf_vector":"1"}},{"base_weights":[-3.7717197E-2,4.1060043E-3,-2.8966522E-1,1.492565E-3,-9.304607E-3],"categories":[],"categories_nodes":[],"categories_segments":[],"categories_sizes":[],"default_left":[0,0,0,0,0],"id":60,"left_children":[1,-1,3,-1,-1],"loss_changes":[5.0985036E0,0E0,7.884385E0,0E0,0E0],"parents":[2147483647,0,0,2,2],"right_children":[2,-1,4,-1,-1],"split_conditions":[6.2458143E0,4.1060043E-3,4.7240215E6,1.492565E-3,-9.304607E-3],"split_indices":[32,0,46,0,0],"split_type":[0,0,0,0,0],"sum_hessian":[4.7311836E1,1.7170502E1,3.0141335E1,1.7228462E1,1.2912872E1],"tree_param":{"num_deleted":"0","num_feature":"79","num_nodes":"5","size_leaf_vector":"1"}},{"base_weights":[-1.507609E-1,2.2808456E-1,-5.506813E-1,8.259467E-3,-4.9889833E-3,-1.1149427E-2,-1.0579298E-3],"categories":[],"categories_nodes":[],"categories_segments":[],"categories_sizes":[],"default_left":[0,0,0,0,0,0,0],"id":61,"left_children":[1,3,5,-1,-1,-1,-1],"loss_changes":[7.3985844E0,9.487226E0,4.853583E0,0E0,0E0,0E0,0E0],"parents":[2147483647,0,0,1,1,2,2],"right_children":[2,4,6,-1,-1,-1,-1],"split_conditions":[5.2366013E1,4.347893E3,2.3334129E-2,8.259467E-3,-4.9889833E-3,-1.1149427E-2,-1.0579298E-3],"split_indices":[42,13,58,0,0,0,0],"split_type":[0,0,0,0,0,0,0],"sum_hessian":[4.722537E1,2.3976805E1,2.3248564E1,1.3669809E1,1.0306994E1,1.0518262E1,1.2730301E1],"tree_param":{"num_deleted":"0","num_feature":"79","num_nodes":"7","size_leaf_vector":"1"}},{"base_weights":[8.739094E-3,2.1776667E-1,-7.5754137E-3,-6.8554073E-3,5.3783196E-1,1.1227098E-3,8.924172E-3],"categories":[],"categories_nodes":[],"categories_segments":[],"categories_sizes":[],"default_left":[0,0,0,0,0,0,0],"id":62,"left_children":[1,3,-1,-1,5,-1,-1],"loss_changes":[7.0416102E0,1.0445221E1,0E0,0E0,3.2217588E0,0E0,0E0],"parents":[2147483647,0,0,1,1,4,4],"right_children":[2,4,-1,-1,6,-1,-1],"split_conditions":[7.568326E1,1.7789953E4,-7.5754137E-3,-6.8554073E-3,3.307702E-1,1.1227098E-3,8.924172E-3],"split_indices":[44,46,0,0,28,0,0],"split_type":[0,0,0,0,0,0,0],"sum_hessian":[4.704123E1,3.7012157E1,1.0029071E1,9.663916E0,2.7348244E1,1.1768838E1,1.5579406E1],"tree_param":{"num_deleted":"0","num_feature":"79","num_nodes":"7","size_leaf_vector":"1"}},{"base_weights":[-7.761123E-2,8.285506E-3,-3.1046033E-1,9.48129E-4,-5.740437E-1,-0E0,-9.998782E-3],"categories":[],"categories_nodes":[],"categories_segments":[],"categories_sizes":[],"default_left":[0,0,0,0,0,0,0],"id":63,"left_children":[1,-1,3,-1,5,-1,-1],"loss_changes":[9.91177E0,0E0,4.381735E0,0E0,5.0199385E0,0E0,0E0],"parents":[2147483647,0,0,2,2,4,4],"right_children":[2,-1,4,-1,6,-1,-1],"split_conditions":[-1.4603034E-2,8.285506E-3,6.523879E1,9.48129E-4,4.9852146E1,-0E0,-9.998782E-3],"split_indices":[53,0,36,0,17,0,0],"split_type":[0,0,0,0,0,0,0],"sum_hessian":[4.9620766E1,1.0126357E1,3.9494408E1,1.5394101E1,2.4100306E1,9.512703E0,1.4587603E1],"tree_param":{"num_deleted":"0","num_feature":"79","num_nodes":"7","size_leaf_vector":"1"}},{"base_weights":[2.0278966E-1,4.2132857E-1,-5.0783283E-3,8.445349E-3,9.9355556E-2,-4.4663576E-3,6.337527E-3],"categories":[],"categories_nodes":[],"categories_segments":[],"categories_sizes":[],"default_left":[0,0,0,0,0,0,0],"id":64,"left_children":[1,3,-1,-1,5,-1,-1],"loss_changes":[6.82248E0,3.8208332E0,0E0,0E0,5.174912E0,0E0,0E0],"parents":[2147483647,0,0,1,1,4,4],"right_children":[2,4,-1,-1,6,-1,-1],"split_conditions":[4.399446E3,4.9852146E1,-5.0783283E-3,8.445349E-3,-1.0163662E1,-4.4663576E-3,6.337527E-3],"split_indices":[9,17,0,0,22,0,0],"split_type":[0,0,0,0,0,0,0],"sum_hessian":[4.503626E1,3.452676E1,1.0509499E1,1.5359089E1,1.9167671E1,9.090254E0,1.0077418E1],"tree_param":{"num_deleted":"0","num_feature":"79","num_nodes":"7","size_leaf_vector":"1"}},{"base_weights":[1.02561355E-1,6.532003E-3,-1.3606912E-1,-6.465337E-3,1.7243001E-1,7.4967905E-3,-3.447905E-3],"categories":[],"categories_nodes":[],"categories_segments":[],"categories_sizes":[],"default_left":[0,0,0,0,0,0,0],"id":65,"left_children":[1,-1,3,-1,5,-1,-1],"loss_changes":[6.0869975E0,0E0,4.9661474E0,0E0,5.435409E0,0E0,0E0],"parents":[2147483647,0,0,2,2,4,4],"right_children":[2,-1,4,-1,6,-1,-1],"split_conditions":[3.9186E3,6.532003E-3,4.117E3,-6.465337E-3,4.609861E3,7.4967905E-3,-3.447905E-3],"split_indices":[69,0,69,0,29,0,0],"split_type":[0,0,0,0,0,0,0],"sum_hessian":[4.8289078E1,1.5612788E1,3.267629E1,1.3196319E1,1.947997E1,9.621023E0,9.858947E0],"tree_param":{"num_deleted":"0","num_feature":"79","num_nodes":"7","size_leaf_vector":"1"}},{"base_weights":[-8.218174E-2,6.7527955E-3,-2.9023537E-1,-1.0109077E-2,-3.1334806E-2,2.6902666E-3,-6.036713E-3],"categories":[],"categories_nodes":[],"categories_segments":[],"categories_sizes":[],"default_left":[0,0,0,0,0,0,0],"id":66,"left_children":[1,-1,3,-1,5,-1,-1],"loss_changes":[6.948673E0,0E0,5.943183E0,0E0,4.2769933E0,0E0,0E0],"parents":[2147483647,0,0,2,2,4,4],"right_children":[2,-1,4,-1,6,-1,-1],"split_conditions":[4.0368E3,6.7527955E-3,-1.13942465E-2,-1.0109077E-2,1.0907334E0,2.6902666E-3,-6.036713E-3],"split_indices":[68,0,62,0,50,0,0],"split_type":[0,0,0,0,0,0,0],"sum_hessian":[4.644605E1,9.933972E0,3.6512077E1,9.646433E0,2.6865644E1,1.7356295E1,9.509349E0],"tree_param":{"num_deleted":"0","num_feature":"79","num_nodes":"7","size_leaf_vector":"1"}},{"base_weights":[5.3862486E-2,2.4281849E-1,-7.800452E-3,1.0176217E-2,-1.559866E-1,1.4554603E-3,-7.7848067E-3],"categories":[],"categories_nodes":[],"categories_segments":[],"categories_sizes":[],"default_left":[0,0,0,0,0,0,0],"id":67,"left_children":[1,3,-1,-1,5,-1,-1],"loss_changes":[7.6719747E0,1.2385746E1,0E0,0E0,4.812749E0,0E0,0E0],"parents":[2147483647,0,0,1,1,4,4],"right_children":[2,4,-1,-1,6,-1,-1],"split_conditions":[4.442474E3,4.2282205E6,-7.800452E-3,1.0176217E-2,4.2638896E3,1.4554603E-3,-7.7848067E-3],"split_indices":[12,46,0,0,10,0,0],"split_type":[0,0,0,0,0,0,0],"sum_hessian":[5.182224E1,4.233332E1,9.488918E0,1.5295414E1,2.7037907E1,1.7795065E1,9.242843E0],"tree_param":{"num_deleted":"0","num_feature":"79","num_nodes":"7","size_leaf_vector":"1"}},{"base_weights":[5.7259675E-2,2.277894E-1,-6.364686E-3,-5.5934895E-2,7.102316E-3,-4.604197E-3,4.4126078E-3],"categories":[],"categories_nodes":[],"categories_segments":[],"categories_sizes":[],"default_left":[0,0,0,0,0,0,0],"id":68,"left_children":[1,3,-1,5,-1,-1,-1],"loss_changes":[5.5602803E0,5.2255087E0,0E0,4.4089975E0,0E0,0E0,0E0],"parents":[2147483647,0,0,1,1,3,3],"right_children":[2,4,-1,6,-1,-1,-1],"split_conditions":[4.9737865E6,6E-1,-6.364686E-3,5.5003643E0,7.102316E-3,-4.604197E-3,4.4126078E-3],"split_indices":[46,75,0,27,0,0,0],"split_type":[0,0,0,0,0,0,0],"sum_hessian":[4.9948135E1,4.0216927E1,9.731208E0,2.4180904E1,1.6036022E1,1.3828028E1,1.0352877E1],"tree_param":{"num_deleted":"0","num_feature":"79","num_nodes":"7","size_leaf_vector":"1"}},{"base_weights":[-4.2771537E-2,-3.502863E-1,5.4950286E-3,9.740989E-5,-9.348989E-3],"categories":[],"categories_nodes":[],"categories_segments":[],"categories_sizes":[],"default_left":[0,0,0,0,0],"id":69,"left_children":[1,3,-1,-1,-1],"loss_changes":[8.008408E0,6.0160804E0,0E0,0E0,0E0],"parents":[2147483647,0,0,1,1],"right_children":[2,4,-1,-1,-1],"split_conditions":[1.5589267E5,4.352908E3,5.4950286E-3,9.740989E-5,-9.348989E-3],"split_indices":[48,8,0,0,0],"split_type":[0,0,0,0,0],"sum_hessian":[4.6125526E1,3.0159817E1,1.5965708E1,1.7813864E1,1.2345952E1],"tree_param":{"num_deleted":"0","num_feature":"79","num_nodes":"5","size_leaf_vector":"1"}},{"base_weights":[-1.2786235E-1,6.4607095E-3,-3.276762E-1,-5.3461486E-1,2.9117444E-3,-2.0194921E-1,-1.3102298E-2,-8.774908E-3,2.902657E-3],"categories":[],"categories_nodes":[],"categories_segments":[],"categories_sizes":[],"default_left":[0,0,0,0,0,0,0,0,0],"id":70,"left_children":[1,-1,3,5,-1,7,-1,-1,-1],"loss_changes":[7.540787E0,0E0,5.256702E0,6.5521584E0,0E0,6.6606755E0,0E0,0E0,0E0],"parents":[2147483647,0,0,2,2,3,3,5,5],"right_children":[2,-1,4,6,-1,8,-1,-1,-1],"split_conditions":[4.037E3,6.4607095E-3,5.5749374E1,5.061561E1,2.9117444E-3,-3.0743025E-2,-1.3102298E-2,-8.774908E-3,2.902657E-3],"split_indices":[68,0,20,19,0,59,0,0,0],"split_type":[0,0,0,0,0,0,0,0,0],"sum_hessian":[5.1017963E1,1.0406408E1,4.0611553E1,3.060538E1,1.0006175E1,2.137644E1,9.228939E0,9.391245E0,1.1985195E1],"tree_param":{"num_deleted":"0","num_feature":"79","num_nodes":"9","size_leaf_vector":"1"}},{"base_weights":[6.800066E-2,7.85558E-3,-9.77473E-2,3.6207123E-3,-4.7809982E-1,4.4933683E-4,-1.0790857E-2],"categories":[],"categories_nodes":[],"categories_segments":[],"categories_sizes":[],"default_left":[0,0,0,0,0,0,0],"id":71,"left_children":[1,-1,3,-1,5,-1,-1],"loss_changes":[5.693309E0,0E0,6.7168064E0,0E0,6.3090577E0,0E0,0E0],"parents":[2147483647,0,0,2,2,4,4],"right_children":[2,-1,4,-1,6,-1,-1],"split_conditions":[7.0543215E-3,7.85558E-3,4.273116E3,3.6207123E-3,2.8398396E1,4.4933683E-4,-1.0790857E-2],"split_indices":[73,0,10,0,41,0,0],"split_type":[0,0,0,0,0,0,0],"sum_hessian":[4.9077164E1,9.8065815E0,3.927058E1,1.7966242E1,2.1304338E1,1.06868515E1,1.0617487E1],"tree_param":{"num_deleted":"0","num_feature":"79","num_nodes":"7","size_leaf_vector":"1"}},{"base_weights":[-5.3294912E-2,7.853361E-3,-2.4439706E-1,4.2179476E-2,-9.644749E-3,7.2735297E-3,-2.5028732E-1,-9.572119E-3,4.0105334E-3],"categories":[],"categories_nodes":[],"categories_segments":[],"categories_sizes":[],"default_left":[0,0,0,0,0,0,0,0,0],"id":72,"left_children":[1,-1,3,5,-1,-1,7,-1,-1],"loss_changes":[7.6426997E0,0E0,8.152736E0,5.6796813E0,0E0,0E0,8.416353E0,0E0,0E0],"parents":[2147483647,0,0,2,2,3,3,6,6],"right_children":[2,-1,4,6,-1,-1,8,-1,-1],"split_conditions":[7.3623676E-3,7.853361E-3,4.352908E3,5.01287E1,-9.644749E-3,7.2735297E-3,5.2623425E1,-9.572119E-3,4.0105334E-3],"split_indices":[73,0,8,42,0,0,20,0,0],"split_type":[0,0,0,0,0,0,0,0,0],"sum_hessian":[5.075026E1,9.328272E0,4.1421986E1,2.8831367E1,1.259062E1,9.191642E0,1.9639727E1,9.80954E0,9.830186E0],"tree_param":{"num_deleted":"0","num_feature":"79","num_nodes":"9","size_leaf_vector":"1"}},{"base_weights":[-4.233637E-2,-2.2701263E-1,5.221888E-3,2.5279527E-3,-6.299413E-1,-9.561366E-3,-3.3246232E-3],"categories":[],"categories_nodes":[],"categories_segments":[],"categories_sizes":[],"default_left":[0,0,0,0,0,0,0],"id":73,"left_children":[1,3,-1,-1,5,-1,-1],"loss_changes":[4.8042617E0,7.1678042E0,0E0,0E0,1.2030687E0,0E0,0E0],"parents":[2147483647,0,0,1,1,4,4],"right_children":[2,4,-1,-1,6,-1,-1],"split_conditions":[7.496076E0,6.581173E1,5.221888E-3,2.5279527E-3,5.1828194E0,-9.561366E-3,-3.3246232E-3],"split_indices":[27,36,0,0,27,0,0],"split_type":[0,0,0,0,0,0,0],"sum_hessian":[4.8847427E1,3.6859436E1,1.1987989E1,1.6906775E1,1.9952663E1,9.939556E0,1.0013107E1],"tree_param":{"num_deleted":"0","num_feature":"79","num_nodes":"7","size_leaf_vector":"1"}},{"base_weights":[-2.0848276E-1,5.503802E-3,-9.125129E-3,4.903595E-3,-2.7246958E-1,-9.822479E-3,3.0153007E-3],"categories":[],"categories_nodes":[],"categories_segments":[],"categories_sizes":[],"default_left":[0,0,0,0,0,0,0],"id":74,"left_children":[1,3,-1,-1,5,-1,-1],"loss_changes":[7.2292356E0,4.9181623E0,0E0,0E0,8.719706E0,0E0,0E0],"parents":[2147483647,0,0,1,1,4,4],"right_children":[2,4,-1,-1,6,-1,-1],"split_conditions":[4.388742E3,5.1872585E1,-9.125129E-3,4.903595E-3,7.742053E1,-9.822479E-3,3.0153007E-3],"split_indices":[11,43,0,0,42,0,0],"split_type":[0,0,0,0,0,0,0],"sum_hessian":[5.018181E1,3.767672E1,1.250509E1,1.4641252E1,2.303547E1,1.0749498E1,1.228597E1],"tree_param":{"num_deleted":"0","num_feature":"79","num_nodes":"7","size_leaf_vector":"1"}},{"base_weights":[1.4453747E-2,5.020376E-1,-3.2173628E-1,1.3133837E-2,-4.267161E-4,-6.720047E-1,2.4149055E-3,-2.1269924E-3,-1.1200634E-2],"categories":[],"categories_nodes":[],"categories_segments":[],"categories_sizes":[],"default_left":[0,0,0,0,0,0,0,0,0],"id":75,"left_children":[1,3,5,-1,-1,7,-1,-1,-1],"loss_changes":[8.983336E0,9.230648E0,6.323016E0,0E0,0E0,3.0240717E0,0E0,0E0,0E0],"parents":[2147483647,0,0,1,1,2,2,5,5],"right_children":[2,4,6,-1,-1,8,-1,-1,-1],"split_conditions":[1.0133766E0,6.1748195E0,6.3000126E0,1.3133837E-2,-4.267161E-4,4.9867275E1,2.4149055E-3,-2.1269924E-3,-1.1200634E-2],"split_indices":[50,32,27,0,0,42,0,0,0],"split_type":[0,0,0,0,0,0,0,0,0],"sum_hessian":[5.342642E1,2.2067513E1,3.1358904E1,9.413968E0,1.2653545E1,1.9381813E1,1.197709E1,9.243364E0,1.0138449E1],"tree_param":{"num_deleted":"0","num_feature":"79","num_nodes":"9","size_leaf_vector":"1"}},{"base_weights":[1.4367959E-1,-6.6607095E-2,6.223781E-3,2.0605645E-1,-7.4845995E-3,6.790756E-3,-2.313377E-3],"categories":[],"categories_nodes":[],"categories_segments":[],"categories_sizes":[],"default_left":[0,0,0,0,0,0,0],"id":76,"left_children":[1,3,-1,5,-1,-1,-1],"loss_changes":[4.5884824E0,5.8073025E0,0E0,4.290873E0,0E0,0E0,0E0],"parents":[2147483647,0,0,1,1,3,3],"right_children":[2,4,-1,6,-1,-1,-1],"split_conditions":[7.0465045E0,1.1387055E0,6.223781E-3,1.5332088E-3,-7.4845995E-3,6.790756E-3,-2.313377E-3],"split_indices":[27,50,0,53,0,0,0],"split_type":[0,0,0,0,0,0,0],"sum_hessian":[4.7527813E1,3.1907906E1,1.5619906E1,2.2193146E1,9.71476E0,1.1254358E1,1.0938787E1],"tree_param":{"num_deleted":"0","num_feature":"79","num_nodes":"7","size_leaf_vector":"1"}},{"base_weights":[8.615296E-2,6.181197E-3,-1.4585316E-1,-5.789931E-3,4.2847786E-3],"categories":[],"categories_nodes":[],"categories_segments":[],"categories_sizes":[],"default_left":[0,0,0,0,0],"id":77,"left_children":[1,-1,3,-1,-1],"loss_changes":[5.3819566E0,0E0,6.832641E0,0E0,0E0],"parents":[2147483647,0,0,2,2],"right_children":[2,-1,4,-1,-1],"split_conditions":[-6.025703E-3,6.181197E-3,7.128004E-1,-5.789931E-3,4.2847786E-3],"split_indices":[53,0,33,0,0],"split_type":[0,0,0,0,0],"sum_hessian":[4.526099E1,1.4711604E1,3.0549385E1,1.8063055E1,1.248633E1],"tree_param":{"num_deleted":"0","num_feature":"79","num_nodes":"5","size_leaf_vector":"1"}},{"base_weights":[-0E0,-5.971312E-3,3.1431004E-1,7.1663356E-1,-3.893171E-3,1.1185094E-3,1.411361E-2],"categories":[],"categories_nodes":[],"categories_segments":[],"categories_sizes":[],"default_left":[0,0,0,0,0,0,0],"id":78,"left_children":[1,-1,3,5,-1,-1,-1],"loss_changes":[8.208654E0,0E0,8.572441E0,6.7004004E0,0E0,0E0,0E0],"parents":[2147483647,0,0,2,2,3,3],"right_children":[2,-1,4,6,-1,-1,-1],"split_conditions":[9.10347E-3,-5.971312E-3,4.9328064E1,2.4494733E-1,-3.893171E-3,1.1185094E-3,1.411361E-2],"split_indices":[72,0,20,33,0,0,0],"split_type":[0,0,0,0,0,0,0],"sum_hessian":[4.6254707E1,1.6216158E1,3.003855E1,1.9107347E1,1.0931203E1,1.0006589E1,9.100758E0],"tree_param":{"num_deleted":"0","num_feature":"79","num_nodes":"7","size_leaf_vector":"1"}},{"base_weights":[6.347999E-2,3.2256904E-1,-4.96945E-3,7.5731397E-1,-2.7606585E-3,1.2594216E-2,3.1103704E-3],"categories":[],"categories_nodes":[],"categories_segments":[],"categories_sizes":[],"default_left":[0,0,0,0,0,0,0],"id":79,"left_children":[1,3,-1,5,-1,-1,-1],"loss_changes":[6.6183715E0,8.581253E0,0E0,3.1379805E0,0E0,0E0,0E0],"parents":[2147483647,0,0,1,1,3,3],"right_children":[2,4,-1,6,-1,-1,-1],"split_conditions":[4.3599463E3,2.5161225E-2,-4.96945E-3,1.5168341E-2,-2.7606585E-3,1.2594216E-2,3.1103704E-3],"split_indices":[8,60,0,73,0,0,0],"split_type":[0,0,0,0,0,0,0],"sum_hessian":[4.770277E1,3.2500256E1,1.5202516E1,1.878392E1,1.3716334E1,9.163241E0,9.620679E0],"tree_param":{"num_deleted":"0","num_feature":"79","num_nodes":"7","size_leaf_vector":"1"}},{"base_weights":[-8.807494E-2,7.995773E-3,-3.0392316E-1,2.3229893E-3,-6.440279E-1,-9.860464E-3,-1.2611116E-3],"categories":[],"categories_nodes":[],"categories_segments":[],"categories_sizes":[],"default_left":[0,0,0,0,0,0,0],"id":80,"left_children":[1,-1,3,-1,5,-1,-1],"loss_changes":[8.995347E0,0E0,7.3627024E0,0E0,3.2437382E0,0E0,0E0],"parents":[2147483647,0,0,2,2,4,4],"right_children":[2,-1,4,-1,6,-1,-1],"split_conditions":[4.0242E3,7.995773E-3,6.5288124E1,2.3229893E-3,6.711139E0,-9.860464E-3,-1.2611116E-3],"split_indices":[68,0,38,0,27,0,0],"split_type":[0,0,0,0,0,0,0],"sum_hessian":[4.9555195E1,9.637769E0,3.9917427E1,1.5496604E1,2.4420822E1,1.5397775E1,9.023048E0],"tree_param":{"num_deleted":"0","num_feature":"79","num_nodes":"7","size_leaf_vector":"1"}},{"base_weights":[6.0415525E-2,7.106631E-3,-1.693047E-1,2.7814556E-3,-6.5736985E-3],"categories":[],"categories_nodes":[],"categories_segments":[],"categories_sizes":[],"default_left":[0,0,0,0,0],"id":81,"left_children":[1,-1,3,-1,-1],"loss_changes":[6.7806163E0,0E0,6.7397466E0,0E0,0E0],"parents":[2147483647,0,0,2,2],"right_children":[2,-1,4,-1,-1],"split_conditions":[3.8185E3,7.106631E-3,6.6418495E1,2.7814556E-3,-6.5736985E-3],"split_indices":[71,0,36,0,0],"split_type":[0,0,0,0,0],"sum_hessian":[4.6980244E1,1.3065515E1,3.391473E1,1.7010511E1,1.6904219E1],"tree_param":{"num_deleted":"0","num_feature":"79","num_nodes":"5","size_leaf_vector":"1"}},{"base_weights":[3.427153E-4,-2.306171E-1,7.647381E-3,9.363793E-2,-6.7105917E-3,-3.3790933E-3,5.9520695E-3],"categories":[],"categories_nodes":[],"categories_segments":[],"categories_sizes":[],"default_left":[0,0,0,0,0,0,0],"id":82,"left_children":[1,3,-1,5,-1,-1,-1],"loss_changes":[8.011512E0,4.7740965E0,0E0,3.8744829E0,0E0,0E0,0E0],"parents":[2147483647,0,0,1,1,3,3],"right_children":[2,4,-1,6,-1,-1,-1],"split_conditions":[7.0465045E0,1.5967272E-2,7.647381E-3,1.139081E-2,-6.7105917E-3,-3.3790933E-3,5.9520695E-3],"split_indices":[27,37,0,72,0,0,0],"split_type":[0,0,0,0,0,0,0],"sum_hessian":[4.6731422E1,3.523945E1,1.1491977E1,1.9151194E1,1.6088255E1,9.893308E0,9.257885E0],"tree_param":{"num_deleted":"0","num_feature":"79","num_nodes":"7","size_leaf_vector":"1"}},{"base_weights":[6.26322E-2,8.488211E-3,-1.1214256E-1,5.503408E-3,-5.007002E-1,-1.1670332E-2,-7.577689E-4],"categories":[],"categories_nodes":[],"categories_segments":[],"categories_sizes":[],"default_left":[0,0,0,0,0,0,0],"id":83,"left_children":[1,-1,3,-1,5,-1,-1],"loss_changes":[6.5157256E0,0E0,9.795433E0,0E0,5.947568E0,0E0,0E0],"parents":[2147483647,0,0,2,2,4,4],"right_children":[2,-1,4,-1,6,-1,-1],"split_conditions":[3.9106333E3,8.488211E-3,6.0248003E0,5.503408E-3,3.9239138E3,-1.1670332E-2,-7.577689E-4],"split_indices":[1,0,32,0,31,0,0],"split_type":[0,0,0,0,0,0,0],"sum_hessian":[4.864106E1,9.387091E0,3.925397E1,1.4679818E1,2.4574152E1,9.748185E0,1.4825967E1],"tree_param":{"num_deleted":"0","num_feature":"79","num_nodes":"7","size_leaf_vector":"1"}},{"base_weights":[-4.6992414E-3,6.9485535E-3,-3.4935194E-1,-1.1455895E-2,4.1128085E-3,4.685254E-3,-4.773976E-3],"categories":[],"categories_nodes":[],"categories_segments":[],"categories_sizes":[],"default_left":[0,0,0,0,0,0,0],"id":84,"left_children":[1,-1,3,-1,5,-1,-1],"loss_changes":[1.0989472E1,0E0,8.592978E0,0E0,4.3862667E0,0E0,0E0],"parents":[2147483647,0,0,2,2,4,4],"right_children":[2,-1,4,-1,6,-1,-1],"split_conditions":[-6.025703E-3,6.9485535E-3,-6.5158624E-3,-1.1455895E-2,6.348164E0,4.685254E-3,-4.773976E-3],"split_indices":[53,0,57,0,32,0,0],"split_type":[0,0,0,0,0,0,0],"sum_hessian":[4.8212597E1,1.6198225E1,3.201437E1,1.0487542E1,2.1526829E1,1.1317083E1,1.0209745E1],"tree_param":{"num_deleted":"0","num_feature":"79","num_nodes":"7","size_leaf_vector":"1"}},{"base_weights":[-1.5460525E-2,4.625779E-3,-2.7782294E-1,-7.6630395E-3,2.7697368E-3],"categories":[],"categories_nodes":[],"categories_segments":[],"categories_sizes":[],"default_left":[0,0,0,0,0],"id":85,"left_children":[1,-1,3,-1,-1],"loss_changes":[5.4416766E0,0E0,7.237074E0,0E0,0E0],"parents":[2147483647,0,0,2,2],"right_children":[2,-1,4,-1,-1],"split_conditions":[4.570373E1,4.625779E-3,9.458458E0,-7.6630395E-3,2.7697368E-3],"split_indices":[20,0,23,0,0],"split_type":[0,0,0,0,0],"sum_hessian":[4.576267E1,1.6377296E1,2.9385372E1,1.6410637E1,1.2974735E1],"tree_param":{"num_deleted":"0","num_feature":"79","num_nodes":"5","size_leaf_vector":"1"}},{"base_weights":[-0E0,1.1403819E-2,-2.4826644E-1,3.9933097E-2,-7.011017E-3,4.37175E-3,-3.8748775E-3],"categories":[],"categories_nodes":[],"categories_segments":[],"categories_sizes":[],"default_left":[0,0,0,0,0,0,0],"id":86,"left_children":[1,-1,3,5,-1,-1,-1],"loss_changes":[1.3816261E1,0E0,5.153949E0,3.7551312E0,0E0,0E0,0E0],"parents":[2147483647,0,0,2,2,3,3],"right_children":[2,-1,4,6,-1,-1,-1],"split_conditions":[3.8237E3,1.1403819E-2,4.309794E3,6.993696E1,-7.011017E-3,4.37175E-3,-3.8748775E-3],"split_indices":[69,0,13,38,0,0,0],"split_type":[0,0,0,0,0,0,0],"sum_hessian":[5.1254208E1,9.384815E0,4.1869392E1,2.4310728E1,1.7558666E1,1.3076888E1,1.123384E1],"tree_param":{"num_deleted":"0","num_feature":"79","num_nodes":"7","size_leaf_vector":"1"}},{"base_weights":[1.3336557E-1,-6.111449E-3,3.4432885E-1,7.526237E-1,-1.3196116E-3,1.3458729E-2,1.8463924E-3,6.4655207E-3,-5.955101E-3],"categories":[],"categories_nodes":[],"categories_segments":[],"categories_sizes":[],"default_left":[0,0,0,0,0,0,0,0,0],"id":87,"left_children":[1,-1,3,5,7,-1,-1,-1,-1],"loss_changes":[7.6199465E0,0E0,5.8732634E0,4.9158077E0,7.4495163E0,0E0,0E0,0E0,0E0],"parents":[2147483647,0,0,2,2,3,3,4,4],"right_children":[2,-1,4,6,8,-1,-1,-1,-1],"split_conditions":[7.5124465E-3,-6.111449E-3,6.797639E1,4.4411997E3,3.8905E3,1.3458729E-2,1.8463924E-3,6.4655207E-3,-5.955101E-3],"split_indices":[72,0,38,12,69,0,0,0,0],"split_type":[0,0,0,0,0,0,0,0,0],"sum_hessian":[5.0609512E1,1.1140618E1,3.9468895E1,1.8214954E1,2.125394E1,9.157618E0,9.057336E0,9.8811655E0,1.1372776E1],"tree_param":{"num_deleted":"0","num_feature":"79","num_nodes":"9","size_leaf_vector":"1"}},{"base_weights":[3.809231E-2,2.2307657E-1,-4.7936765E-3,-3.6234558E-3,4.353002E-1,1.0015053E-2,7.8307E-4],"categories":[],"categories_nodes":[],"categories_segments":[],"categories_sizes":[],"default_left":[0,0,0,0,0,0,0],"id":88,"left_children":[1,3,-1,-1,5,-1,-1],"loss_changes":[4.4136505E0,4.456721E0,0E0,0E0,4.558141E0,0E0,0E0],"parents":[2147483647,0,0,1,1,4,4],"right_children":[2,4,-1,-1,6,-1,-1],"split_conditions":[3.9904633E1,8.501472E-3,-4.7936765E-3,-3.6234558E-3,1.6904913E-2,1.0015053E-2,7.8307E-4],"split_indices":[40,72,0,0,67,0,0],"split_type":[0,0,0,0,0,0,0],"sum_hessian":[4.8841595E1,3.601649E1,1.2825105E1,9.407534E0,2.6608957E1,1.0497491E1,1.6111465E1],"tree_param":{"num_deleted":"0","num_feature":"79","num_nodes":"7","size_leaf_vector":"1"}},{"base_weights":[7.0319064E-2,4.2190242E-1,-1.3403803E-1,9.1597345E-3,-0E0,5.8940733E-3,-4.9539787E-1,-9.3821855E-3,5.6433088E-5],"categories":[],"categories_nodes":[],"categories_segments":[],"categories_sizes":[],"default_left":[0,0,0,0,0,0,0,0,0],"id":89,"left_children":[1,3,5,-1,-1,-1,7,-1,-1],"loss_changes":[3.897399E0,3.6713398E0,8.308719E0,0E0,0E0,0E0,4.490528E0,0E0,0E0],"parents":[2147483647,0,0,1,1,2,2,6,6],"right_children":[2,4,6,-1,-1,-1,8,-1,-1],"split_conditions":[1.5579578E-2,4.390196E3,4.0368E3,9.1597345E-3,-0E0,5.8940733E-3,7.247403E0,-9.3821855E-3,5.6433088E-5],"split_indices":[37,10,68,0,0,0,27,0,0],"split_type":[0,0,0,0,0,0,0,0,0],"sum_hessian":[5.2087894E1,1.9488804E1,3.259909E1,9.392956E0,1.0095848E1,1.0887594E1,2.1711494E1,1.2474413E1,9.2370825E0],"tree_param":{"num_deleted":"0","num_feature":"79","num_nodes":"9","size_leaf_vector":"1"}},{"base_weights":[-3.2690722E-2,8.212994E-3,-2.3854458E-1,-4.5993116E-1,4.428233E-3,-1.5810275E-1,-1.1066489E-2,4.251351E-3,-7.0038456E-3],"categories":[],"categories_nodes":[],"categories_segments":[],"categories_sizes":[],"default_left":[0,0,0,0,0,0,0,0,0],"id":90,"left_children":[1,-1,3,5,-1,7,-1,-1,-1],"loss_changes":[7.8114514E0,0E0,5.7094336E0,4.65385E0,0E0,5.788365E0,0E0,0E0,0E0],"parents":[2147483647,0,0,2,2,3,3,5,5],"right_children":[2,-1,4,6,-1,8,-1,-1,-1],"split_conditions":[3.82792E3,8.212994E-3,3.157815E-2,5.37514E-3,4.428233E-3,1.7003601E-2,-1.1066489E-2,4.251351E-3,-7.0038456E-3],"split_indices":[26,0,16,58,0,39,0,0,0],"split_type":[0,0,0,0,0,0,0,0,0],"sum_hessian":[4.7392895E1,9.11865E0,3.8274246E1,2.9029785E1,9.244458E0,1.9788006E1,9.241779E0,9.091748E0,1.0696259E1],"tree_param":{"num_deleted":"0","num_feature":"79","num_nodes":"9","size_leaf_vector":"1"}},{"base_weights":[6.349689E-2,8.48334E-3,-1.2858047E-1,2.4157024E-3,-4.32507E-1,2.9085026E-4,-8.909196E-3],"categories":[],"categories_nodes":[],"categories_segments":[],"categories_sizes":[],"default_left":[0,0,0,0,0,0,0],"id":91,"left_children":[1,-1,3,-1,5,-1,-1],"loss_changes":[6.8778644E0,0E0,4.159382E0,0E0,4.0771365E0,0E0,0E0],"parents":[2147483647,0,0,2,2,4,4],"right_children":[2,-1,4,-1,6,-1,-1],"split_conditions":[7.724894E-3,8.48334E-3,4.090705E3,2.4157024E-3,2.9044535E1,2.9085026E-4,-8.909196E-3],"split_indices":[73,0,25,0,40,0,0],"split_type":[0,0,0,0,0,0,0],"sum_hessian":[4.687306E1,9.779999E0,3.709306E1,1.6739998E1,2.035306E1,9.319773E0,1.1033286E1],"tree_param":{"num_deleted":"0","num_feature":"79","num_nodes":"7","size_leaf_vector":"1"}},{"base_weights":[9.380226E-2,2.7758732E-1,-7.187478E-3,1.7785503E-2,1.1873724E-2,4.941715E-3,-3.7674087E-3],"categories":[],"categories_nodes":[],"categories_segments":[],"categories_sizes":[],"default_left":[0,0,0,0,0,0,0],"id":92,"left_children":[1,3,-1,5,-1,-1,-1],"loss_changes":[7.0863338E0,8.591196E0,0E0,5.417562E0,0E0,0E0,0E0],"parents":[2147483647,0,0,1,1,3,3],"right_children":[2,4,-1,6,-1,-1,-1],"split_conditions":[4.356767E3,4.2373057E3,-7.187478E-3,4.645371E1,1.1873724E-2,4.941715E-3,-3.7674087E-3],"split_indices":[13,31,0,20,0,0,0],"split_type":[0,0,0,0,0,0,0],"sum_hessian":[5.010213E1,4.097663E1,9.125501E0,3.1891031E1,9.0856E0,1.480939E1,1.7081642E1],"tree_param":{"num_deleted":"0","num_feature":"79","num_nodes":"7","size_leaf_vector":"1"}},{"base_weights":[7.374244E-2,3.755235E-1,-3.5837686E-1,6.285941E-1,-7.1728416E-4,-8.370236E-3,7.246004E-4,1.0801145E-2,2.0264988E-3],"categories":[],"categories_nodes":[],"categories_segments":[],"categories_sizes":[],"default_left":[0,0,0,0,0,0,0,0,0],"id":93,"left_children":[1,3,5,7,-1,-1,-1,-1,-1],"loss_changes":[6.2904797E0,3.4096222E0,3.741069E0,2.6586046E0,0E0,0E0,0E0,0E0,0E0],"parents":[2147483647,0,0,1,1,2,2,3,3],"right_children":[2,4,6,8,-1,-1,-1,-1,-1],"split_conditions":[2.0854834E-3,4.7240215E6,8.0435766E4,-6.360111E-3,-7.1728416E-4,-8.370236E-3,7.246004E-4,1.0801145E-2,2.0264988E-3],"split_indices":[54,46,47,54,0,0,0,0,0],"split_type":[0,0,0,0,0,0,0,0,0],"sum_hessian":[4.7131554E1,2.8206001E1,1.8925552E1,1.8239292E1,9.96671E0,9.645576E0,9.279976E0,9.06557E0,9.173721E0],"tree_param":{"num_deleted":"0","num_feature":"79","num_nodes":"9","size_leaf_vector":"1"}},{"base_weights":[5.9040803E-2,2.1846531E-1,-6.12004E-3,-1.0830501E-1,5.850958E-1,5.3626215E-3,-6.9007175E-3,9.132513E-3,2.7884531E-3],"categories":[],"categories_nodes":[],"categories_segments":[],"categories_sizes":[],"default_left":[0,0,0,0,0,0,0,0,0],"id":94,"left_children":[1,3,-1,5,7,-1,-1,-1,-1],"loss_changes":[4.8623157E0,4.940271E0,0E0,7.0547795E0,1.213089E0,0E0,0E0,0E0,0E0],"parents":[2147483647,0,0,1,1,3,3,4,4],"right_children":[2,4,-1,6,8,-1,-1,-1,-1],"split_conditions":[4.9737865E6,9.680611E-3,-6.12004E-3,1.0371412E0,9.915626E0,5.3626215E-3,-6.9007175E-3,9.132513E-3,2.7884531E-3],"split_indices":[46,64,0,50,32,0,0,0,0],"split_type":[0,0,0,0,0,0,0,0,0],"sum_hessian":[4.832821E1,3.9223156E1,9.105051E0,2.0495682E1,1.8727476E1,9.341807E0,1.1153873E1,9.311657E0,9.415818E0],"tree_param":{"num_deleted":"0","num_feature":"79","num_nodes":"9","size_leaf_vector":"1"}},{"base_weights":[-4.856442E-2,4.8133633E-3,-2.7665767E-1,-6.05021E-1,2.6069356E-3,-1.5781161E-3,-1.1517966E-2],"categories":[],"categories_nodes":[],"categories_segments":[],"categories_sizes":[],"default_left":[0,0,0,0,0,0,0],"id":95,"left_children":[1,-1,3,5,-1,-1,-1],"loss_changes":[5.648409E0,0E0,6.126606E0,4.2338624E0,0E0,0E0,0E0],"parents":[2147483647,0,0,2,2,3,3],"right_children":[2,-1,4,6,-1,-1,-1],"split_conditions":[-6.025703E-3,4.8133633E-3,9.379957E-3,5.017867E1,2.6069356E-3,-1.5781161E-3,-1.1517966E-2],"split_indices":[53,0,14,17,0,0,0],"split_type":[0,0,0,0,0,0,0],"sum_hessian":[4.915322E1,1.48756E1,3.4277622E1,2.1311937E1,1.2965686E1,1.1459698E1,9.852239E0],"tree_param":{"num_deleted":"0","num_feature":"79","num_nodes":"7","size_leaf_vector":"1"}},{"base_weights":[5.4185435E-2,-5.956685E-3,3.2253057E-1,5.418101E-1,-1.876961E-3,8.420532E-3,1.2518202E-4],"categories":[],"categories_nodes":[],"categories_segments":[],"categories_sizes":[],"default_left":[0,0,0,0,0,0,0],"id":96,"left_children":[1,-1,3,5,-1,-1,-1],"loss_changes":[9.056364E0,0E0,4.418637E0,3.3176126E0,0E0,0E0,0E0],"parents":[2147483647,0,0,2,2,3,3],"right_children":[2,-1,4,6,-1,-1,-1],"split_conditions":[2E0,-5.956685E-3,4.3599463E3,5.6635896E-3,-1.876961E-3,8.420532E-3,1.2518202E-4],"split_indices":[77,0,8,51,0,0,0],"split_type":[0,0,0,0,0,0,0],"sum_hessian":[5.4698265E1,1.6200926E1,3.849734E1,2.711271E1,1.1384628E1,1.801739E1,9.095322E0],"tree_param":{"num_deleted":"0","num_feature":"79","num_nodes":"7","size_leaf_vector":"1"}},{"base_weights":[-5.706335E-2,2.7632046E-1,-4.180137E-1,7.545933E-3,-1.1475645E-3,-4.9369823E-4,-1.0347206E-2],"categories":[],"categories_nodes":[],"categories_segments":[],"categories_sizes":[],"default_left":[0,0,0,0,0,0,0],"id":97,"left_children":[1,3,5,-1,-1,-1,-1],"loss_changes":[6.484915E0,4.715682E0,4.9790974E0,0E0,0E0,0E0,0E0],"parents":[2147483647,0,0,1,1,2,2],"right_children":[2,4,6,-1,-1,-1,-1],"split_conditions":[1.0371412E0,3.605342E-3,4.360596E3,7.545933E-3,-1.1475645E-3,-4.9369823E-4,-1.0347206E-2],"split_indices":[50,54,11,0,0,0,0],"split_type":[0,0,0,0,0,0,0],"sum_hessian":[5.2503815E1,2.6919945E1,2.558387E1,1.2898471E1,1.4021474E1,1.5894956E1,9.688914E0],"tree_param":{"num_deleted":"0","num_feature":"79","num_nodes":"7","size_leaf_vector":"1"}},{"base_weights":[7.116511E-2,3.2232448E-1,-5.1606046E-3,1.003219E-2,5.365527E-2,7.4520074E-3,-6.25413E-3],"categories":[],"categories_nodes":[],"categories_segments":[],"categories_sizes":[],"default_left":[0,0,0,0,0,0,0],"id":98,"left_children":[1,3,-1,-1,5,-1,-1],"loss_changes":[6.5288115E0,5.0886426E0,0E0,0E0,9.948801E0,0E0,0E0],"parents":[2147483647,0,0,1,1,4,4],"right_children":[2,4,-1,-1,6,-1,-1],"split_conditions":[4.366666E3,1.5508602E-2,-5.1606046E-3,1.003219E-2,3.7132E3,7.4520074E-3,-6.25413E-3],"split_indices":[11,37,0,0,71,0,0],"split_type":[0,0,0,0,0,0,0],"sum_hessian":[4.6300556E1,3.2356544E1,1.3944013E1,9.117432E0,2.3239113E1,1.1793998E1,1.1445115E1],"tree_param":{"num_deleted":"0","num_feature":"79","num_nodes":"7","size_leaf_vector":"1"}},{"base_weights":[-1.4248057E-1,1.8052833E-1,-4.8646808E-1,5.630972E-3,-3.5260175E-3,-2.6196206E-4,-1.0138623E-2],"categories":[],"categories_nodes":[],"categories_segments":[],"categories_sizes":[],"default_left":[0,0,0,0,0,0,0],"id":99,"left_children":[1,3,5,-1,-1,-1,-1],"loss_changes":[5.579408E0,4.567628E0,4.8465114E0,0E0,0E0,0E0,0E0],"parents":[2147483647,0,0,1,1,2,2],"right_children":[2,4,6,-1,-1,-1,-1],"split_conditions":[5.5405407E1,4.347893E3,6.824418E1,5.630972E-3,-3.5260175E-3,-2.6196206E-4,-1.0138623E-2],"split_indices":[42,13,38,0,0,0,0],"split_type":[0,0,0,0,0,0,0],"sum_hessian":[4.8437473E1,2.4652937E1,2.3784536E1,1.50523615E1,9.600575E0,1.2456663E1,1.1327874E1],"tree_param":{"num_deleted":"0","num_feature":"79","num_nodes":"7","size_leaf_vector":"1"}},{"base_weights":[-0E0,5.625669E-3,-2.4329376E-1,-5.058656E-1,3.2519198E-3,5.788818E-4,-9.965028E-3],"categories":[],"categories_nodes":[],"categories_segments":[],"categories_sizes":[],"default_left":[0,0,0,0,0,0,0],"id":100,"left_children":[1,-1,3,5,-1,-1,-1],"loss_changes":[6.067448E0,0E0,4.8965077E0,5.731326E0,0E0,0E0,0E0],"parents":[2147483647,0,0,2,2,3,3],"right_children":[2,-1,4,6,-1,-1,-1],"split_conditions":[-8.261626E-3,5.625669E-3,1.0643998E1,3.8169E3,3.2519198E-3,5.788818E-4,-9.965028E-3],"split_indices":[61,0,22,71,0,0,0],"split_type":[0,0,0,0,0,0,0],"sum_hessian":[4.7008003E1,1.4400101E1,3.2607903E1,2.2427866E1,1.0180037E1,9.543605E0,1.2884261E1],"tree_param":{"num_deleted":"0","num_feature":"79","num_nodes":"7","size_leaf_vector":"1"}},{"base_weights":[1.1822188E-2,2.871574E-1,-7.768586E-3,-3.265524E-3,6.315371E-1,1.1638268E-2,-0E0],"categories":[],"categories_nodes":[],"categories_segments":[],"categories_sizes":[],"default_left":[0,0,0,0,0,0,0],"id":101,"left_children":[1,3,-1,-1,5,-1,-1],"loss_changes":[9.212964E0,7.0957847E0,0E0,0E0,6.0687103E0,0E0,0E0],"parents":[2147483647,0,0,1,1,4,4],"right_children":[2,4,-1,-1,6,-1,-1],"split_conditions":[4.347893E3,4.2073286E3,-7.768586E-3,-3.265524E-3,7.4582356E-1,1.1638268E-2,-0E0],"split_indices":[13,10,0,0,28,0,0],"split_type":[0,0,0,0,0,0,0],"sum_hessian":[4.5046776E1,3.331839E1,1.1728384E1,1.1955952E1,2.1362438E1,1.2042577E1,9.319861E0],"tree_param":{"num_deleted":"0","num_feature":"79","num_nodes":"7","size_leaf_vector":"1"}},{"base_weights":[1.2855247E-2,1.8685132E-1,-6.877081E-3,7.7545987E-3,-1.3795353E-1,2.2655649E-3,-7.4304356E-3],"categories":[],"categories_nodes":[],"categories_segments":[],"categories_sizes":[],"default_left":[0,0,0,0,0,0,0],"id":102,"left_children":[1,3,-1,-1,5,-1,-1],"loss_changes":[5.662839E0,7.30101E0,0E0,0E0,5.138935E0,0E0,0E0],"parents":[2147483647,0,0,1,1,4,4],"right_children":[2,4,-1,-1,6,-1,-1],"split_conditions":[4.4277764E3,4.2835335E6,-6.877081E-3,7.7545987E-3,3.8632425E-3,2.2655649E-3,-7.4304356E-3],"split_indices":[12,46,0,0,53,0,0],"split_type":[0,0,0,0,0,0,0],"sum_hessian":[4.989691E1,4.0075806E1,9.821109E0,1.522928E1,2.4846523E1,1.5112302E1,9.734222E0],"tree_param":{"num_deleted":"0","num_feature":"79","num_nodes":"7","size_leaf_vector":"1"}},{"base_weights":[5.9182126E-2,-6.4262585E-3,2.9243562E-1,9.961085E-3,5.974025E-3,-8.951808E-3,7.802844E-3],"categories":[],"categories_nodes":[],"categories_segments":[],"categories_sizes":[],"default_left":[0,0,0,0,0,0,0],"id":103,"left_children":[1,-1,3,-1,5,-1,-1],"loss_changes":[7.1670656E0,0E0,6.1221285E0,0E0,1.5513351E1,0E0,0E0],"parents":[2147483647,0,0,2,2,4,4],"right_children":[2,-1,4,-1,6,-1,-1],"split_conditions":[7.5E-3,-6.4262585E-3,4.0837E3,9.961085E-3,4.13E3,-8.951808E-3,7.802844E-3],"split_indices":[72,0,68,0,69,0,0],"split_type":[0,0,0,0,0,0,0],"sum_hessian":[4.6155815E1,1.1518216E1,3.46376E1,1.0057704E1,2.4579895E1,1.1120408E1,1.3459487E1],"tree_param":{"num_deleted":"0","num_feature":"79","num_nodes":"7","size_leaf_vector":"1"}},{"base_weights":[-7.4936077E-3,6.5090107E-3,-2.2689155E-1,8.800643E-2,-8.725908E-3,9.200075E-3,-5.3232014E-3],"categories":[],"categories_nodes":[],"categories_segments":[],"categories_sizes":[],"default_left":[0,0,0,0,0,0,0],"id":104,"left_children":[1,-1,3,5,-1,-1,-1],"loss_changes":[6.1174526E0,0E0,6.6184077E0,1.0471229E1,0E0,0E0,0E0],"parents":[2147483647,0,0,2,2,3,3],"right_children":[2,-1,4,6,-1,-1,-1],"split_conditions":[-1.2487605E-2,6.5090107E-3,4.310544E3,4.3397445E6,-8.725908E-3,9.200075E-3,-5.3232014E-3],"split_indices":[61,0,13,46,0,0,0],"split_type":[0,0,0,0,0,0,0],"sum_hessian":[4.51805E1,1.1279861E1,3.390064E1,2.2013046E1,1.1887592E1,9.617781E0,1.2395267E1],"tree_param":{"num_deleted":"0","num_feature":"79","num_nodes":"7","size_leaf_vector":"1"}},{"base_weights":[-1.3306682E-1,-4.7893766E-1,1.8442626E-1,-0E0,-1.1229702E-2,8.90263E-3,-4.5081982E-3],"categories":[],"categories_nodes":[],"categories_segments":[],"categories_sizes":[],"default_left":[0,0,0,0,0,0,0],"id":105,"left_children":[1,3,5,-1,-1,-1,-1],"loss_changes":[5.535965E0,6.6457257E0,1.0287747E1,0E0,0E0,0E0,0E0],"parents":[2147483647,0,0,1,1,2,2],"right_children":[2,4,6,-1,-1,-1,-1],"split_conditions":[1.2E1,1.0351005E0,6.8761826E1,-0E0,-1.1229702E-2,8.90263E-3,-4.5081982E-3],"split_indices":[76,50,38,0,0,0,0],"split_type":[0,0,0,0,0,0,0],"sum_hessian":[4.8650482E1,2.3615566E1,2.5034914E1,1.3027318E1,1.0588248E1,1.2257013E1,1.2777901E1],"tree_param":{"num_deleted":"0","num_feature":"79","num_nodes":"7","size_leaf_vector":"1"}},{"base_weights":[-3.9712142E-2,7.0310673E-3,-2.387541E-1,9.110897E-2,-6.6169975E-3,6.3191364E-3,-3.9113476E-3],"categories":[],"categories_nodes":[],"categories_segments":[],"categories_sizes":[],"default_left":[0,0,0,0,0,0,0],"id":106,"left_children":[1,-1,3,5,-1,-1,-1],"loss_changes":[6.1675305E0,0E0,4.6337085E0,4.5070267E0,0E0,0E0,0E0],"parents":[2147483647,0,0,2,2,3,3],"right_children":[2,-1,4,6,-1,-1,-1],"split_conditions":[4.7782823E-1,7.0310673E-3,5.150239E1,4.3294355E3,-6.6169975E-3,6.3191364E-3,-3.9113476E-3],"split_indices":[49,0,42,13,0,0,0],"split_type":[0,0,0,0,0,0,0],"sum_hessian":[4.436463E1,9.265844E0,3.5098785E1,1.8530594E1,1.6568193E1,9.100188E0,9.430406E0],"tree_param":{"num_deleted":"0","num_feature":"79","num_nodes":"7","size_leaf_vector":"1"}},{"base_weights":[-8.285075E-2,5.5713095E-3,-2.9803857E-1,-6.526321E-1,1.1214705E-3,-3.2471006E-3,-1.0484804E-2],"categories":[],"categories_nodes":[],"categories_segments":[],"categories_sizes":[],"default_left":[0,0,0,0,0,0,0],"id":107,"left_children":[1,-1,3,5,-1,-1,-1],"loss_changes":[6.3920417E0,0E0,5.4793434E0,1.7435093E0,0E0,0E0,0E0],"parents":[2147483647,0,0,2,2,3,3],"right_children":[2,-1,4,6,-1,-1,-1],"split_conditions":[3.9617966E3,5.5713095E-3,1.2E1,8.15513E0,1.1214705E-3,-3.2471006E-3,-1.0484804E-2],"split_indices":[5,0,76,32,0,0,0],"split_type":[0,0,0,0,0,0,0],"sum_hessian":[4.8685764E1,1.22479515E1,3.6437813E1,1.9602577E1,1.6835238E1,1.0378228E1,9.224349E0],"tree_param":{"num_deleted":"0","num_feature":"79","num_nodes":"7","size_leaf_vector":"1"}},{"base_weights":[1.0053172E-1,8.180001E-3,-1.172134E-1,-6.289934E-3,1.9960378E-1,7.438038E-3,-2.9509384E-3],"categories":[],"categories_nodes":[],"categories_segments":[],"categories_sizes":[],"default_left":[0,0,0,0,0,0,0],"id":108,"left_children":[1,-1,3,-1,5,-1,-1],"loss_changes":[7.185856E0,0E0,5.582369E0,0E0,5.315799E0,0E0,0E0],"parents":[2147483647,0,0,2,2,4,4],"right_children":[2,-1,4,-1,6,-1,-1],"split_conditions":[4.037E3,8.180001E-3,4.2902E3,-6.289934E-3,4.4034463E3,7.438038E-3,-2.9509384E-3],"split_indices":[68,0,68,0,9,0,0],"split_type":[0,0,0,0,0,0,0],"sum_hessian":[4.7626774E1,1.1806735E1,3.5820038E1,1.46439905E1,2.1176048E1,1.0574146E1,1.0601902E1],"tree_param":{"num_deleted":"0","num_feature":"79","num_nodes":"7","size_leaf_vector":"1"}},{"base_weights":[1.2579162E-1,9.683431E-3,-3.9395534E-2,3.070519E-1,-4.6557224E-1,8.573036E-3,-0E0,-1.0250039E-2,-0E0],"categories":[],"categories_nodes":[],"categories_segments":[],"categories_sizes":[],"default_left":[0,0,0,0,0,0,0,0,0],"id":109,"left_children":[1,-1,3,5,7,-1,-1,-1,-1],"loss_changes":[7.21317E0,0E0,6.725258E0,3.8767323E0,4.611418E0,0E0,0E0,0E0,0E0],"parents":[2147483647,0,0,2,2,3,3,4,4],"right_children":[2,-1,4,6,8,-1,-1,-1,-1],"split_conditions":[3.9873E3,9.683431E-3,6.8997055E1,-2.6167973E-3,8.165626E1,8.573036E-3,-0E0,-1.0250039E-2,-0E0],"split_indices":[68,0,36,61,36,0,0,0,0],"split_type":[0,0,0,0,0,0,0,0,0],"sum_hessian":[5.347689E1,9.287051E0,4.418984E1,2.4062086E1,2.012775E1,9.1707325E0,1.4891354E1,9.425381E0,1.0702371E1],"tree_param":{"num_deleted":"0","num_feature":"79","num_nodes":"9","size_leaf_vector":"1"}},{"base_weights":[6.305667E-2,7.6382486E-3,-8.634535E-2,-7.555994E-3,1.3696676E-1,-1.6954783E-1,7.6827877E-3,1.1728293E-3,-5.0460957E-3],"categories":[],"categories_nodes":[],"categories_segments":[],"categories_sizes":[],"default_left":[0,0,0,0,0,0,0,0,0],"id":110,"left_children":[1,-1,3,-1,5,7,-1,-1,-1],"loss_changes":[4.954052E0,0E0,5.710001E0,0E0,5.429028E0,1.7506799E0,0E0,0E0,0E0],"parents":[2147483647,0,0,2,2,4,4,5,5],"right_children":[2,-1,4,-1,6,8,-1,-1,-1],"split_conditions":[-1.4340125E-2,7.6382486E-3,2E0,-7.555994E-3,1.777903E-2,3.8632425E-3,7.6827877E-3,1.1728293E-3,-5.0460957E-3],"split_indices":[53,0,77,0,59,53,0,0,0],"split_type":[0,0,0,0,0,0,0,0,0],"sum_hessian":[4.8262455E1,9.040987E0,3.922147E1,1.0470144E1,2.8751324E1,1.8702658E1,1.0048666E1,9.355482E0,9.347177E0],"tree_param":{"num_deleted":"0","num_feature":"79","num_nodes":"9","size_leaf_vector":"1"}},{"base_weights":[1.5677352E-2,3.5127628E-1,-3.4919614E-1,8.701944E-3,-2.8183744E-3,-8.215535E-3,-0E0],"categories":[],"categories_nodes":[],"categories_segments":[],"categories_sizes":[],"default_left":[0,0,0,0,0,0,0],"id":111,"left_children":[1,3,5,-1,-1,-1,-1],"loss_changes":[5.876868E0,7.4600306E0,3.1051767E0,0E0,0E0,0E0,0E0],"parents":[2147483647,0,0,1,1,2,2],"right_children":[2,4,6,-1,-1,-1,-1],"split_conditions":[5.488228E1,4.362378E3,7.3808545E-1,8.701944E-3,-2.8183744E-3,-8.215535E-3,-0E0],"split_indices":[43,11,33,0,0,0,0],"split_type":[0,0,0,0,0,0,0],"sum_hessian":[4.6937973E1,2.489434E1,2.204363E1,1.4418347E1,1.0475994E1,9.457389E0,1.2586243E1],"tree_param":{"num_deleted":"0","num_feature":"79","num_nodes":"7","size_leaf_vector":"1"}},{"base_weights":[1.14268765E-1,2.9419667E-1,-3.971731E-3,5.2864546E-1,-3.1809434E-3,1.174616E-2,2.0502955E-1,7.6349583E-3,-3.0036906E-3],"categories":[],"categories_nodes":[],"categories_segments":[],"categories_sizes":[],"default_left":[0,0,0,0,0,0,0,0,0],"id":112,"left_children":[1,3,-1,5,-1,-1,7,-1,-1],"loss_changes":[4.47993E0,5.4071198E0,0E0,4.567866E0,0E0,0E0,4.815533E0,0E0,0E0],"parents":[2147483647,0,0,1,1,3,3,6,6],"right_children":[2,4,-1,6,-1,-1,8,-1,-1],"split_conditions":[1.5472968E-2,4.347893E3,-3.971731E-3,6.569012E1,-3.1809434E-3,1.174616E-2,-2.6268024E-2,7.6349583E-3,-3.0036906E-3],"split_indices":[62,13,0,36,0,0,16,0,0],"split_type":[0,0,0,0,0,0,0,0,0],"sum_hessian":[5.0466072E1,3.740976E1,1.3056314E1,2.7189804E1,1.0219954E1,9.088144E0,1.810166E1,9.039096E0,9.062564E0],"tree_param":{"num_deleted":"0","num_feature":"79","num_nodes":"9","size_leaf_vector":"1"}},{"base_weights":[-1.0038803E-1,1.8459809E-1,-7.901001E-3,6.977184E-3,-1.376344E-1,3.73255E-3,-6.37215E-3],"categories":[],"categories_nodes":[],"categories_segments":[],"categories_sizes":[],"default_left":[0,0,0,0,0,0,0],"id":113,"left_children":[1,3,-1,-1,5,-1,-1],"loss_changes":[9.195669E0,5.33822E0,0E0,0E0,4.676357E0,0E0,0E0],"parents":[2147483647,0,0,1,1,4,4],"right_children":[2,4,-1,-1,6,-1,-1],"split_conditions":[4.3599463E3,5.150239E1,-7.901001E-3,6.977184E-3,4.117601E3,3.73255E-3,-6.37215E-3],"split_indices":[8,42,0,0,8,0,0],"split_type":[0,0,0,0,0,0,0],"sum_hessian":[4.8866894E1,3.3677486E1,1.5189405E1,1.3935916E1,1.9741571E1,9.302803E0,1.0438767E1],"tree_param":{"num_deleted":"0","num_feature":"79","num_nodes":"7","size_leaf_vector":"1"}},{"base_weights":[8.417204E-2,8.876797E-3,-1.1043802E-1,2.1661066E-1,-4.843471E-1,8.794712E-3,-3.182879E-3,-9.805746E-4,-8.90688E-3],"categories":[],"categories_nodes":[],"categories_segments":[],"categories_sizes":[],"default_left":[0,0,0,0,0,0,0,0,0],"id":114,"left_children":[1,-1,3,5,7,-1,-1,-1,-1],"loss_changes":[7.4983163E0,0E0,4.9977922E0,6.8335137E0,2.2831807E0,0E0,0E0,0E0,0E0],"parents":[2147483647,0,0,2,2,3,3,4,4],"right_children":[2,-1,4,6,8,-1,-1,-1,-1],"split_conditions":[4.7782823E-1,8.876797E-3,4.2658585E6,4.307477E3,7.48152E-4,8.794712E-3,-3.182879E-3,-9.805746E-4,-8.90688E-3],"split_indices":[49,0,46,13,53,0,0,0,0],"split_type":[0,0,0,0,0,0,0,0,0],"sum_hessian":[4.9459064E1,1.0230601E1,3.9228462E1,2.06092E1,1.861926E1,9.602357E0,1.1006844E1,9.442383E0,9.176878E0],"tree_param":{"num_deleted":"0","num_feature":"79","num_nodes":"9","size_leaf_vector":"1"}},{"base_weights":[2.0890567E-1,9.439945E-3,-0E0,-7.027314E-3,2.0623545E-1,-3.4370134E-3,6.793242E-3],"categories":[],"categories_nodes":[],"categories_segments":[],"categories_sizes":[],"default_left":[0,0,0,0,0,0,0],"id":115,"left_children":[1,-1,3,-1,5,-1,-1],"loss_changes":[7.4216566E0,0E0,5.5524607E0,0E0,7.130117E0,0E0,0E0],"parents":[2147483647,0,0,2,2,4,4],"right_children":[2,-1,4,-1,6,-1,-1],"split_conditions":[4.037E3,9.439945E-3,-1.319838E-2,-7.027314E-3,1.3678456E-2,-3.4370134E-3,6.793242E-3],"split_indices":[68,0,62,0,72,0,0],"split_type":[0,0,0,0,0,0,0],"sum_hessian":[5.1621555E1,1.1993047E1,3.962851E1,9.35778E0,3.027073E1,1.3295604E1,1.6975124E1],"tree_param":{"num_deleted":"0","num_feature":"79","num_nodes":"7","size_leaf_vector":"1"}},{"base_weights":[-4.1818123E-2,3.0154973E-1,-3.9348665E-1,6.7003295E-3,-2.1410093E-3,-1.0675293E-2,-0E0],"categories":[],"categories_nodes":[],"categories_segments":[],"categories_sizes":[],"default_left":[0,0,0,0,0,0,0],"id":116,"left_children":[1,3,5,-1,-1,-1,-1],"loss_changes":[5.996049E0,4.180125E0,5.8526545E0,0E0,0E0,0E0,0E0],"parents":[2147483647,0,0,1,1,2,2],"right_children":[2,4,6,-1,-1,-1,-1],"split_conditions":[5.150239E1,4.357867E3,9.198533E0,6.7003295E-3,-2.1410093E-3,-1.0675293E-2,-0E0],"split_indices":[42,9,23,0,0,0,0],"split_type":[0,0,0,0,0,0,0],"sum_hessian":[4.8383984E1,2.4081015E1,2.4302967E1,1.4930749E1,9.150267E0,9.262911E0,1.5040056E1],"tree_param":{"num_deleted":"0","num_feature":"79","num_nodes":"7","size_leaf_vector":"1"}},{"base_weights":[5.2024767E-2,2.5023714E-1,-5.301143E-3,-3.220005E-3,4.5297298E-1,9.306122E-3,1.2970221E-3],"categories":[],"categories_nodes":[],"categories_segments":[],"categories_sizes":[],"default_left":[0,0,0,0,0,0,0],"id":117,"left_children":[1,3,-1,-1,5,-1,-1],"loss_changes":[5.6732116E0,4.4997053E0,0E0,0E0,3.680048E0,0E0,0E0],"parents":[2147483647,0,0,1,1,4,4],"right_children":[2,4,-1,-1,6,-1,-1],"split_conditions":[1.4659179E-2,2.507887E1,-5.301143E-3,-3.220005E-3,5.01287E1,9.306122E-3,1.2970221E-3],"split_indices":[62,43,0,0,42,0,0],"split_type":[0,0,0,0,0,0,0],"sum_hessian":[5.195432E1,3.8739674E1,1.3214644E1,9.955539E0,2.8784136E1,1.2014903E1,1.6769234E1],"tree_param":{"num_deleted":"0","num_feature":"79","num_nodes":"7","size_leaf_vector":"1"}},{"base_weights":[1.22567005E-1,3.702721E-1,-4.5460956E-3,8.770695E-3,1.0409007E-2,-4.430855E-3,5.736623E-3],"categories":[],"categories_nodes":[],"categories_segments":[],"categories_sizes":[],"default_left":[0,0,0,0,0,0,0],"id":118,"left_children":[1,3,-1,-1,5,-1,-1],"loss_changes":[6.7669067E0,5.3359113E0,0E0,0E0,4.630357E0,0E0,0E0],"parents":[2147483647,0,0,1,1,4,4],"right_children":[2,4,-1,-1,6,-1,-1],"split_conditions":[4.609861E3,5.074393E1,-4.5460956E-3,8.770695E-3,5.0983852E1,-4.430855E-3,5.736623E-3],"split_indices":[29,42,0,0,20,0,0],"split_type":[0,0,0,0,0,0,0],"sum_hessian":[4.8980923E1,3.420254E1,1.4778384E1,1.4570663E1,1.9631876E1,1.0601701E1,9.030175E0],"tree_param":{"num_deleted":"0","num_feature":"79","num_nodes":"7","size_leaf_vector":"1"}},{"base_weights":[-2.2100506E-2,-6.7093256E-3,1.4840205E-1,7.3489393E-3,-1.5726435E-1,4.7936044E-3,-6.1877756E-3],"categories":[],"categories_nodes":[],"categories_segments":[],"categories_sizes":[],"default_left":[0,0,0,0,0,0,0],"id":119,"left_children":[1,-1,3,-1,5,-1,-1],"loss_changes":[5.498356E0,0E0,6.81777E0,0E0,6.6910653E0,0E0,0E0],"parents":[2147483647,0,0,2,2,4,4],"right_children":[2,-1,4,-1,6,-1,-1],"split_conditions":[7.7288724E-3,-6.7093256E-3,1.581294E-2,7.3489393E-3,3.9569795E3,4.7936044E-3,-6.1877756E-3],"split_indices":[72,0,67,0,1,0,0],"split_type":[0,0,0,0,0,0,0],"sum_hessian":[5.1028767E1,1.1326024E1,3.9702744E1,1.4529799E1,2.5172945E1,1.0006842E1,1.5166102E1],"tree_param":{"num_deleted":"0","num_feature":"79","num_nodes":"7","size_leaf_vector":"1"}},{"base_weights":[1.6664835E-2,2.0744039E-1,-7.7474024E-3,-3.4305237E-3,4.1868314E-1,7.273084E-1,-1.3607942E-3,2.1980167E-3,1.2732136E-2],"categories":[],"categories_nodes":[],"categories_segments":[],"categories_sizes":[],"default_left":[0,0,0,0,0,0,0,0,0],"id":120,"left_children":[1,3,-1,-1,5,7,-1,-1,-1],"loss_changes":[6.795896E0,4.4986978E0,0E0,0E0,5.0856256E0,3.976138E0,0E0,0E0,0E0],"parents":[2147483647,0,0,1,1,4,4,5,5],"right_children":[2,4,-1,-1,6,8,-1,-1,-1],"split_conditions":[4.4253945E3,4.1877935E3,-7.7474024E-3,-3.4305237E-3,4.587697E3,4.0919E3,-1.3607942E-3,2.1980167E-3,1.2732136E-2],"split_indices":[10,10,0,0,29,6,0,0,0],"split_type":[0,0,0,0,0,0,0,0,0],"sum_hessian":[4.823103E1,3.89622E1,9.26883E0,1.0655148E1,2.8307053E1,1.8323984E1,9.9830675E0,9.243389E0,9.080596E0],"tree_param":{"num_deleted":"0","num_feature":"79","num_nodes":"9","size_leaf_vector":"1"}},{"base_weights":[-3.148804E-2,4.541485E-3,-2.7533913E-1,-5.5574745E-1,2.0432605E-3,-1.2959057E-4,-1.0714771E-2],"categories":[],"categories_nodes":[],"categories_segments":[],"categories_sizes":[],"default_left":[0,0,0,0,0,0,0],"id":121,"left_children":[1,-1,3,5,-1,-1,-1],"loss_changes":[5.4830832E0,0E0,4.45609E0,4.7565737E0,0E0,0E0,0E0],"parents":[2147483647,0,0,2,2,3,3],"right_children":[2,-1,4,6,-1,-1,-1],"split_conditions":[-6.1303345E-3,4.541485E-3,5.1178516E1,4.070712E3,2.0432605E-3,-1.2959057E-4,-1.0714771E-2],"split_indices":[54,0,20,24,0,0,0],"split_type":[0,0,0,0,0,0,0],"sum_hessian":[4.8756107E1,