{"learner":{"attributes":{"scikit_learn":"{\"_estimator_type\": \"classifier\"}"},"feature_names":[],"feature_types":[],"gradient_booster":{"model":{"cats":{"enc":[],"feature_segments":[],"sorted_idx":[]},"gbtree_model_param":{"num_parallel_tree":"1","num_trees":"100"},"iteration_indptr":[0,1,2,3,4,5,6,7,8,9,10,11,12,13,14,15,16,17,18,19,20,21,22,23,24,25,26,27,28,29,30,31,32,33,34,35,36,37,38,39,40,41,42,43,44,45,46,47,48,49,50,51,52,53,54,55,56,57,58,59,60,61,62,63,64,65,66,67,68,69,70,71,72,73,74,75,76,77,78,79,80,81,82,83,84,85,86,87,88,89,90,91,92,93,94,95,96,97,98,99,100],"tree_info":[0,0,0,0,0,0,0,0,0,0,0,0,0,0,0,0,0,0,0,0,0,0,0,0,0,0,0,0,0,0,0,0,0,0,0,0,0,0,0,0,0,0,0,0,0,0,0,0,0,0,0,0,0,0,0,0,0,0,0,0,0,0,0,0,0,0,0,0,0,0,0,0,0,0,0,0,0,0,0,0,0,0,0,0,0,0,0,0,0,0,0,0,0,0,0,0,0,0,0,0],"trees":[{"base_weights":[8.3888274E-8,1.9215977E-1,-1.750067E-1,6.286794E-1,2.2939963E-2,7.4071336E-1,-2.196022E-1,1.2777044E0,5.3306353E-1,-1.2653297E-1,4.1632587E-1,1.2777044E0,-1.0589428E-1,-3.9703E-1,-5.420039E-2,1.5176097E-1,1.4930123E-2,6.3453E-1,-3.7117016E-1,1.4581081E-1,-3.6904535E-1,-2.3234203E-1,7.227235E-1,1.4996931E-1,3.216953E-2,-6.677227E-1,7.22742E-2,8.456789E-2,-6.183886E-1,1.9437166E-1,-3.143153E-1,6.829497E-1,-4.8039816E-2,-9.274848E-1,7.22742E-2,-7.476992E-3,1.1511594E0,-5.8906066E-1,2.155516E-1,6.799581E-2,-4.701303E-1,1.1021712E0,1.9976912E-2,-1.1872621E-1,1.4930123E-2,-3.3412567E-1,8.2091564E-1,-1.3808987E0,-4.7198588E-1,-1.1025274E0,2.8649405E-1,5.4500762E-2,-7.436513E-1,4.5436572E-2,9.724657E-2,-2.6649684E-2,-1.2824915E-1,2.433989E-2,-6.8409234E-2,-2.9621987E-2,1.5338987E-1,-3.8520437E-2,-1.2576614E-1,-2.8937558E-2,7.098653E-2,9.353417E-3,-1.1584806E-1,1.4471595E-1,-1.1584738E-3,1.3743187E-1,-6.1777014E-2,1.9168869E-2,-8.193433E-2,-3.259194E-2,1.3168126E-1,-1.5677571E-1,-2.6649684E-2,1.1237887E-1,-5.3193647E-2,-1.3604341E-1,-2.9621987E-2,3.924037E-2,-7.761819E-2,2.4316408E-2,-8.381799E-2,-9.9373095E-2,-5.0562373E-3],"categories":[],"categories_nodes":[],"categories_segments":[],"categories_sizes":[],"default_left":[0,0,0,0,0,0,0,0,0,0,0,0,0,0,0,0,0,0,0,0,0,0,0,0,0,0,0,0,0,0,0,0,0,0,0,0,0,0,0,0,0,0,0,0,0,0,0,0,0,0,0,0,0,0,0,0,0,0,0,0,0,0,0,0,0,0,0,0,0,0,0,0,0,0,0,0,0,0,0,0,0,0,0,0,0,0,0],"id":0,"left_children":[1,3,5,7,9,11,13,15,17,19,21,23,25,27,29,-1,-1,31,33,35,37,39,41,-1,-1,43,-1,45,47,49,51,53,-1,55,-1,57,59,61,63,-1,65,67,69,-1,-1,71,73,75,77,79,81,83,85,-1,-1,-1,-1,-1,-1,-1,-1,-1,-1,-1,-1,-1,-1,-1,-1,-1,-1,-1,-1,-1,-1,-1,-1,-1,-1,-1,-1,-1,-1,-1,-1,-1,-1],"loss_changes":[1.4155217E1,1.480551E1,9.158722E0,2.7947006E0,8.615108E0,4.8900323E0,6.165778E0,1.526556E0,4.8719463E0,7.0739193E0,8.183157E0,8.919296E-1,2.8022475E0,1.0879257E1,7.191022E0,0E0,0E0,2.8008099E0,4.1569743E0,7.8345814E0,7.3949823E0,3.2904832E0,7.3466434E0,0E0,0E0,1.6583099E0,0E0,1.0405408E1,7.129078E0,7.126487E0,8.633535E0,2.4905758E0,0E0,6.521871E-1,0E0,7.8148613E0,4.1798058E0,5.1479187E0,4.244737E0,0E0,4.55262E0,6.904545E0,1.0097451E1,0E0,0E0,5.683204E0,7.3680677E0,1.8118973E0,6.337103E0,4.261074E-1,6.3842173E0,5.2769737E0,4.307991E0,0E0,0E0,0E0,0E0,0E0,0E0,0E0,0E0,0E0,0E0,0E0,0E0,0E0,0E0,0E0,0E0,0E0,0E0,0E0,0E0,0E0,0E0,0E0,0E0,0E0,0E0,0E0,0E0,0E0,0E0,0E0,0E0,0E0,0E0],"parents":[2147483647,0,0,1,1,2,2,3,3,4,4,5,5,6,6,7,7,8,8,9,9,10,10,11,11,12,12,13,13,14,14,17,17,18,18,19,19,20,20,21,21,22,22,25,25,27,27,28,28,29,29,30,30,31,31,33,33,35,35,36,36,37,37,38,38,40,40,41,41,42,42,45,45,46,46,47,47,48,48,49,49,50,50,51,51,52,52],"right_children":[2,4,6,8,10,12,14,16,18,20,22,24,26,28,30,-1,-1,32,34,36,38,40,42,-1,-1,44,-1,46,48,50,52,54,-1,56,-1,58,60,62,64,-1,66,68,70,-1,-1,72,74,76,78,80,82,84,86,-1,-1,-1,-1,-1,-1,-1,-1,-1,-1,-1,-1,-1,-1,-1,-1,-1,-1,-1,-1,-1,-1,-1,-1,-1,-1,-1,-1,-1,-1,-1,-1,-1,-1],"split_conditions":[-1.711515E-2,-7.2008973E-1,-9.089716E-1,-7.0552427E-1,-2.2815172E-1,1.0929092E-1,-4.528735E-1,1.5002789E-1,-1.00743644E-1,-2.0015192E-1,-3.391769E-1,-6.2740433E-1,-6.760873E-1,-2.1894705E-1,-1.6318786E-1,1.5176097E-1,1.4930123E-2,2.6542659E0,8.0519956E-1,-3.16248E-1,9.099148E-1,-1.1625723E0,1.7943788E-1,1.4996931E-1,3.216953E-2,-5.5335444E-1,7.22742E-2,-6.775441E-1,-2.8187385E-1,-5.306353E-1,3.8465598E-1,-6.9646607E-3,-4.8039816E-2,6.509207E-2,7.22742E-2,-7.6273406E-1,-1.1364014E0,5.954295E-1,1.2705313E0,6.799581E-2,-3.5337877E-1,3.73671E-1,-2.180876E-1,-1.1872621E-1,1.4930123E-2,-1.3217755E-1,-5.334433E-1,-7.1090025E-1,-4.05923E-1,4.9841862E-2,2.0864284E0,5.560695E-1,1.8284044E0,4.5436572E-2,9.724657E-2,-2.6649684E-2,-1.2824915E-1,2.433989E-2,-6.8409234E-2,-2.9621987E-2,1.5338987E-1,-3.8520437E-2,-1.2576614E-1,-2.8937558E-2,7.098653E-2,9.353417E-3,-1.1584806E-1,1.4471595E-1,-1.1584738E-3,1.3743187E-1,-6.1777014E-2,1.9168869E-2,-8.193433E-2,-3.259194E-2,1.3168126E-1,-1.5677571E-1,-2.6649684E-2,1.1237887E-1,-5.3193647E-2,-1.3604341E-1,-2.9621987E-2,3.924037E-2,-7.761819E-2,2.4316408E-2,-8.381799E-2,-9.9373095E-2,-5.0562373E-3],"split_indices":[2,18,20,4,2,16,9,27,2,16,16,25,8,21,26,0,0,26,21,16,16,16,26,0,0,3,0,13,14,3,9,21,0,21,0,21,13,20,18,0,22,8,0,0,0,20,3,5,15,2,20,15,2,0,0,0,0,0,0,0,0,0,0,0,0,0,0,0,0,0,0,0,0,0,0,0,0,0,0,0,0,0,0,0,0,0,0],"split_type":[0,0,0,0,0,0,0,0,0,0,0,0,0,0,0,0,0,0,0,0,0,0,0,0,0,0,0,0,0,0,0,0,0,0,0,0,0,0,0,0,0,0,0,0,0,0,0,0,0,0,0,0,0,0,0,0,0,0,0,0,0,0,0,0,0,0,0,0,0,0,0,0,0,0,0,0,0,0,0,0,0,0,0,0,0,0,0],"sum_hessian":[4.189198E2,1.9962785E2,2.1929193E2,5.500967E1,1.4461818E2,9.458676E0,2.0983327E2,5.4760756E0,4.9533592E1,1.0529E2,3.932818E1,5.4760756E0,3.9826005E0,1.0056066E2,1.092726E2,4.231513E0,1.2445626E0,4.4804256E1,4.729338E0,4.9782505E1,5.5507492E1,1.2694539E1,2.663364E1,3.9826005E0,1.4934752E0,2.4891253E0,1.4934752E0,3.1860804E1,6.869986E1,5.6005318E1,5.326728E1,4.331078E1,1.4934752E0,3.235863E0,1.4934752E0,4.4057518E1,5.724988E0,4.032383E1,1.5183664E1,2.2402127E0,1.0454327E1,1.6926052E1,9.707588E0,1.2445626E0,1.2445626E0,2.065974E1,1.1201064E1,9.707588E0,5.8992268E1,2.9869504E0,5.3018368E1,2.9122766E1,2.4144516E1,2.563799E1,1.7672789E1,1.7423877E0,1.4934752E0,3.260754E1,1.1449976E1,1.2445626E0,4.4804254E0,3.2109715E1,8.214113E0,7.7162886E0,7.4673758E0,6.222813E0,4.231513E0,1.2694539E1,4.231513E0,2.7380378E0,6.9695506E0,1.0205414E1,1.0454327E1,3.4847753E0,7.7162886E0,7.965201E0,1.7423877E0,1.4934752E0,5.7498795E1,1.7423877E0,1.2445626E0,4.8786854E1,4.231513E0,2.464234E1,4.4804254E0,1.7423878E1,6.7206383E0],"tree_param":{"num_deleted":"0","num_feature":"29","num_nodes":"87","size_leaf_vector":"1"}},{"base_weights":[2.0817993E-4,1.751952E-1,-1.5876698E-1,5.7239455E-1,2.1830117E-2,6.860703E-1,-1.9963615E-1,1.1887066E0,4.8247853E-1,-1.1417181E-1,3.814729E-1,1.1905808E0,-1.0158772E-1,-3.1188956E-1,1.4918304E-2,1.4135313E-1,1.411084E-2,5.763585E-1,-3.4830418E-1,6.3413197E-1,-1.8736987E-1,-2.1176614E-1,6.637508E-1,1.3977803E-1,3.0288039E-2,7.0583135E-2,-6.4824307E-1,-9.615559E-2,-5.6295335E-1,4.3237916E-1,-2.3835926E-1,6.8469685E-1,5.5037946E-2,-8.6926275E-1,6.820448E-2,-4.95484E-2,8.997146E-1,8.9985415E-2,-2.1937391E-1,6.355387E-2,-4.3176052E-1,1.0110817E0,2.5364202E-2,-1.1565471E-1,1.49627095E-2,4.4808558E-1,-3.0190474E-1,-7.0491624E-1,1.8492612E-1,7.841057E-1,-1.4826263E-1,3.040562E-1,-4.1484976E-1,4.3631937E-2,9.742763E-2,-6.6801235E-2,7.00095E-2,-2.4930052E-2,-1.2023127E-1,1.4166264E-1,2.7954197E-2,-1.12626754E-1,-1.4354134E-2,-8.787789E-2,3.2533374E-2,1.3319409E-1,-1.0647023E-3,1.2871361E-1,-5.621139E-2,1.4274426E-2,1.3502283E-1,-9.906571E-2,-5.8014607E-3,-5.161579E-3,-9.2675015E-2,7.873147E-2,-5.0093133E-2,-5.0476488E-2,9.3420535E-2,4.8296016E-2,-1.2359901E-1,-4.739232E-2,1.09572425E-1,5.0491787E-2,-5.2322567E-2],"categories":[],"categories_nodes":[],"categories_segments":[],"categories_sizes":[],"default_left":[0,0,0,0,0,0,0,0,0,0,0,0,0,0,0,0,0,0,0,0,0,0,0,0,0,0,0,0,0,0,0,0,0,0,0,0,0,0,0,0,0,0,0,0,0,0,0,0,0,0,0,0,0,0,0,0,0,0,0,0,0,0,0,0,0,0,0,0,0,0,0,0,0,0,0,0,0,0,0,0,0,0,0,0,0],"id":1,"left_children":[1,3,5,7,9,11,13,15,17,19,21,23,25,27,29,-1,-1,31,33,35,37,39,41,-1,-1,-1,43,45,47,49,51,53,55,57,-1,-1,59,-1,61,-1,63,65,67,-1,-1,69,71,73,75,77,79,81,83,-1,-1,-1,-1,-1,-1,-1,-1,-1,-1,-1,-1,-1,-1,-1,-1,-1,-1,-1,-1,-1,-1,-1,-1,-1,-1,-1,-1,-1,-1,-1,-1],"loss_changes":[1.16941805E1,1.2177414E1,7.7422123E0,2.5133038E0,7.1556654E0,4.249373E0,5.083477E0,1.3099766E0,4.12335E0,5.940078E0,6.8604727E0,7.558975E-1,2.6545887E0,7.4468317E0,7.8625E0,0E0,0E0,2.5357323E0,3.6683395E0,3.3551533E0,3.5927362E0,2.8274016E0,6.0570393E0,0E0,0E0,0E0,1.588208E0,8.610956E0,6.9038105E0,5.8482885E0,4.5603895E0,2.281948E0,4.6313567E0,5.76792E-1,0E0,0E0,2.2348833E0,0E0,6.4124746E0,0E0,4.167259E0,5.830124E0,8.64911E0,0E0,0E0,5.6380444E0,9.269409E0,7.753042E0,4.926781E0,3.8837814E0,8.444038E0,7.8783975E0,3.7900224E0,0E0,0E0,0E0,0E0,0E0,0E0,0E0,0E0,0E0,0E0,0E0,0E0,0E0,0E0,0E0,0E0,0E0,0E0,0E0,0E0,0E0,0E0,0E0,0E0,0E0,0E0,0E0,0E0,0E0,0E0,0E0,0E0],"parents":[2147483647,0,0,1,1,2,2,3,3,4,4,5,5,6,6,7,7,8,8,9,9,10,10,11,11,12,12,13,13,14,14,17,17,18,18,19,19,20,20,21,21,22,22,26,26,27,27,28,28,29,29,30,30,31,31,32,32,33,33,36,36,38,38,40,40,41,41,42,42,45,45,46,46,47,47,48,48,49,49,50,50,51,51,52,52],"right_children":[2,4,6,8,10,12,14,16,18,20,22,24,26,28,30,-1,-1,32,34,36,38,40,42,-1,-1,-1,44,46,48,50,52,54,56,58,-1,-1,60,-1,62,-1,64,66,68,-1,-1,70,72,74,76,78,80,82,84,-1,-1,-1,-1,-1,-1,-1,-1,-1,-1,-1,-1,-1,-1,-1,-1,-1,-1,-1,-1,-1,-1,-1,-1,-1,-1,-1,-1,-1,-1,-1,-1],"split_conditions":[-1.711515E-2,-7.2008973E-1,-9.089716E-1,-7.0552427E-1,-2.2815172E-1,1.0929092E-1,1.17426485E-1,1.5002789E-1,-1.00743644E-1,-1.845507E0,-3.391769E-1,-6.2740433E-1,-9.543695E-1,-4.2040774E-1,4.3554062E-1,1.4135313E-1,1.411084E-2,-2.7345252E-1,8.0519956E-1,-5.404324E-1,-8.1439656E-1,-1.1625723E0,1.7943788E-1,1.3977803E-1,3.0288039E-2,7.0583135E-2,-7.8802377E-1,-7.687971E-1,8.128448E-1,1.5992731E-1,-2.9129943E-1,-1.43600665E-2,-5.944416E-1,6.509207E-2,6.820448E-2,-4.95484E-2,4.560583E-1,8.9985415E-2,-7.0955247E-1,6.355387E-2,-1.0926723E0,3.73671E-1,-2.180876E-1,-1.1565471E-1,1.49627095E-2,-7.925773E-1,1.0422198E-1,-5.597824E-1,1.6466524E-1,-1.119548E0,1.567061E0,7.34025E-1,-1.4233932E0,4.3631937E-2,9.742763E-2,-6.6801235E-2,7.00095E-2,-2.4930052E-2,-1.2023127E-1,1.4166264E-1,2.7954197E-2,-1.12626754E-1,-1.4354134E-2,-8.787789E-2,3.2533374E-2,1.3319409E-1,-1.0647023E-3,1.2871361E-1,-5.621139E-2,1.4274426E-2,1.3502283E-1,-9.906571E-2,-5.8014607E-3,-5.161579E-3,-9.2675015E-2,7.873147E-2,-5.0093133E-2,-5.0476488E-2,9.3420535E-2,4.8296016E-2,-1.2359901E-1,-4.739232E-2,1.09572425E-1,5.0491787E-2,-5.2322567E-2],"split_indices":[2,18,20,4,2,16,25,27,2,21,16,25,20,20,24,0,0,22,21,22,5,16,26,0,0,0,22,7,16,13,20,27,25,21,0,0,19,0,8,0,21,8,0,0,0,7,0,14,26,21,8,24,13,0,0,0,0,0,0,0,0,0,0,0,0,0,0,0,0,0,0,0,0,0,0,0,0,0,0,0,0,0,0,0,0],"split_type":[0,0,0,0,0,0,0,0,0,0,0,0,0,0,0,0,0,0,0,0,0,0,0,0,0,0,0,0,0,0,0,0,0,0,0,0,0,0,0,0,0,0,0,0,0,0,0,0,0,0,0,0,0,0,0,0,0,0,0,0,0,0,0,0,0,0,0,0,0,0,0,0,0,0,0,0,0,0,0,0,0,0,0,0,0],"sum_hessian":[4.18373E2,1.9910846E2,2.1926453E2,5.470251E1,1.4440594E2,9.389065E0,2.0987547E2,5.408793E0,4.9293716E1,1.0527708E2,3.912887E1,5.411407E0,3.977658E0,1.3748868E2,7.238679E1,4.165524E0,1.2432687E0,4.4564133E1,4.7295837E0,8.6976595E0,9.657942E1,1.2696188E1,2.643268E1,3.9214807E0,1.4899262E0,1.4882728E0,2.4893854E0,7.469113E1,6.279755E1,2.7066956E1,4.5319828E1,3.6637016E1,7.9271173E0,3.2451386E0,1.4844452E0,1.4908599E0,7.2067995E0,1.9862646E0,9.4593155E1,2.227628E0,1.0468559E1,1.6740673E1,9.692007E0,1.2460277E0,1.2433577E0,2.0167326E1,5.4523804E1,5.2827297E1,9.970256E0,1.6637997E1,1.0428959E1,1.0948516E1,3.4371315E1,2.1070877E1,1.5566137E1,3.7208247E0,4.2062926E0,1.7451441E0,1.4999945E0,3.2301962E0,3.976603E0,6.2304306E0,8.8362724E1,6.4811225E0,3.987437E0,1.2508839E1,4.231835E0,2.7006538E0,6.991353E0,1.5932876E1,4.2344503E0,1.3457516E1,4.1066288E1,1.3703423E1,3.9123875E1,5.229371E0,4.740885E0,1.4890447E0,1.5148952E1,6.951122E0,3.477837E0,5.7244287E0,5.224087E0,3.23737E0,3.1133944E1],"tree_param":{"num_deleted":"0","num_feature":"29","num_nodes":"85","size_leaf_vector":"1"}},{"base_weights":[1.9621584E-3,1.4594004E-1,-1.5763982E-1,5.496352E-1,3.767063E-2,4.9060587E-2,-3.233562E-1,1.2290224E0,3.999352E-1,1.9172134E-1,-1.918317E-1,5.542853E-1,-1.1195231E-1,-7.775124E-1,-1.8532017E-1,2.8362472E-2,1.4021917E-1,1.0289598E0,1.7263058E-1,8.801644E-2,8.057505E-1,4.9575093E-1,-2.951311E-1,-1.4638868E-1,1.09987E0,-2.3717159E-1,6.281528E-1,6.604471E-1,-9.807071E-1,4.03448E-1,-2.830586E-1,1.315101E0,-1.2076504E-2,-1.1428213E-1,3.0426487E-1,1.3721547E-1,-1.4067362E-1,-6.91823E-2,9.906339E-1,-1.0290915E-1,9.58858E-1,-1.2901491E-1,-2.2290584E-1,-1.1587169E0,4.7017005E-1,-4.8856597E-2,1.3629411E-1,-3.0712333E-1,1.1939514E-1,-4.4566438E-2,8.6402076E-1,-9.777977E-5,1.1018071E-1,3.4767285E-1,-1.2825729E0,8.379931E-1,-6.603085E-1,-6.388505E-1,-7.073472E-2,1.5248649E-1,4.879288E-3,6.5074298E-3,9.192608E-2,7.627684E-3,1.1070471E-1,3.256806E-2,1.18188694E-1,-4.394973E-2,1.355016E-1,-3.0102E-2,6.8859816E-2,-3.1805348E-2,-1.3994989E-1,9.047612E-2,-4.4435006E-2,1.37834E-2,-4.493348E-2,1.0977214E-1,-2.989395E-2,-6.867577E-2,8.762071E-2,-1.3965373E-1,-3.8348302E-2,1.03584066E-1,-2.6015664E-2,-1.0867973E-1,1.999584E-2,-8.602267E-2,3.5900347E-2,2.0921612E-2,-5.677551E-2],"categories":[],"categories_nodes":[],"categories_segments":[],"categories_sizes":[],"default_left":[0,0,0,0,0,0,0,0,0,0,0,0,0,0,0,0,0,0,0,0,0,0,0,0,0,0,0,0,0,0,0,0,0,0,0,0,0,0,0,0,0,0,0,0,0,0,0,0,0,0,0,0,0,0,0,0,0,0,0,0,0,0,0,0,0,0,0,0,0,0,0,0,0,0,0,0,0,0,0,0,0,0,0,0,0,0,0,0,0,0,0],"id":2,"left_children":[1,3,5,7,9,11,13,15,17,19,21,23,25,27,29,-1,-1,31,33,35,37,39,41,43,45,47,49,51,53,55,57,59,-1,-1,61,63,-1,-1,65,-1,67,-1,69,71,73,-1,-1,75,-1,-1,77,-1,-1,79,81,83,85,87,89,-1,-1,-1,-1,-1,-1,-1,-1,-1,-1,-1,-1,-1,-1,-1,-1,-1,-1,-1,-1,-1,-1,-1,-1,-1,-1,-1,-1,-1,-1,-1,-1],"loss_changes":[9.638103E0,9.616877E0,6.82983E0,4.243557E0,6.2218766E0,7.333383E0,6.7857122E0,8.9957714E-1,5.489159E0,6.626628E0,5.1724625E0,8.483311E0,6.507949E0,8.08483E0,5.0681305E0,0E0,0E0,3.5535097E0,5.5969653E0,6.8928537E0,4.8591337E0,7.7771435E0,4.1787243E0,7.044244E0,5.8296204E0,6.314416E0,2.9693418E0,1.0955133E0,9.550205E0,6.409424E0,5.5766444E0,2.142642E0,0E0,0E0,4.110033E0,5.182103E0,0E0,0E0,1.373806E0,0E0,4.968254E0,0E0,4.418927E0,4.111414E-1,3.2568388E0,0E0,0E0,3.6965547E0,0E0,0E0,2.6943092E0,0E0,0E0,3.33038E0,1.3819237E0,2.3194184E0,1.7705699E0,6.4252014E0,6.760073E0,0E0,0E0,0E0,0E0,0E0,0E0,0E0,0E0,0E0,0E0,0E0,0E0,0E0,0E0,0E0,0E0,0E0,0E0,0E0,0E0,0E0,0E0,0E0,0E0,0E0,0E0,0E0,0E0,0E0,0E0,0E0,0E0],"parents":[2147483647,0,0,1,1,2,2,3,3,4,4,5,5,6,6,7,7,8,8,9,9,10,10,11,11,12,12,13,13,14,14,17,17,18,18,19,19,20,20,21,21,22,22,23,23,24,24,25,25,26,26,27,27,28,28,29,29,30,30,31,31,34,34,35,35,38,38,40,40,42,42,43,43,44,44,47,47,50,50,53,53,54,54,55,55,56,56,57,57,58,58],"right_children":[2,4,6,8,10,12,14,16,18,20,22,24,26,28,30,-1,-1,32,34,36,38,40,42,44,46,48,50,52,54,56,58,60,-1,-1,62,64,-1,-1,66,-1,68,-1,70,72,74,-1,-1,76,-1,-1,78,-1,-1,80,82,84,86,88,90,-1,-1,-1,-1,-1,-1,-1,-1,-1,-1,-1,-1,-1,-1,-1,-1,-1,-1,-1,-1,-1,-1,-1,-1,-1,-1,-1,-1,-1,-1,-1,-1],"split_conditions":[5.0125167E-2,-7.6207024E-1,-3.661771E-1,-8.1251746E-1,1.463289E-1,-2.4106833E-1,-3.0363566E-1,-5.804478E-1,-4.89794E-1,5.968729E-2,-8.86989E-1,1.6450913E-1,2.015724E-1,-5.929004E-1,-1.21467456E-1,2.8362472E-2,1.4021917E-1,-7.132041E-1,-4.4723713E-1,4.971695E-2,-5.240773E-1,-6.280664E-1,-7.3640877E-1,-3.468168E-1,-6.149707E-1,7.755078E-1,-1.1784586E0,1.2680078E0,-5.6859183E-1,3.760281E-1,1.17426485E-1,1.027885E0,-1.2076504E-2,-1.1428213E-1,3.6767137E-1,2.074099E-2,-1.4067362E-1,-6.91823E-2,-2.8820282E-1,-1.0290915E-1,-5.85787E-1,-1.2901491E-1,1.8852695E0,-4.4292727E-1,1.329282E-1,-4.8856597E-2,1.3629411E-1,-7.42588E-1,1.1939514E-1,-4.4566438E-2,-9.03925E-2,-9.777977E-5,1.1018071E-1,-7.784153E-1,8.128448E-1,2.9781386E-1,4.4677302E-1,1.1609912E0,8.4316474E-1,1.5248649E-1,4.879288E-3,6.5074298E-3,9.192608E-2,7.627684E-3,1.1070471E-1,3.256806E-2,1.18188694E-1,-4.394973E-2,1.355016E-1,-3.0102E-2,6.8859816E-2,-3.1805348E-2,-1.3994989E-1,9.047612E-2,-4.4435006E-2,1.37834E-2,-4.493348E-2,1.0977214E-1,-2.989395E-2,-6.867577E-2,8.762071E-2,-1.3965373E-1,-3.8348302E-2,1.03584066E-1,-2.6015664E-2,-1.0867973E-1,1.999584E-2,-8.602267E-2,3.5900347E-2,2.0921612E-2,-5.677551E-2],"split_indices":[0,17,20,13,15,21,22,26,23,15,26,2,14,22,23,0,0,8,23,15,24,22,26,14,16,24,19,13,14,11,25,21,0,0,16,0,0,0,27,0,0,0,20,15,2,0,0,8,0,0,23,0,0,7,16,20,6,16,24,0,0,0,0,0,0,0,0,0,0,0,0,0,0,0,0,0,0,0,0,0,0,0,0,0,0,0,0,0,0,0,0],"split_type":[0,0,0,0,0,0,0,0,0,0,0,0,0,0,0,0,0,0,0,0,0,0,0,0,0,0,0,0,0,0,0,0,0,0,0,0,0,0,0,0,0,0,0,0,0,0,0,0,0,0,0,0,0,0,0,0,0,0,0,0,0,0,0,0,0,0,0,0,0,0,0,0,0,0,0,0,0,0,0,0,0,0,0,0,0,0,0,0,0,0,0],"sum_hessian":[4.1742688E2,2.1950012E2,1.9792674E2,4.5557415E1,1.739427E2,8.838582E1,1.0954093E2,6.9240284E0,3.863339E1,1.0417865E2,6.976406E1,2.0770346E1,6.761547E1,2.4453413E1,8.508752E1,1.4803076E0,5.443721E0,9.31872E0,2.9314667E1,9.010409E1,1.4074558E1,8.615867E0,6.114819E1,9.413117E0,1.1357228E1,5.8412186E1,9.203285E0,2.7490115E0,2.1704401E1,1.1668661E1,7.341886E1,7.346498E0,1.9722223E0,1.9678365E0,2.734683E1,8.811213E1,1.991964E0,1.2453291E0,1.2829229E1,1.7224201E0,6.8934464E0,2.996992E0,5.81512E1,3.2301698E0,6.1829476E0,1.4918995E0,9.865329E0,5.643891E1,1.9732754E0,1.4972788E0,7.7060065E0,1.4995545E0,1.249457E0,3.9908142E0,1.7713587E1,8.435136E0,3.2335253E0,2.668831E1,4.6730545E1,6.127325E0,1.2191727E0,2.048529E1,6.8615394E0,8.391786E1,4.194265E0,3.4694471E0,9.359782E0,1.4976506E0,5.395796E0,5.4178E1,3.9731967E0,1.2359399E0,1.9942299E0,4.198459E0,1.9844882E0,1.3676879E1,4.276203E1,6.463286E0,1.2427207E0,1.2483062E0,2.742508E0,1.5229844E1,2.4837427E0,7.195502E0,1.2396338E0,1.9857416E0,1.2477835E0,2.1955383E1,4.7329273E0,3.0263462E1,1.6467085E1],"tree_param":{"num_deleted":"0","num_feature":"29","num_nodes":"91","size_leaf_vector":"1"}},{"base_weights":[2.3993973E-3,1.5131311E-1,-1.3248694E-1,4.8739076E-1,1.2862996E-2,6.3479775E-1,-1.6925691E-1,3.7347758E-1,1.0994782E0,-1.1999044E-1,3.9270625E-1,1.0996687E0,-8.129587E-2,-3.2219905E-1,-3.6926117E-2,6.354286E-1,3.607526E-2,6.197361E-3,1.3522397E-1,-8.940366E-1,-6.4856574E-2,-3.7815422E-1,5.918116E-1,1.301911E-1,2.6337001E-2,6.914331E-2,-6.0957605E-1,5.6990553E-2,-4.993632E-1,-1.0678941E0,1.016247E-2,1.2159562E0,4.213378E-1,-9.622468E-1,2.0294814E-1,-1.4656171E-1,7.237524E-2,8.293169E-2,-3.840288E-1,5.68958E-2,-7.705488E-1,9.648288E-1,4.308855E-2,-1.0674687E-1,1.2324941E-2,-3.556561E-1,6.8234026E-1,-2.9823416E-1,-7.9387325E-1,-1.2827855E-1,-2.346993E-2,1.0312803E0,-4.780947E-2,1.4498256E-1,4.7140713E-3,-6.054377E-2,7.090306E-2,-1.1810217E-1,-3.120469E-2,9.795878E-2,3.3047255E-3,-6.76755E-3,6.3438796E-2,-4.8799854E-2,6.844479E-2,3.7641828E-3,-1.41179E-1,-5.4654587E-2,1.13493636E-1,8.038271E-2,-3.4175802E-2,2.1777535E-2,-7.769137E-2,1.152524E-1,-3.159225E-2,2.673027E-2,-5.740082E-2,-1.2243078E-1,-2.5198152E-2,-2.5618548E-2,1.4279096E-1,2.1151878E-2,-2.2988277E-2],"categories":[],"categories_nodes":[],"categories_segments":[],"categories_sizes":[],"default_left":[0,0,0,0,0,0,0,0,0,0,0,0,0,0,0,0,0,0,0,0,0,0,0,0,0,0,0,0,0,0,0,0,0,0,0,0,0,0,0,0,0,0,0,0,0,0,0,0,0,0,0,0,0,0,0,0,0,0,0,0,0,0,0,0,0,0,0,0,0,0,0,0,0,0,0,0,0,0,0,0,0,0,0],"id":3,"left_children":[1,3,5,7,9,11,13,15,17,19,21,23,25,27,29,31,33,-1,-1,35,37,39,41,-1,-1,-1,43,45,47,49,51,53,55,57,59,-1,-1,61,63,-1,65,67,69,-1,-1,71,73,75,77,-1,-1,79,81,-1,-1,-1,-1,-1,-1,-1,-1,-1,-1,-1,-1,-1,-1,-1,-1,-1,-1,-1,-1,-1,-1,-1,-1,-1,-1,-1,-1,-1,-1],"loss_changes":[8.403391E0,9.245481E0,6.301037E0,3.6324015E0,7.2052946E0,3.5014448E0,4.2439446E0,4.4317293E0,2.167221E0,4.45962E0,5.901236E0,7.199435E-1,2.4486208E0,6.572611E0,5.538676E0,3.0065908E0,4.041679E0,0E0,0E0,7.4970765E0,4.743995E0,3.487083E0,6.055436E0,0E0,0E0,0E0,1.2995981E0,8.479034E0,3.7021027E0,5.9111786E-1,6.553949E0,1.8719101E0,6.9915247E0,1.2660027E-1,2.6868608E0,0E0,0E0,5.782182E0,3.8659902E0,0E0,3.279192E0,5.1673336E0,4.110383E0,0E0,0E0,4.9730353E0,6.4805756E0,6.565568E0,5.8451214E0,0E0,0E0,3.4029021E0,5.003328E0,0E0,0E0,0E0,0E0,0E0,0E0,0E0,0E0,0E0,0E0,0E0,0E0,0E0,0E0,0E0,0E0,0E0,0E0,0E0,0E0,0E0,0E0,0E0,0E0,0E0,0E0,0E0,0E0,0E0,0E0],"parents":[2147483647,0,0,1,1,2,2,3,3,4,4,5,5,6,6,7,7,8,8,9,9,10,10,11,11,12,12,13,13,14,14,15,15,16,16,19,19,20,20,21,21,22,22,26,26,27,27,28,28,29,29,30,30,31,31,32,32,33,33,34,34,37,37,38,38,40,40,41,41,42,42,45,45,46,46,47,47,48,48,51,51,52,52],"right_children":[2,4,6,8,10,12,14,16,18,20,22,24,26,28,30,32,34,-1,-1,36,38,40,42,-1,-1,-1,44,46,48,50,52,54,56,58,60,-1,-1,62,64,-1,66,68,70,-1,-1,72,74,76,78,-1,-1,80,82,-1,-1,-1,-1,-1,-1,-1,-1,-1,-1,-1,-1,-1,-1,-1,-1,-1,-1,-1,-1,-1,-1,-1,-1,-1,-1,-1,-1,-1,-1],"split_conditions":[-1.711515E-2,-7.150443E-1,-9.089716E-1,-7.035425E-1,-2.0212795E-1,1.0929092E-1,-5.5994743E-1,-8.0301756E-1,-8.0150527E-1,-6.708308E-1,-1.119548E0,-6.2740433E-1,-9.543695E-1,-2.1894705E-1,-1.4263984E0,-6.570019E-1,-8.0693686E-1,6.197361E-3,1.3522397E-1,5.0567997E-1,3.0123347E-1,-1.8674357E-1,-3.8837457E-1,1.301911E-1,2.6337001E-2,6.914331E-2,-7.8802377E-1,-6.981173E-1,-4.2040774E-1,1.845686E0,-1.4233932E0,-6.180371E-1,-6.8046975E-1,-7.8652894E-1,-5.702024E-1,-1.4656171E-1,7.237524E-2,-5.921374E-2,1.7215158E0,5.68958E-2,-7.2215414E-1,-7.036107E-1,-2.2491655E-1,-1.0674687E-1,1.2324941E-2,-1.0681496E0,-6.8935513E-1,-7.687971E-1,8.6698353E-1,-1.2827855E-1,-2.346993E-2,1.17426485E-1,-2.0846395E-1,1.4498256E-1,4.7140713E-3,-6.054377E-2,7.090306E-2,-1.1810217E-1,-3.120469E-2,9.795878E-2,3.3047255E-3,-6.76755E-3,6.3438796E-2,-4.8799854E-2,6.844479E-2,3.7641828E-3,-1.41179E-1,-5.4654587E-2,1.13493636E-1,8.038271E-2,-3.4175802E-2,2.1777535E-2,-7.769137E-2,1.152524E-1,-3.159225E-2,2.673027E-2,-5.740082E-2,-1.2243078E-1,-2.5198152E-2,-2.5618548E-2,1.4279096E-1,2.1151878E-2,-2.2988277E-2],"split_indices":[2,9,20,8,2,16,25,6,14,19,21,25,20,21,21,2,7,0,0,21,21,0,24,0,0,0,22,13,20,5,13,25,0,5,3,0,0,28,13,0,27,6,27,0,0,21,6,7,21,0,0,25,20,0,0,0,0,0,0,0,0,0,0,0,0,0,0,0,0,0,0,0,0,0,0,0,0,0,0,0,0,0,0],"split_type":[0,0,0,0,0,0,0,0,0,0,0,0,0,0,0,0,0,0,0,0,0,0,0,0,0,0,0,0,0,0,0,0,0,0,0,0,0,0,0,0,0,0,0,0,0,0,0,0,0,0,0,0,0,0,0,0,0,0,0,0,0,0,0,0,0,0,0,0,0,0,0,0,0,0,0,0,0,0,0,0,0,0,0],"sum_hessian":[4.1636365E2,1.9783414E2,2.185295E2,5.698554E1,1.408486E2,9.249738E0,2.0927975E2,4.9401745E1,7.5837936E0,1.04857796E2,3.599081E1,5.283904E0,3.9658341E0,9.641395E1,1.12865814E2,2.7313164E1,2.208858E1,1.7295856E0,5.854208E0,5.9604816E0,9.8897316E1,7.2032576E0,2.8787552E1,3.8065996E0,1.4773042E0,1.4849386E0,2.4808955E0,3.0917866E1,6.5496086E1,3.9829874E0,1.0888283E2,6.098062E0,2.1215101E1,2.480796E0,1.9607784E1,4.473879E0,1.4866028E0,6.8103226E1,3.0794088E1,1.9783072E0,5.2249503E0,1.668614E1,1.2101411E1,1.2458198E0,1.2350758E0,1.8886553E1,1.2031314E1,4.011386E1,2.5382223E1,2.7373831E0,1.2456042E0,4.9475403E0,1.0393529E2,4.880996E0,1.2170658E0,4.401542E0,1.681356E1,1.2453661E0,1.23543E0,2.664115E0,1.6943668E1,5.4182755E1,1.3920473E1,2.8558443E1,2.2356455E0,2.7280016E0,2.496949E0,1.464184E0,1.5221956E1,3.6995993E0,8.401812E0,8.203153E0,1.0683399E1,8.073942E0,3.957372E0,1.3159026E1,2.6954834E1,1.3444047E1,1.1938176E1,1.2486131E0,3.6989272E0,4.2805454E1,6.112983E1],"tree_param":{"num_deleted":"0","num_feature":"29","num_nodes":"83","size_leaf_vector":"1"}},{"base_weights":[2.8630365E-3,1.384292E-1,-1.196991E-1,4.4709158E-1,1.1948185E-2,5.933957E-1,-1.5344813E-1,3.7323695E-1,1.3102874E-1,-1.209249E-1,3.293985E-1,1.0365565E0,-7.860669E-2,-3.2506362E-1,-4.6939336E-2,4.752027E-1,-7.3949504E-1,-9.0628934E-1,-6.4192384E-2,-3.9823836E-1,4.9714515E-1,1.2523445E-1,2.7871503E-2,-5.9414876E-1,6.7550264E-2,-1.1542697E-1,-7.818345E-1,1.23737775E-1,-7.391954E-2,9.561831E-1,3.4832844E-1,2.5655353E-2,-1.2353351E-1,-1.351555E-1,5.8195807E-2,9.137011E-2,-4.2158276E-1,3.4180976E-2,-7.177233E-1,7.264784E-1,3.653585E-2,-1.0855687E-1,1.665189E-2,2.2649264E-1,-4.003328E-1,6.1620146E-2,-8.805929E-1,-9.898869E-1,-3.674514E-2,1.1807606E-1,-3.514629E-2,-9.104222E-2,4.4261325E-2,-4.972729E-3,6.0977828E-2,-8.2220174E-2,2.218512E-3,4.206494E-3,-1.324445E-1,9.552334E-2,-5.112731E-3,4.0154304E-2,-1.13695435E-1,-4.8997846E-2,3.7560184E-2,5.202682E-2,-6.399648E-2,-1.12965226E-1,-4.19666E-2,-1.1987766E-1,-2.0061037E-2,9.9139236E-2,-8.894096E-3],"categories":[],"categories_nodes":[],"categories_segments":[],"categories_sizes":[],"default_left":[0,0,0,0,0,0,0,0,0,0,0,0,0,0,0,0,0,0,0,0,0,0,0,0,0,0,0,0,0,0,0,0,0,0,0,0,0,0,0,0,0,0,0,0,0,0,0,0,0,0,0,0,0,0,0,0,0,0,0,0,0,0,0,0,0,0,0,0,0,0,0,0,0],"id":4,"left_children":[1,3,5,7,9,11,13,15,-1,17,19,21,23,25,27,29,31,33,35,37,39,-1,-1,41,-1,43,45,-1,47,49,51,-1,-1,-1,-1,53,55,-1,57,59,61,-1,-1,63,65,-1,67,69,71,-1,-1,-1,-1,-1,-1,-1,-1,-1,-1,-1,-1,-1,-1,-1,-1,-1,-1,-1,-1,-1,-1,-1,-1],"loss_changes":[6.9284625E0,7.7239103E0,5.3618784E0,3.1778708E0,6.006865E0,3.0900297E0,3.8216033E0,6.521875E0,0E0,4.417658E0,5.325551E0,6.580305E-1,2.3235168E0,7.591035E0,4.620135E0,2.7442446E0,2.7648022E0,5.2207503E0,5.307035E0,2.2373939E0,3.626628E0,0E0,0E0,1.477364E0,0E0,5.5611E0,4.0027876E0,0E0,4.354369E0,3.33772E0,5.3253016E0,0E0,0E0,0E0,0E0,4.9198785E0,5.159136E0,0E0,2.91725E0,4.1463747E0,5.8314047E0,0E0,0E0,2.9790692E0,7.170219E0,0E0,2.260353E0,5.823331E-1,6.793935E0,0E0,0E0,0E0,0E0,0E0,0E0,0E0,0E0,0E0,0E0,0E0,0E0,0E0,0E0,0E0,0E0,0E0,0E0,0E0,0E0,0E0,0E0,0E0,0E0],"parents":[2147483647,0,0,1,1,2,2,3,3,4,4,5,5,6,6,7,7,9,9,10,10,11,11,12,12,13,13,14,14,15,15,16,16,17,17,18,18,19,19,20,20,23,23,25,25,26,26,28,28,29,29,30,30,35,35,36,36,38,38,39,39,40,40,43,43,44,44,46,46,47,47,48,48],"right_children":[2,4,6,8,10,12,14,16,-1,18,20,22,24,26,28,30,32,34,36,38,40,-1,-1,42,-1,44,46,-1,48,50,52,-1,-1,-1,-1,54,56,-1,58,60,62,-1,-1,64,66,-1,68,70,72,-1,-1,-1,-1,-1,-1,-1,-1,-1,-1,-1,-1,-1,-1,-1,-1,-1,-1,-1,-1,-1,-1,-1,-1],"split_conditions":[-1.711515E-2,-7.150443E-1,-9.089716E-1,-7.235392E-1,-2.3289564E-1,1.0929092E-1,-6.452304E-1,-7.300657E-1,1.3102874E-1,-6.708308E-1,-1.119548E0,1.3883054E-1,-6.760873E-1,-7.262109E-1,-6.222294E-1,-8.857383E-1,-4.9200416E-1,5.0567997E-1,3.0123347E-1,-1.8674357E-1,1.7943788E-1,1.2523445E-1,2.7871503E-2,6.0084034E-3,6.7550264E-2,-4.2040774E-1,-1.5123999E0,1.23737775E-1,-1.4263984E0,-5.900126E-1,-8.2932985E-1,2.5655353E-2,-1.2353351E-1,-1.351555E-1,5.8195807E-2,-5.921374E-2,6.192859E-1,3.4180976E-2,-8.5783863E-1,3.899493E-1,2.2326657E-1,-1.0855687E-1,1.665189E-2,-3.2581383E-1,-5.597824E-1,6.1620146E-2,-6.558406E-1,5.4892147E-1,-1.4233932E0,1.1807606E-1,-3.514629E-2,-9.104222E-2,4.4261325E-2,-4.972729E-3,6.0977828E-2,-8.2220174E-2,2.218512E-3,4.206494E-3,-1.324445E-1,9.552334E-2,-5.112731E-3,4.0154304E-2,-1.13695435E-1,-4.8997846E-2,3.7560184E-2,5.202682E-2,-6.399648E-2,-1.12965226E-1,-4.19666E-2,-1.1987766E-1,-2.0061037E-2,9.9139236E-2,-8.894096E-3],"split_indices":[2,9,20,10,2,16,9,6,0,19,21,26,8,12,9,0,3,21,21,0,26,0,0,27,0,20,21,0,21,25,0,0,0,0,0,28,16,0,28,5,16,0,0,14,14,0,19,26,13,0,0,0,0,0,0,0,0,0,0,0,0,0,0,0,0,0,0,0,0,0,0,0,0],"split_type":[0,0,0,0,0,0,0,0,0,0,0,0,0,0,0,0,0,0,0,0,0,0,0,0,0,0,0,0,0,0,0,0,0,0,0,0,0,0,0,0,0,0,0,0,0,0,0,0,0,0,0,0,0,0,0,0,0,0,0,0,0,0,0,0,0,0,0,0,0,0,0,0,0],"sum_hessian":[4.1499622E2,1.9698326E2,2.1801294E2,5.6519375E1,1.404639E2,9.102411E0,2.0891052E2,5.338423E1,3.13514E0,9.945482E1,4.100907E1,5.158248E0,3.9441638E0,7.92173E1,1.2969324E2,4.942783E1,3.9564035E0,5.691465E0,9.376336E1,7.425467E0,3.3583603E1,3.5071156E0,1.6511322E0,2.4686234E0,1.4755403E0,5.5155968E1,2.406133E1,1.7454107E0,1.2794782E2,8.952488E0,4.047534E1,1.4753311E0,2.4810724E0,4.451483E0,1.2399819E0,6.584648E1,2.7916876E1,2.2179585E0,5.2075086E0,2.2035242E1,1.1548361E1,1.2402495E0,1.228374E0,2.5162779E1,2.9993189E1,1.2418652E0,2.2819466E1,3.9906669E0,1.2395715E2,7.723136E0,1.2293521E0,2.2172902E0,3.8258053E1,5.246966E1,1.3376819E1,1.422355E1,1.3693326E1,2.7253113E0,2.4821973E0,1.6849924E1,5.1853175E0,9.310276E0,2.2380848E0,3.9408612E0,2.1221918E1,5.952848E0,2.404034E1,1.3872636E1,8.946831E0,2.7452736E0,1.2453933E0,5.1195755E0,1.1883758E2],"tree_param":{"num_deleted":"0","num_feature":"29","num_nodes":"73","size_leaf_vector":"1"}},{"base_weights":[2.6404543E-3,1.4341494E-1,-9.510852E-2,5.1831317E-1,1.54587E-2,-5.5949602E-2,-7.405219E-1,1.339721E-1,3.8956055E-1,5.1107973E-2,-1.108311E0,-7.544725E-2,1.3468818E-1,1.14373185E-1,-1.0584669E0,-7.2803885E-1,5.364949E-1,1.3089329E-3,8.9568174E-1,-2.6849747E-2,-1.3931878E-1,1.02345E-1,-2.172098E-1,-1.8360174E-1,-1.4485755E0,2.1163475E-2,-1.1804265E-1,-5.567073E-1,6.4562416E-1,8.8736206E-1,-4.8402812E-2,1.3021761E-1,-2.0193845E-2,8.7082493E-1,4.3163348E-2,-4.2167708E-1,4.4770986E-3,-8.7754315E-1,1.0533088E-1,-2.5510808E-2,-1.6187926E-1,-1.1992834E-1,2.5453314E-2,4.1510485E-2,1.1973782E-1,1.2533793E-1,-3.625108E-2,-9.859844E-2,1.1852701E-3,6.825585E-3,1.13581024E-1,7.7588665E-3,-1.2925558E-1,-1.0542531E-1,-2.9363183E-2,8.016973E-2,-1.1386327E-2,-1.7615125E-2,-1.15758136E-1],"categories":[],"categories_nodes":[],"categories_segments":[],"categories_sizes":[],"default_left":[0,0,0,0,0,0,0,0,0,0,0,0,0,0,0,0,0,0,0,0,0,0,0,0,0,0,0,0,0,0,0,0,0,0,0,0,0,0,0,0,0,0,0,0,0,0,0,0,0,0,0,0,0,0,0,0,0,0,0],"id":5,"left_children":[1,3,5,7,9,11,13,-1,15,17,19,21,-1,-1,23,25,27,29,31,-1,-1,33,35,37,39,-1,-1,41,43,45,47,-1,-1,49,51,53,55,57,-1,-1,-1,-1,-1,-1,-1,-1,-1,-1,-1,-1,-1,-1,-1,-1,-1,-1,-1,-1,-1],"loss_changes":[5.716371E0,8.158209E0,6.155468E0,4.056058E0,5.1824026E0,6.4540453E0,9.56414E0,0E0,6.7672224E0,5.2548895E0,5.7767487E-1,5.819499E0,0E0,0E0,3.9831142E0,2.348234E0,4.5224085E0,5.285103E0,3.3669443E0,0E0,0E0,4.6340413E0,5.8171067E0,5.2028356E0,1.3067513E0,0E0,0E0,2.236201E0,3.5973053E0,3.3703728E0,6.431598E0,0E0,0E0,1.4734063E0,4.534194E0,5.096985E0,5.991885E0,5.304284E-1,0E0,0E0,0E0,0E0,0E0,0E0,0E0,0E0,0E0,0E0,0E0,0E0,0E0,0E0,0E0,0E0,0E0,0E0,0E0,0E0,0E0],"parents":[2147483647,0,0,1,1,2,2,3,3,4,4,5,5,6,6,8,8,9,9,10,10,11,11,14,14,15,15,16,16,17,17,18,18,21,21,22,22,23,23,24,24,27,27,28,28,29,29,30,30,33,33,34,34,35,35,36,36,37,37],"right_children":[2,4,6,8,10,12,14,-1,16,18,20,22,-1,-1,24,26,28,30,32,-1,-1,34,36,38,40,-1,-1,42,44,46,48,-1,-1,50,52,54,56,58,-1,-1,-1,-1,-1,-1,-1,-1,-1,-1,-1,-1,-1,-1,-1,-1,-1,-1,-1,-1,-1],"split_conditions":[-1.8411085E-1,-7.2008973E-1,2.0485802E0,-6.862601E-1,3.0193707E-1,1.8628614E0,-8.507618E-1,1.339721E-1,-1.6126822E0,2.390389E0,-8.463167E-1,5.0125167E-2,1.3468818E-1,1.14373185E-1,-5.739467E-1,-3.6715984E-1,-6.5787077E-1,-6.67939E-1,-5.7239015E-2,-2.6849747E-2,-1.3931878E-1,-7.200569E-1,-4.528735E-1,1.6019155E-1,1.7975873E0,2.1163475E-2,-1.1804265E-1,-7.351745E-1,-6.4941026E-2,-5.632464E-1,-6.3435227E-1,1.3021761E-1,-2.0193845E-2,-7.351745E-1,1.5226828E0,-2.8187385E-1,-6.486082E-1,-1.7895377E-1,1.0533088E-1,-2.5510808E-2,-1.6187926E-1,-1.1992834E-1,2.5453314E-2,4.1510485E-2,1.1973782E-1,1.2533793E-1,-3.625108E-2,-9.859844E-2,1.1852701E-3,6.825585E-3,1.13581024E-1,7.7588665E-3,-1.2925558E-1,-1.0542531E-1,-2.9363183E-2,8.016973E-2,-1.1386327E-2,-1.7615125E-2,-1.15758136E-1],"split_indices":[21,18,6,4,28,11,16,0,13,7,13,0,0,0,26,0,4,22,26,0,0,4,9,27,8,0,0,19,15,6,23,0,0,19,21,14,23,27,0,0,0,0,0,0,0,0,0,0,0,0,0,0,0,0,0,0,0,0,0],"split_type":[0,0,0,0,0,0,0,0,0,0,0,0,0,0,0,0,0,0,0,0,0,0,0,0,0,0,0,0,0,0,0,0,0,0,0,0,0,0,0,0,0,0,0,0,0,0,0,0,0,0,0,0,0,0,0,0,0,0,0],"sum_hessian":[4.1342575E2,1.6923398E2,2.4419177E2,4.228696E1,1.2694702E2,2.3124803E2,1.2943732E1,4.455657E0,3.7831303E1,1.2396888E2,2.9781356E0,2.2901128E2,2.2367587E0,1.4937836E0,1.1449948E1,3.9363234E0,3.389498E1,1.1801203E2,5.9568543E0,1.2463658E0,1.7317698E0,1.0171852E2,1.27292755E2,3.984615E0,7.4653335E0,1.452161E0,2.4841626E0,2.7042093E0,3.1190771E1,5.374142E0,1.12637886E2,4.2109876E0,1.7458669E0,6.292701E0,9.542583E1,6.574885E1,6.1543907E1,2.7386768E0,1.2459383E0,1.2437274E0,6.221606E0,1.2420558E0,1.4621534E0,2.3235474E1,7.9552975E0,4.154669E0,1.2194731E0,5.874029E0,1.06763855E2,1.8741097E0,4.4185905E0,9.3946465E1,1.4793576E0,9.850658E0,5.589819E1,7.2084494E0,5.4335457E1,1.2462664E0,1.4924105E0],"tree_param":{"num_deleted":"0","num_feature":"29","num_nodes":"59","size_leaf_vector":"1"}},{"base_weights":[2.4934232E-3,4.1100472E-1,-2.692827E-2,5.781047E-1,-4.8129767E-1,9.4820626E-2,-1.3946913E-1,-1.828223E-1,7.1335536E-1,2.6144031E-2,-1.0605838E-1,5.223904E-1,1.7348427E-2,-3.6379895E-1,-7.307547E-2,6.487485E-2,-8.105263E-2,1.3161576E-1,4.880497E-1,3.2677653E-1,1.0931678E0,-1.02781E0,4.2201467E-2,3.670449E-1,-5.025191E-1,1.7713252E-1,-2.2489156E-1,-7.657888E-2,6.619659E-1,1.05721176E-1,1.1770462E-1,1.298546E-1,1.932591E-2,-3.2984868E-2,-1.240285E-1,6.384849E-2,-1.1934047E-1,8.7022716E-1,-3.5381138E-1,-7.944051E-1,8.3814785E-2,6.9325143E-1,2.1317374E-2,-5.0044453E-1,-7.5524986E-2,9.381877E-2,1.3461664E-2,-5.1345147E-2,5.6507796E-2,7.573327E-2,2.9639215E-3,1.23504736E-1,1.29073905E-2,2.6960084E-2,-8.298085E-2,-1.0154195E-1,2.8772196E-2,8.079547E-2,-6.964541E-2,-1.9544853E-2,1.0604998E-1,-5.4727405E-2,2.967586E-2,5.8462806E-3,-7.7203296E-2,1.1673211E-2,-5.297019E-2],"categories":[],"categories_nodes":[],"categories_segments":[],"categories_sizes":[],"default_left":[0,0,0,0,0,0,0,0,0,0,0,0,0,0,0,0,0,0,0,0,0,0,0,0,0,0,0,0,0,0,0,0,0,0,0,0,0,0,0,0,0,0,0,0,0,0,0,0,0,0,0,0,0,0,0,0,0,0,0,0,0,0,0,0,0,0,0],"id":6,"left_children":[1,3,5,7,9,11,13,15,17,-1,-1,19,21,23,25,-1,-1,-1,27,29,31,33,35,37,39,41,43,-1,45,-1,47,-1,-1,-1,-1,49,-1,51,53,55,57,59,61,63,65,-1,-1,-1,-1,-1,-1,-1,-1,-1,-1,-1,-1,-1,-1,-1,-1,-1,-1,-1,-1,-1,-1],"loss_changes":[4.9799633E0,4.428708E0,5.310047E0,2.5900884E0,2.4011574E0,6.161717E0,2.9714699E0,2.8240793E0,2.141428E0,0E0,0E0,2.8295407E0,4.1668873E0,4.819508E0,5.9873667E0,0E0,0E0,0E0,4.107054E0,3.3396003E0,1.0166731E0,1.4355183E-1,4.2493057E0,3.1629848E0,6.714986E0,4.785125E0,3.9910874E0,0E0,2.063768E0,0E0,5.587471E0,0E0,0E0,0E0,0E0,3.6377072E0,0E0,1.1721334E0,1.3948715E0,6.517954E0,8.36898E0,4.714137E0,7.5040064E0,5.2412004E0,5.7075067E0,0E0,0E0,0E0,0E0,0E0,0E0,0E0,0E0,0E0,0E0,0E0,0E0,0E0,0E0,0E0,0E0,0E0,0E0,0E0,0E0,0E0,0E0],"parents":[2147483647,0,0,1,1,2,2,3,3,4,4,5,5,6,6,7,7,8,8,11,11,12,12,13,13,14,14,18,18,19,19,20,20,21,21,22,22,23,23,24,24,25,25,26,26,28,28,30,30,35,35,37,37,38,38,39,39,40,40,41,41,42,42,43,43,44,44],"right_children":[2,4,6,8,10,12,14,16,18,-1,-1,20,22,24,26,-1,-1,-1,28,30,32,34,36,38,40,42,44,-1,46,-1,48,-1,-1,-1,-1,50,-1,52,54,56,58,60,62,64,66,-1,-1,-1,-1,-1,-1,-1,-1,-1,-1,-1,-1,-1,-1,-1,-1,-1,-1,-1,-1,-1,-1],"split_conditions":[-8.4580886E-1,2.3799929E-1,-1.711515E-2,-9.8370695E-1,-5.9703654E-1,-8.0301756E-1,1.3414806E-1,-8.808217E-1,-7.2212267E-1,2.6144031E-2,-1.0605838E-1,-8.4019405E-1,-8.0693686E-1,-7.9825747E-1,-3.4368303E-1,6.487485E-2,-8.105263E-2,1.3161576E-1,-6.367426E-1,-6.570019E-1,-7.996029E-1,-7.064742E-1,2.4545002E0,-3.8419682E-1,-3.7211812E-1,-2.4106833E-1,-2.8096092E-1,-7.657888E-2,-8.9826185E-1,1.05721176E-1,-4.6623173E-1,1.298546E-1,1.932591E-2,-3.2984868E-2,-1.240285E-1,-7.648726E-1,-1.1934047E-1,1.7846145E-1,-4.583597E-1,-1.1443505E-2,3.045104E-1,-4.6179703E-1,5.493388E-2,-1.9562908E-1,8.4316474E-1,9.381877E-2,1.3461664E-2,-5.1345147E-2,5.6507796E-2,7.573327E-2,2.9639215E-3,1.23504736E-1,1.29073905E-2,2.6960084E-2,-8.298085E-2,-1.0154195E-1,2.8772196E-2,8.079547E-2,-6.964541E-2,-1.9544853E-2,1.0604998E-1,-5.4727405E-2,2.967586E-2,5.8462806E-3,-7.7203296E-2,1.1673211E-2,-5.297019E-2],"split_indices":[20,16,2,23,4,6,2,22,26,0,0,11,7,18,20,0,0,0,25,2,10,2,10,23,24,21,6,0,20,0,0,0,0,0,0,17,0,27,21,20,24,3,27,16,24,0,0,0,0,0,0,0,0,0,0,0,0,0,0,0,0,0,0,0,0,0,0],"split_type":[0,0,0,0,0,0,0,0,0,0,0,0,0,0,0,0,0,0,0,0,0,0,0,0,0,0,0,0,0,0,0,0,0,0,0,0,0,0,0,0,0,0,0,0,0,0,0,0,0,0,0,0,0,0,0,0,0,0,0,0,0,0,0,0,0,0,0],"sum_hessian":[4.124168E2,2.6836111E1,3.8558072E2,2.289982E1,3.9362907E0,1.8528896E2,2.0029175E2,3.402947E0,1.9496874E1,1.9652324E0,1.9710585E0,2.7541916E1,1.5774704E2,4.471843E1,1.5557332E2,1.4493494E0,1.9535977E0,3.987288E0,1.5509585E1,2.1683252E1,5.8586626E0,2.7266407E0,1.550204E2,6.8712845E0,3.7847145E1,5.8686077E1,9.6887245E1,1.4746904E0,1.4034895E1,3.9225025E0,1.776075E1,4.4093747E0,1.4492881E0,1.2320098E0,1.4946308E0,1.5328331E2,1.7370986E0,3.9245803E0,2.9467041E0,2.5031307E1,1.2815838E1,1.280891E1,4.5877167E1,3.323132E1,6.3655922E1,8.699236E0,5.3356595E0,7.3058815E0,1.0454868E1,6.2122145E0,1.4707109E2,2.1834354E0,1.741145E0,1.4635303E0,1.4831738E0,2.0837156E1,4.1941495E0,6.628593E0,6.1872444E0,3.882207E0,8.926703E0,1.464947E1,3.1227697E1,1.1123917E1,2.2107403E1,4.524591E1,1.8410013E1],"tree_param":{"num_deleted":"0","num_feature":"29","num_nodes":"67","size_leaf_vector":"1"}},{"base_weights":[2.5927029E-3,3.5621074E-1,-2.9471321E-2,6.8536806E-1,-7.980977E-2,2.2794767E-1,-7.6832406E-2,-5.864026E-2,8.3795416E-1,4.667745E-1,-5.568342E-1,3.1218275E-1,-5.807489E-1,-6.074198E-1,-4.62448E-2,9.827049E-1,-4.5661613E-2,-7.3691085E-2,8.0088586E-1,6.9677696E-2,-9.493963E-1,4.9717852E-1,-1.3635565E-1,5.950929E-2,-1.3066092E-1,-7.97926E-1,3.0875656E-1,-3.4785375E-2,-1.1976168E-1,3.9645195E-1,1.430305E-1,-2.662593E-2,1.2816937E-1,-1.4165632E-1,-1.3437042E-1,5.0851226E-2,7.6511073E-1,-7.865096E-1,2.4635194E-1,3.1684216E-2,-9.4080204E-1,-2.6584564E-2,7.047134E-2,7.050825E-2,-1.4117576E-1,1.1386646E-1,-2.4451569E-2,5.6292303E-2,-7.063394E-2,-1.58535E-2,1.1316308E-1,1.08542405E-1,1.16720395E-2,3.5364293E-2,-1.4532577E-1,7.187226E-2,-4.988741E-2,-1.0704513E-1,1.7299494E-2,1.5005687E-2,-3.0997742E-2,7.776234E-3,-2.453034E-2],"categories":[],"categories_nodes":[],"categories_segments":[],"categories_sizes":[],"default_left":[0,0,0,0,0,0,0,0,0,0,0,0,0,0,0,0,0,0,0,0,0,0,0,0,0,0,0,0,0,0,0,0,0,0,0,0,0,0,0,0,0,0,0,0,0,0,0,0,0,0,0,0,0,0,0,0,0,0,0,0,0,0,0],"id":7,"left_children":[1,3,5,7,9,11,13,-1,15,17,19,21,23,25,27,29,-1,-1,31,-1,33,35,37,-1,-1,39,41,43,-1,45,-1,-1,-1,-1,47,49,51,53,55,-1,57,-1,-1,59,61,-1,-1,-1,-1,-1,-1,-1,-1,-1,-1,-1,-1,-1,-1,-1,-1,-1,-1],"loss_changes":[4.6812835E0,4.980813E0,4.633509E0,4.3070602E0,4.343208E0,4.2063723E0,5.173955E0,0E0,3.8157816E0,3.7440603E0,5.001281E0,4.5621786E0,5.8333726E0,3.2813296E0,3.97123E0,3.7570028E0,0E0,0E0,3.7366948E0,0E0,2.5277867E0,4.572652E0,4.3243785E0,0E0,0E0,2.6353197E0,1.0324174E0,3.3950016E0,0E0,4.330581E0,0E0,0E0,0E0,0E0,1.8756114E0,3.6953974E0,4.863225E0,5.3713303E0,4.305166E0,0E0,2.099845E0,0E0,0E0,4.663394E0,3.4532542E0,0E0,0E0,0E0,0E0,0E0,0E0,0E0,0E0,0E0,0E0,0E0,0E0,0E0,0E0,0E0,0E0,0E0,0E0],"parents":[2147483647,0,0,1,1,2,2,3,3,4,4,5,5,6,6,8,8,9,9,10,10,11,11,12,12,13,13,14,14,15,15,18,18,20,20,21,21,22,22,25,25,26,26,27,27,29,29,34,34,35,35,36,36,37,37,38,38,40,40,43,43,44,44],"right_children":[2,4,6,8,10,12,14,-1,16,18,20,22,24,26,28,30,-1,-1,32,-1,34,36,38,-1,-1,40,42,44,-1,46,-1,-1,-1,-1,48,50,52,54,56,-1,58,-1,-1,60,62,-1,-1,-1,-1,-1,-1,-1,-1,-1,-1,-1,-1,-1,-1,-1,-1,-1,-1],"split_conditions":[-1.0850307E0,2.105929E-1,-6.6323245E-1,-6.3078684E-1,2.074099E-2,1.3642898E0,-6.3435227E-1,-5.864026E-2,1.1022785E0,-6.280664E-1,-2.5538325E-1,4.1026115E-1,2.8399405E-1,3.9963424E-1,2.4545002E0,-5.670765E-1,-4.5661613E-2,-7.3691085E-2,2.824399E-1,6.9677696E-2,6.615438E-1,-5.092021E-1,-5.5131227E-1,5.950929E-2,-1.3066092E-1,-3.50188E-1,-4.0173888E-1,1.860521E-3,-1.1976168E-1,-4.0659153E-1,1.430305E-1,-2.662593E-2,1.2816937E-1,-1.4165632E-1,-4.4648072E-1,-6.694026E-1,-5.674633E-1,-2.0738073E-2,1.3642621E-1,3.1684216E-2,-1.935096E-1,-2.6584564E-2,7.047134E-2,8.220298E-1,-3.661771E-1,1.1386646E-1,-2.4451569E-2,5.6292303E-2,-7.063394E-2,-1.58535E-2,1.1316308E-1,1.08542405E-1,1.16720395E-2,3.5364293E-2,-1.4532577E-1,7.187226E-2,-4.988741E-2,-1.0704513E-1,1.7299494E-2,1.5005687E-2,-3.0997742E-2,7.776234E-3,-2.453034E-2],"split_indices":[26,15,22,3,0,21,23,0,23,22,21,26,28,27,10,25,0,0,15,0,21,24,3,0,0,15,24,2,0,4,0,0,0,0,3,8,6,27,0,0,7,0,0,20,20,0,0,0,0,0,0,0,0,0,0,0,0,0,0,0,0,0,0],"split_type":[0,0,0,0,0,0,0,0,0,0,0,0,0,0,0,0,0,0,0,0,0,0,0,0,0,0,0,0,0,0,0,0,0,0,0,0,0,0,0,0,0,0,0,0,0,0,0,0,0,0,0,0,0,0,0,0,0,0,0,0,0,0,0],"sum_hessian":[4.1094333E2,3.332369E1,3.7761963E2,1.8662935E1,1.4660754E1,5.8087425E1,3.1953223E2,1.6947218E0,1.6968214E1,6.8422513E0,7.8185024E0,5.3163773E1,4.9236526E0,1.6388638E1,3.031436E2,1.5478418E1,1.4897964E0,1.2246577E0,5.617594E0,1.6796731E0,6.1388297E0,3.756286E1,1.5600915E1,1.9480711E0,2.9755816E0,1.3674321E1,2.7143164E0,3.0117624E2,1.9673476E0,7.5176954E0,7.9607224E0,1.8834755E0,3.7341182E0,3.4330003E0,2.7058294E0,1.453685E1,2.3026007E1,5.389674E0,1.0211241E1,1.415159E0,1.2259162E1,1.2414117E0,1.4729047E0,1.5153784E2,1.4963838E2,3.1238897E0,4.393806E0,1.2264575E0,1.4793718E0,1.2892432E1,1.6444179E0,1.4961033E1,8.064975E0,2.162078E0,3.227596E0,6.2715235E0,3.9397175E0,1.1015806E1,1.2433559E0,1.25834984E2,2.5702862E1,4.83117E1,1.0132668E2],"tree_param":{"num_deleted":"0","num_feature":"29","num_nodes":"63","size_leaf_vector":"1"}},{"base_weights":[2.3418423E-3,3.278489E-1,-2.681738E-2,8.584387E-1,8.6074986E-2,2.0792349E-1,-6.974018E-2,1.1659847E0,-4.795146E-2,-3.224834E-1,7.597771E-1,2.8585592E-1,-5.353382E-1,-5.4837745E-1,-4.216399E-2,1.3313271E-1,6.775487E-3,2.9899377E-1,-6.9989E-1,1.2977098E-1,1.0873401E-1,4.5718712E-1,-1.2884778E-1,5.573953E-2,-1.20873585E-1,-6.94521E-1,4.9771693E-2,-3.143782E-2,-1.1312765E-1,1.1667716E-1,-4.3673187E-1,-9.2421985E-1,1.6394185E-2,7.5596285E-1,-8.05346E-2,5.216267E-2,7.03039E-1,-7.310305E-1,2.2507064E-1,2.9874668E-2,-8.139741E-1,5.2728647E-1,-5.1139105E-2,-1.08378045E-1,5.5431742E-2,1.597108E-2,-1.1295058E-1,1.0281446E-2,1.0356132E-1,2.2515243E-2,-1.0749542E-1,1.0030227E-1,1.0643694E-2,3.30196E-2,-1.3563997E-1,-7.846946E-2,5.2524704E-2,-1.11762226E-1,-3.2828696E-2,1.3680156E-1,-8.346308E-3,-1.925243E-4,-2.9578462E-2],"categories":[],"categories_nodes":[],"categories_segments":[],"categories_sizes":[],"default_left":[0,0,0,0,0,0,0,0,0,0,0,0,0,0,0,0,0,0,0,0,0,0,0,0,0,0,0,0,0,0,0,0,0,0,0,0,0,0,0,0,0,0,0,0,0,0,0,0,0,0,0,0,0,0,0,0,0,0,0,0,0,0,0],"id":8,"left_children":[1,3,5,7,9,11,13,15,-1,17,19,21,23,25,27,-1,-1,29,31,-1,33,35,37,-1,-1,39,-1,41,-1,-1,43,45,-1,47,-1,49,51,53,55,-1,57,59,61,-1,-1,-1,-1,-1,-1,-1,-1,-1,-1,-1,-1,-1,-1,-1,-1,-1,-1,-1,-1],"loss_changes":[3.9071298E0,4.267601E0,3.8218617E0,4.8724747E0,6.9501944E0,3.5511575E0,4.2033176E0,1.5104084E0,0E0,3.9307203E0,3.1839342E0,3.8779054E0,5.0266256E0,2.9997063E0,3.5139997E0,0E0,0E0,4.7842503E0,2.1224794E0,0E0,3.7958367E0,3.7726479E0,3.679833E0,0E0,0E0,2.0999913E0,0E0,3.350312E0,0E0,0E0,3.3909035E0,2.0105453E0,0E0,5.6379676E-1,0E0,3.2700908E0,4.139373E0,4.6561565E0,3.7927656E0,0E0,1.732913E0,5.4397697E0,3.5216286E0,0E0,0E0,0E0,0E0,0E0,0E0,0E0,0E0,0E0,0E0,0E0,0E0,0E0,0E0,0E0,0E0,0E0,0E0,0E0,0E0],"parents":[2147483647,0,0,1,1,2,2,3,3,4,4,5,5,6,6,7,7,9,9,10,10,11,11,12,12,13,13,14,14,17,17,18,18,20,20,21,21,22,22,25,25,27,27,30,30,31,31,33,33,35,35,36,36,37,37,38,38,40,40,41,41,42,42],"right_children":[2,4,6,8,10,12,14,16,-1,18,20,22,24,26,28,-1,-1,30,32,-1,34,36,38,-1,-1,40,-1,42,-1,-1,44,46,-1,48,-1,50,52,54,56,-1,58,60,62,-1,-1,-1,-1,-1,-1,-1,-1,-1,-1,-1,-1,-1,-1,-1,-1,-1,-1,-1,-1],"split_conditions":[-1.0850307E0,-3.059378E-1,-6.6323245E-1,-2.6696926E-1,6.615438E-1,1.3642898E0,-6.3435227E-1,-6.7651205E-2,-4.795146E-2,-6.1803305E-1,1.2831981E-1,4.1026115E-1,2.8399405E-1,8.413399E-3,2.4545002E0,1.3313271E-1,6.775487E-3,-6.9232756E-1,-5.225896E-1,1.2977098E-1,2.4464704E-1,-5.092021E-1,-5.5131227E-1,5.573953E-2,-1.20873585E-1,-3.50188E-1,4.9771693E-2,-1.8527379E0,-1.1312765E-1,1.1667716E-1,-5.576726E-1,-1.0583228E0,1.6394185E-2,-6.147374E-1,-8.05346E-2,-6.2895954E-1,-5.674633E-1,-2.0738073E-2,4.959528E-1,2.9874668E-2,-4.8238647E-1,-3.4541932E-1,8.220298E-1,-1.08378045E-1,5.5431742E-2,1.597108E-2,-1.1295058E-1,1.0281446E-2,1.0356132E-1,2.2515243E-2,-1.0749542E-1,1.0030227E-1,1.0643694E-2,3.30196E-2,-1.3563997E-1,-7.846946E-2,5.2524704E-2,-1.11762226E-1,-3.2828696E-2,1.3680156E-1,-8.346308E-3,-1.925243E-4,-2.9578462E-2],"split_indices":[26,27,22,21,21,21,23,24,0,20,2,26,28,3,10,0,0,6,24,0,15,24,3,0,0,15,0,13,0,0,12,6,0,22,0,25,6,27,26,0,18,4,20,0,0,0,0,0,0,0,0,0,0,0,0,0,0,0,0,0,0,0,0],"split_type":[0,0,0,0,0,0,0,0,0,0,0,0,0,0,0,0,0,0,0,0,0,0,0,0,0,0,0,0,0,0,0,0,0,0,0,0,0,0,0,0,0,0,0,0,0,0,0,0,0,0,0,0,0,0,0,0,0,0,0,0,0,0,0],"sum_hessian":[4.097174E2,3.2843132E1,3.7687427E2,9.4825115E0,2.336062E1,5.7665085E1,3.192092E2,7.8147254E0,1.6677865E0,1.4866401E1,8.49422E0,5.2749588E1,4.9154944E0,1.6360235E1,3.0284894E2,6.60767E0,1.2070557E0,5.695448E0,9.170953E0,4.107264E0,4.3869553E0,3.7255405E1,1.54941845E1,1.9398812E0,2.975613E0,1.4649696E1,1.7105389E0,3.0091425E2,1.9347005E0,2.3443925E0,3.3510554E0,7.2248206E0,1.946132E0,2.6696482E0,1.7173072E0,1.4530144E1,2.2725262E1,5.34103E0,1.0153154E1,1.4115471E0,1.323815E1,9.371667E0,2.9154257E2,1.9707797E0,1.3802757E0,1.1857815E0,6.039039E0,1.2103711E0,1.459277E0,1.3290552E1,1.2395918E0,1.4668444E1,8.056817E0,2.1554003E0,3.1856298E0,1.956743E0,8.196411E0,7.3449955E0,5.8931546E0,3.4216664E0,5.9500003E0,2.435558E2,4.7986786E1],"tree_param":{"num_deleted":"0","num_feature":"29","num_nodes":"63","size_leaf_vector":"1"}},{"base_weights":[2.1851612E-3,1.14882365E-1,-7.58835E-2,1.4652315E-1,-1.0159076E0,-3.6379135E-1,-3.5737388E-4,6.6431874E-1,7.506513E-2,-2.3390044E-2,-1.2304105E-1,2.4611363E-1,-5.67067E-1,3.9980922E-2,-7.7390605E-1,9.572618E-1,2.3121227E-2,-3.1169163E-2,3.580737E-1,-1.3756695E-1,7.98312E-1,-7.60146E-1,-2.8439585E-2,2.0530464E-1,-1.8166694E-1,-1.0493932E0,4.3849345E-2,-4.1280936E-2,1.1214181E0,6.035846E-1,-9.173401E-2,5.4382782E-2,-5.8688545E-1,9.034574E-1,1.6431162E-1,2.746063E-1,-7.779647E-1,-2.3936804E-3,1.1472138E-1,5.5453923E-2,-8.6566025E-1,-6.6582054E-1,4.975704E-1,-8.437566E-2,3.8621444E-1,-2.4618748E-1,1.0217204E0,-4.939783E-4,-1.3839105E-1,1.2276348E-1,3.2485213E-2,-2.4255047E-2,9.981857E-2,2.6731155E-4,1.033631E-1,-1.1123911E-1,5.8779977E-3,1.1444453E-1,8.184188E-3,-4.614981E-2,4.2186707E-2,7.56253E-2,-2.4296585E-2,-1.17442526E-1,2.9936037E-3,-4.6899304E-2,-1.1988139E-1,-1.20874755E-1,6.5506004E-2,1.2594374E-1,-2.3995058E-3,9.532876E-3,-8.743747E-2,7.4271396E-2,1.755064E-2,7.125729E-3,-4.948513E-2,2.0073764E-2,1.2954493E-1],"categories":[],"categories_nodes":[],"categories_segments":[],"categories_sizes":[],"default_left":[0,0,0,0,0,0,0,0,0,0,0,0,0,0,0,0,0,0,0,0,0,0,0,0,0,0,0,0,0,0,0,0,0,0,0,0,0,0,0,0,0,0,0,0,0,0,0,0,0,0,0,0,0,0,0,0,0,0,0,0,0,0,0,0,0,0,0,0,0,0,0,0,0,0,0,0,0,0,0],"id":9,"left_children":[1,3,5,7,9,11,13,15,17,-1,-1,19,21,23,25,27,29,31,33,35,37,39,41,43,45,47,-1,-1,49,51,-1,53,55,57,59,61,63,-1,-1,-1,65,67,69,71,73,75,77,-1,-1,-1,-1,-1,-1,-1,-1,-1,-1,-1,-1,-1,-1,-1,-1,-1,-1,-1,-1,-1,-1,-1,-1,-1,-1,-1,-1,-1,-1,-1,-1],"loss_changes":[3.6112258E0,6.158518E0,5.272875E0,6.0281487E0,5.0026035E-1,6.387237E0,6.0565057E0,3.6957026E0,4.384888E0,0E0,0E0,2.9264767E0,3.9405527E0,6.797488E0,3.6731935E0,3.5129576E0,4.501563E0,5.1042776E0,4.0556946E0,2.5092828E0,1.6332297E0,4.3650494E0,4.0501432E0,5.594844E0,6.412282E0,2.8348856E0,0E0,0E0,6.4860153E-1,1.9365567E0,0E0,4.725296E0,4.9236627E0,1.927269E0,5.1231236E0,1.6870817E0,1.209564E0,0E0,0E0,0E0,2.9154835E0,4.69509E0,2.6724117E0,5.9924803E0,4.79091E0,6.04355E0,6.9098043E-1,0E0,0E0,0E0,0E0,0E0,0E0,0E0,0E0,0E0,0E0,0E0,0E0,0E0,0E0,0E0,0E0,0E0,0E0,0E0,0E0,0E0,0E0,0E0,0E0,0E0,0E0,0E0,0E0,0E0,0E0,0E0,0E0],"parents":[2147483647,0,0,1,1,2,2,3,3,4,4,5,5,6,6,7,7,8,8,11,11,12,12,13,13,14,14,15,15,16,16,17,17,18,18,19,19,20,20,21,21,22,22,23,23,24,24,25,25,28,28,29,29,31,31,32,32,33,33,34,34,35,35,36,36,40,40,41,41,42,42,43,43,44,44,45,45,46,46],"right_children":[2,4,6,8,10,12,14,16,18,-1,-1,20,22,24,26,28,30,32,34,36,38,40,42,44,46,48,-1,-1,50,52,-1,54,56,58,60,62,64,-1,-1,-1,66,68,70,72,74,76,78,-1,-1,-1,-1,-1,-1,-1,-1,-1,-1,-1,-1,-1,-1,-1,-1,-1,-1,-1,-1,-1,-1,-1,-1,-1,-1,-1,-1,-1,-1,-1,-1],"split_conditions":[-1.8411085E-1,3.0193707E-1,-2.3083532E-2,-7.8888285E-1,-8.463167E-1,-7.8392786E-1,2.0485802E0,-1.9562908E-1,-6.298622E-1,-2.3390044E-2,-1.2304105E-1,-7.290485E-1,9.298027E-2,1.259986E-1,1.6843977E0,-6.646301E-1,-2.5266674E-1,5.044614E-1,-7.6473516E-1,-6.7348105E-1,9.51017E-3,-7.344946E-1,-3.448854E-1,6.615296E-2,1.5336134E0,3.6434153E-1,4.3849345E-2,-4.1280936E-2,-5.782855E-2,-3.536288E-1,-9.173401E-2,2.3280027E0,-9.478193E-1,-1.4754246E-1,-5.022606E-1,3.7298445E-2,-1.2628664E-1,-2.3936804E-3,1.1472138E-1,5.5453923E-2,1.0523438E-1,5.136615E-1,-1.8324938E-1,-3.055361E-2,-4.4968244E-1,-4.2411196E-1,4.7560978E-1,-4.939783E-4,-1.3839105E-1,1.2276348E-1,3.2485213E-2,-2.4255047E-2,9.981857E-2,2.6731155E-4,1.033631E-1,-1.1123911E-1,5.8779977E-3,1.1444453E-1,8.184188E-3,-4.614981E-2,4.2186707E-2,7.56253E-2,-2.4296585E-2,-1.17442526E-1,2.9936037E-3,-4.6899304E-2,-1.1988139E-1,-1.20874755E-1,6.5506004E-2,1.2594374E-1,-2.3995058E-3,9.532876E-3,-8.743747E-2,7.4271396E-2,1.755064E-2,7.125729E-3,-4.948513E-2,2.0073764E-2,1.2954493E-1],"split_indices":[21,28,27,8,13,20,6,16,21,0,0,22,20,26,0,4,14,0,20,12,0,13,16,14,19,21,0,0,13,27,0,6,21,13,6,0,14,0,0,0,14,2,16,14,4,20,22,0,0,0,0,0,0,0,0,0,0,0,0,0,0,0,0,0,0,0,0,0,0,0,0,0,0,0,0,0,0,0,0],"split_type":[0,0,0,0,0,0,0,0,0,0,0,0,0,0,0,0,0,0,0,0,0,0,0,0,0,0,0,0,0,0,0,0,0,0,0,0,0,0,0,0,0,0,0,0,0,0,0,0,0,0,0,0,0,0,0,0,0,0,0,0,0,0,0,0,0,0,0,0,0,0,0,0,0,0,0,0,0,0,0],"sum_hessian":[4.0846344E2,1.6696584E2,2.414976E2,1.6326784E2,3.6979945E0,4.9393055E1,1.9210455E2,1.8793158E1,1.4447467E2,1.2459819E0,2.4520125E0,1.2294401E1,3.709865E1,1.8348468E2,8.619874E0,1.2561343E1,6.231814E0,1.0569086E2,3.878382E1,7.6971273E0,4.5972733E0,2.7006506E1,1.0092147E1,1.0513778E2,7.83469E1,7.133431E0,1.4864424E0,1.1819443E0,1.1379399E1,4.0749264E0,2.156887E0,9.237237E1,1.331849E1,9.20676E0,2.957706E1,5.0305533E0,2.666574E0,1.647066E0,2.9502075E0,1.6902881E0,2.5316217E1,4.4428396E0,5.6493073E0,4.062344E1,6.4514336E1,7.5114975E1,3.2319257E0,1.9766285E0,5.1568027E0,9.563071E0,1.8163283E0,1.4185299E0,2.6563966E0,8.869169E1,3.680677E0,6.943958E0,6.3745317E0,6.8149486E0,2.3918123E0,8.392669E0,2.1184391E1,2.3668423E0,2.663711E0,1.4844406E0,1.1821334E0,1.2655622E1,1.2660596E1,3.2088041E0,1.2340353E0,1.7208632E0,3.9284441E0,3.381152E1,6.8119183E0,2.302805E1,4.148629E1,3.3307713E1,4.1807266E1,1.2415484E0,1.9903772E0],"tree_param":{"num_deleted":"0","num_feature":"29","num_nodes":"79","size_leaf_vector":"1"}},{"base_weights":[2.3101142E-3,9.876305E-2,-8.457232E-2,4.6091545E-1,3.7777625E-2,4.5839176E-1,-1.0883592E-1,2.702575E-1,1.0280731E0,3.2688847E-1,-5.803076E-2,8.447769E-1,-8.58939E-2,-2.3779018E-1,1.490791E-3,9.5512766E-1,8.230428E-2,1.2212821E-1,1.9712692E-2,4.5090246E-1,-5.998428E-1,3.820088E-1,-1.18762486E-1,1.0785277E-1,6.5321284E-3,6.21275E-2,-5.6369287E-1,-2.5913315E-2,-4.3328536E-1,-8.4088475E-1,3.9780505E-2,2.9200686E-2,1.0721468E-1,-4.7135776E-1,4.8760176E-1,-1.06522374E-1,7.5117344E-1,-1.0970688E-1,2.0036358E-2,7.0933646E-1,-4.0426785E-1,6.611656E-1,-1.5675737E-1,-9.410761E-2,7.5459606E-3,7.0532966E-1,-2.283168E-1,2.2273753E-2,-5.6016576E-1,-2.1442397E-2,-1.184544E-1,9.089428E-1,-9.068096E-3,-9.9249594E-2,2.1638773E-2,8.578392E-2,-2.4680942E-2,9.708641E-2,-3.587997E-2,9.744715E-2,9.07805E-3,8.555051E-2,-2.6517272E-2,-1.2843452E-1,2.9445508E-2,1.0472273E-1,2.1174349E-2,-2.2433648E-2,2.152979E-2,9.467899E-2,-4.4730153E-2,3.977158E-2,-5.189941E-2,-4.6921205E-2,6.879277E-2,-6.959515E-2,6.831625E-3,-2.4995705E-2,1.281403E-1,-5.8698725E-2,5.1901285E-3],"categories":[],"categories_nodes":[],"categories_segments":[],"categories_sizes":[],"default_left":[0,0,0,0,0,0,0,0,0,0,0,0,0,0,0,0,0,0,0,0,0,0,0,0,0,0,0,0,0,0,0,0,0,0,0,0,0,0,0,0,0,0,0,0,0,0,0,0,0,0,0,0,0,0,0,0,0,0,0,0,0,0,0,0,0,0,0,0,0,0,0,0,0,0,0,0,0,0,0,0,0],"id":10,"left_children":[1,3,5,7,9,11,13,15,17,19,21,23,25,27,29,31,33,-1,-1,35,37,39,41,-1,-1,-1,43,45,47,49,51,-1,-1,53,55,57,59,-1,-1,61,63,65,67,-1,-1,69,71,73,75,-1,-1,77,79,-1,-1,-1,-1,-1,-1,-1,-1,-1,-1,-1,-1,-1,-1,-1,-1,-1,-1,-1,-1,-1,-1,-1,-1,-1,-1,-1,-1],"loss_changes":[3.4283898E0,4.2643366E0,2.885635E0,2.7338896E0,4.645154E0,2.0492723E0,2.9432235E0,2.7792394E0,8.269911E-1,5.0654373E0,3.4204736E0,9.47912E-1,1.9754344E0,3.9394817E0,3.6610932E0,5.0591946E-2,4.3845387E0,0E0,0E0,6.3346677E0,2.3498058E0,4.2897787E0,3.414855E0,0E0,0E0,0E0,8.8986385E-1,7.093001E0,2.876192E0,8.08491E-1,4.616344E0,0E0,0E0,3.2016354E0,3.2519746E0,4.1421556E0,3.5111732E0,0E0,0E0,1.842844E0,3.5811741E0,7.121074E-1,2.747604E0,0E0,0E0,3.3174038E0,7.019078E0,4.1684003E0,3.3577862E0,0E0,0E0,2.8174257E0,3.6861231E0,0E0,0E0,0E0,0E0,0E0,0E0,0E0,0E0,0E0,0E0,0E0,0E0,0E0,0E0,0E0,0E0,0E0,0E0,0E0,0E0,0E0,0E0,0E0,0E0,0E0,0E0,0E0,0E0],"parents":[2147483647,0,0,1,1,2,2,3,3,4,4,5,5,6,6,7,7,8,8,9,9,10,10,11,11,12,12,13,13,14,14,15,15,16,16,19,19,20,20,21,21,22,22,26,26,27,27,28,28,29,29,30,30,33,33,34,34,35,35,36,36,39,39,40,40,41,41,42,42,45,45,46,46,47,47,48,48,51,51,52,52],"right_children":[2,4,6,8,10,12,14,16,18,20,22,24,26,28,30,32,34,-1,-1,36,38,40,42,-1,-1,-1,44,46,48,50,52,-1,-1,54,56,58,60,-1,-1,62,64,66,68,-1,-1,70,72,74,76,-1,-1,78,80,-1,-1,-1,-1,-1,-1,-1,-1,-1,-1,-1,-1,-1,-1,-1,-1,-1,-1,-1,-1,-1,-1,-1,-1,-1,-1,-1,-1],"split_conditions":[-1.711515E-2,-8.0301756E-1,-9.089716E-1,-8.4019405E-1,-4.184859E-1,1.0929092E-1,-5.074097E-1,-6.570019E-1,-7.996029E-1,4.8429754E-1,-1.2305479E0,-6.2740433E-1,-9.543695E-1,-7.668332E-1,-1.4263984E0,-7.089313E-1,-4.6623173E-1,1.2212821E-1,1.9712692E-2,-6.327827E-1,9.7187614E-1,1.3503861E0,-6.987649E-1,1.0785277E-1,6.5321284E-3,6.21275E-2,-7.8802377E-1,-5.7861865E-1,-8.5993814E-1,-1.5704781E0,-1.4233932E0,2.9200686E-2,1.0721468E-1,7.609736E-2,-8.948604E-1,-5.856038E-1,1.8668632E-1,-1.0970688E-1,2.0036358E-2,-6.4002186E-1,1.8549575E0,-7.55297E-2,9.6856E-1,-9.410761E-2,7.5459606E-3,1.3922575E0,-2.1894705E-1,-6.566428E-1,6.725467E-1,-2.1442397E-2,-1.184544E-1,1.17426485E-1,5.5941183E-2,-9.9249594E-2,2.1638773E-2,8.578392E-2,-2.4680942E-2,9.708641E-2,-3.587997E-2,9.744715E-2,9.07805E-3,8.555051E-2,-2.6517272E-2,-1.2843452E-1,2.9445508E-2,1.0472273E-1,2.1174349E-2,-2.2433648E-2,2.152979E-2,9.467899E-2,-4.4730153E-2,3.977158E-2,-5.189941E-2,-4.6921205E-2,6.879277E-2,-6.959515E-2,6.831625E-3,-2.4995705E-2,1.281403E-1,-5.8698725E-2,5.1901285E-3],"split_indices":[2,6,20,11,3,16,6,2,10,15,16,25,20,7,21,26,0,0,0,25,13,24,4,0,0,0,22,22,23,21,13,0,0,16,10,3,16,0,0,27,24,0,16,0,0,21,21,5,26,0,0,25,2,0,0,0,0,0,0,0,0,0,0,0,0,0,0,0,0,0,0,0,0,0,0,0,0,0,0,0,0],"split_type":[0,0,0,0,0,0,0,0,0,0,0,0,0,0,0,0,0,0,0,0,0,0,0,0,0,0,0,0,0,0,0,0,0,0,0,0,0,0,0,0,0,0,0,0,0,0,0,0,0,0,0,0,0,0,0,0,0,0,0,0,0,0,0,0,0,0,0,0,0,0,0,0,0,0,0,0,0,0,0,0,0],"sum_hessian":[4.0711578E2,1.9286693E2,2.1424886E2,2.6852106E1,1.6601482E2,8.399309E0,2.0584955E2,2.1201454E1,5.6506524E0,4.0721615E1,1.2529321E2,4.5893054E0,3.8100042E0,9.437959E1,1.1146996E2,3.6865504E0,1.7514902E1,4.203515E0,1.4471374E0,3.63683E1,4.3533106E0,1.455354E1,1.1073967E2,3.2353604E0,1.3539449E0,1.4151776E0,2.3948267E0,4.5835648E1,4.854394E1,3.9351592E0,1.07534805E2,1.0772719E0,2.6092784E0,7.333663E0,1.018124E1,1.2958085E1,2.3410217E1,2.456147E0,1.8971637E0,1.0344831E1,4.208709E0,4.382283E0,1.0635738E2,1.2087482E0,1.1860785E0,9.397957E0,3.643769E1,1.0754562E1,3.778938E1,1.9692787E0,1.9658805E0,4.7851615E0,1.0274964E2,3.9200985E0,3.4135642E0,6.6571293E0,3.5241108E0,1.9181122E0,1.1039972E1,1.7139324E1,6.2708945E0,9.101758E0,1.2430736E0,1.491702E0,2.717007E0,1.6417909E0,2.7404923E0,9.034449E1,1.6012896E1,7.9178586E0,1.4800981E0,1.1437175E1,2.5000517E1,6.3564134E0,4.398149E0,3.0987146E1,6.802232E0,1.2438519E0,3.5413096E0,8.982105E0,9.376753E1],"tree_param":{"num_deleted":"0","num_feature":"29","num_nodes":"81","size_leaf_vector":"1"}},{"base_weights":[3.286399E-3,1.0559613E-2,-1.0334837E-1,1.0563514E-1,-7.442406E-2,2.732988E-1,-3.6738326E-3,-4.4391003E-2,-4.9010205E-1,8.835583E-1,1.9156784E-1,-5.569696E-1,8.2629696E-2,-2.118787E-1,4.622659E-2,-9.4313E-1,-5.7320148E-2,-2.8430114E-3,1.196169E0,1.9995296E-2,6.3253915E-1,-7.511056E-1,9.7742036E-2,6.7207366E-1,-6.939488E-3,-7.79882E-2,-1.0487462E0,-1.0886007E-1,6.9323234E-2,-1.1927388E0,-1.8574093E-3,6.7865014E-1,-7.0624477E-1,3.713433E-2,1.3036184E-1,2.6123961E-2,-2.868855E-2,8.106866E-2,-3.0120397E-2,-9.828599E-3,-1.0382849E-1,7.5042485E-3,9.088665E-2,-7.246938E-2,4.296024E-3,2.2138905E-2,-3.1305414E-2,-1.2532033E-1,-1.4619361E-2,-6.7298405E-2,1.0381994E-2,-1.3057748E-2,-1.4660509E-1,1.0458501E-1,-1.6176147E-2,-1.073363E-1,9.32728E-3],"categories":[],"categories_nodes":[],"categories_segments":[],"categories_sizes":[],"default_left":[0,0,0,0,0,0,0,0,0,0,0,0,0,0,0,0,0,0,0,0,0,0,0,0,0,0,0,0,0,0,0,0,0,0,0,0,0,0,0,0,0,0,0,0,0,0,0,0,0,0,0,0,0,0,0,0,0],"id":11,"left_children":[1,3,-1,5,7,9,11,13,15,17,19,21,23,25,27,29,31,-1,33,35,37,39,-1,41,43,45,47,-1,49,51,-1,53,55,-1,-1,-1,-1,-1,-1,-1,-1,-1,-1,-1,-1,-1,-1,-1,-1,-1,-1,-1,-1,-1,-1,-1,-1],"loss_changes":[3.0750124E0,3.2761948E0,0E0,3.5075228E0,2.652009E0,3.5975838E0,5.623705E0,3.0580409E0,2.755895E0,2.4981403E0,5.1230125E0,5.467571E0,5.385442E0,7.8391814E0,3.512993E0,1.5788589E0,4.488402E0,0E0,8.843708E-2,3.7691422E0,3.401435E0,2.6484394E0,0E0,1.833838E0,3.2352912E0,4.434038E0,1.6011887E0,0E0,3.3853269E0,1.3898005E0,0E0,1.5404029E0,1.553345E0,0E0,0E0,0E0,0E0,0E0,0E0,0E0,0E0,0E0,0E0,0E0,0E0,0E0,0E0,0E0,0E0,0E0,0E0,0E0,0E0,0E0,0E0,0E0,0E0],"parents":[2147483647,0,0,1,1,3,3,4,4,5,5,6,6,7,7,8,8,9,9,10,10,11,11,12,12,13,13,14,14,15,15,16,16,18,18,19,19,20,20,21,21,23,23,24,24,25,25,26,26,28,28,29,29,31,31,32,32],"right_children":[2,4,-1,6,8,10,12,14,16,18,20,22,24,26,28,30,32,-1,34,36,38,40,-1,42,44,46,48,-1,50,52,-1,54,56,-1,-1,-1,-1,-1,-1,-1,-1,-1,-1,-1,-1,-1,-1,-1,-1,-1,-1,-1,-1,-1,-1,-1,-1],"split_conditions":[2.4545002E0,-1.711515E-2,-1.0334837E-1,-6.160014E-1,1.6573479E0,-5.597824E-1,-5.7516855E-1,-6.59603E-1,4.5863864E-1,-8.0150527E-1,4.537379E-1,-3.795686E-1,-4.2825124E-1,-7.2507644E-1,-5.485482E-1,-1.9399349E-2,4.3748367E-1,-2.8430114E-3,-2.9129943E-1,-4.272988E-1,-6.2904775E-2,-5.831021E-1,9.7742036E-2,-4.1401097E-1,-4.0761754E-1,7.609736E-2,5.929855E-1,-1.0886007E-1,-1.4263984E0,3.1025875E-1,-1.8574093E-3,1.9514723E-1,1.2839527E0,3.713433E-2,1.3036184E-1,2.6123961E-2,-2.868855E-2,8.106866E-2,-3.0120397E-2,-9.828599E-3,-1.0382849E-1,7.5042485E-3,9.088665E-2,-7.246938E-2,4.296024E-3,2.2138905E-2,-3.1305414E-2,-1.2532033E-1,-1.4619361E-2,-6.7298405E-2,1.0381994E-2,-1.3057748E-2,-1.4660509E-1,1.0458501E-1,-1.6176147E-2,-1.073363E-1,9.32728E-3],"split_indices":[10,2,0,17,13,14,25,19,0,14,21,24,24,17,24,23,4,0,20,20,0,11,0,0,24,16,0,0,21,16,0,26,26,0,0,0,0,0,0,0,0,0,0,0,0,0,0,0,0,0,0,0,0,0,0,0,0],"split_type":[0,0,0,0,0,0,0,0,0,0,0,0,0,0,0,0,0,0,0,0,0,0,0,0,0,0,0,0,0,0,0,0,0,0,0,0,0,0,0,0,0,0,0,0,0,0,0,0,0,0,0,0,0,0,0,0,0],"sum_hessian":[4.0534415E2,4.035033E2,1.8408666E0,1.903293E2,2.13174E2,7.452256E1,1.1580674E2,1.9984204E2,1.3331951E1,7.6431284E0,6.687943E1,1.489036E1,1.00916374E2,6.969227E1,1.3014977E2,5.9374804E0,7.39447E0,2.1831667E0,5.4599614E0,4.889916E1,1.7980278E1,1.367113E1,1.2192299E0,1.2454093E1,8.846228E1,6.102247E1,8.669799E0,1.6758609E0,1.284739E2,4.446863E0,1.4906172E0,3.4433863E0,3.951084E0,1.1428622E0,4.317099E0,2.7460615E1,2.1438541E1,1.5210146E1,2.7701313E0,4.5867395E0,9.084391E0,3.910748E0,8.543345E0,4.871269E0,8.359101E1,2.6865309E1,3.415716E1,6.7517924E0,1.9180068E0,4.883393E0,1.23590515E2,1.2125072E0,3.2343562E0,2.226232E0,1.2171543E0,2.4730217E0,1.4780622E0],"tree_param":{"num_deleted":"0","num_feature":"29","num_nodes":"57","size_leaf_vector":"1"}},{"base_weights":[2.1161104E-3,2.8290343E-1,-2.2362446E-2,5.869293E-1,-1.21882774E-1,-1.5074093E-2,-9.85976E-2,-4.8463777E-2,7.181773E-1,3.3513653E-1,-5.040611E-1,-2.4422567E-2,7.683718E-1,8.591473E-1,-4.5878015E-2,-4.52123E-2,7.329832E-1,5.9699554E-2,-8.464228E-1,4.298206E-1,-3.9667923E-2,1.0838274E-1,1.7276175E-2,3.2798332E-1,1.2726191E0,-2.8769622E-2,1.0918865E-1,1.8591095E-2,-1.1054114E0,8.565748E-1,-4.9922177E-1,-1.2823452E-3,-2.872765E-1,9.620915E-2,-1.9862318E-2,1.3636075E-1,3.4910273E-2,-1.2539843E-1,-2.8311832E-2,-3.433272E-2,1.1026644E-1,2.1594021E-2,-8.384767E-2,3.324924E-2,-3.744655E-3,-8.751079E-2,-1.2560057E-2],"categories":[],"categories_nodes":[],"categories_segments":[],"categories_sizes":[],"default_left":[0,0,0,0,0,0,0,0,0,0,0,0,0,0,0,0,0,0,0,0,0,0,0,0,0,0,0,0,0,0,0,0,0,0,0,0,0,0,0,0,0,0,0,0,0,0,0],"id":12,"left_children":[1,3,5,7,9,11,-1,-1,13,15,17,19,21,23,-1,-1,25,-1,27,29,31,-1,-1,33,35,-1,-1,-1,37,39,41,43,45,-1,-1,-1,-1,-1,-1,-1,-1,-1,-1,-1,-1,-1,-1],"loss_changes":[2.789639E0,4.076707E0,2.6076005E0,2.9861555E0,2.751733E0,2.7404819E0,0E0,0E0,3.2336092E0,2.6287675E0,3.69153E0,2.5668855E0,6.4187336E-1,3.015582E0,0E0,0E0,2.2388303E0,0E0,2.0399384E0,5.2014885E0,3.394306E0,0E0,0E0,2.925654E0,2.3335648E-1,0E0,0E0,0E0,3.326807E-1,2.9236364E0,1.2538873E0,3.757122E0,4.44555E0,0E0,0E0,0E0,0E0,0E0,0E0,0E0,0E0,0E0,0E0,0E0,0E0,0E0,0E0],"parents":[2147483647,0,0,1,1,2,2,3,3,4,4,5,5,8,8,9,9,10,10,11,11,12,12,13,13,16,16,18,18,19,19,20,20,23,23,24,24,28,28,29,29,30,30,31,31,32,32],"right_children":[2,4,6,8,10,12,-1,-1,14,16,18,20,22,24,-1,-1,26,-1,28,30,32,-1,-1,34,36,-1,-1,-1,38,40,42,44,46,-1,-1,-1,-1,-1,-1,-1,-1,-1,-1,-1,-1,-1,-1],"split_conditions":[-1.0850307E0,2.105929E-1,2.4545002E0,-6.3078684E-1,2.074099E-2,2.4350953E0,-9.85976E-2,-4.8463777E-2,1.1022785E0,2.824399E-1,-2.5538325E-1,-1.8527379E0,4.7241226E-1,-5.670765E-1,-4.5878015E-2,-4.52123E-2,-6.147374E-1,5.9699554E-2,-1.102779E0,-1.9148123E-1,8.220298E-1,1.0838274E-1,1.7276175E-2,-4.0659153E-1,6.751789E-1,-2.8769622E-2,1.0918865E-1,1.8591095E-2,5.6963176E-1,-2.303678E0,-1.2919861E0,-8.857383E-1,2.0095296E-1,9.620915E-2,-1.9862318E-2,1.3636075E-1,3.4910273E-2,-1.2539843E-1,-2.8311832E-2,-3.433272E-2,1.1026644E-1,2.1594021E-2,-8.384767E-2,3.324924E-2,-3.744655E-3,-8.751079E-2,-1.2560057E-2],"split_indices":[26,15,10,3,0,7,0,0,23,15,21,13,0,25,0,0,22,0,6,15,20,0,0,4,13,0,0,0,14,13,16,0,9,0,0,0,0,0,0,0,0,0,0,0,0,0,0],"split_type":[0,0,0,0,0,0,0,0,0,0,0,0,0,0,0,0,0,0,0,0,0,0,0,0,0,0,0,0,0,0,0,0,0,0,0,0,0,0,0,0,0,0,0,0,0,0,0],"sum_hessian":[4.0394745E2,3.1545042E1,3.724024E2,1.7757677E1,1.3787366E1,3.7061487E2,1.7875261E0,1.6438687E0,1.6113808E1,6.334949E0,7.452417E0,3.6720206E2,3.4128149E0,1.4631364E1,1.4824437E0,2.0808785E0,4.2540708E0,1.5912143E0,5.8612022E0,1.1040847E1,3.5616122E2,1.6952559E0,1.7175589E0,7.189132E0,7.4422317E0,1.1583267E0,3.095744E0,1.2321191E0,4.629083E0,7.61905E0,3.4217968E0,3.092282E2,4.6932995E1,2.886462E0,4.30267E0,6.340957E0,1.1012746E0,3.4760437E0,1.1530397E0,1.2294203E0,6.38963E0,1.2179018E0,2.2038949E0,2.9428274E1,2.7979996E2,9.172031E0,3.7760963E1],"tree_param":{"num_deleted":"0","num_feature":"29","num_nodes":"47","size_leaf_vector":"1"}},{"base_weights":[2.1853696E-3,8.5961735E-3,-9.430408E-2,9.36074E-2,-6.720474E-2,4.0678194E-1,4.118689E-2,4.3616733E-1,-8.943957E-2,2.2947216E-1,9.511651E-1,-9.269566E-1,6.3317426E-2,-3.7364304E-2,6.475934E-1,-3.809947E-1,-5.18947E-2,8.840587E-1,5.6699544E-2,1.139207E-1,1.811989E-2,-2.723577E-2,-1.1426429E-1,2.9589388E-1,-1.4685227E-2,-3.3549488E-2,8.6674815E-1,7.2919406E-2,-5.0039667E-1,-2.1305993E-1,4.0768865E-2,2.4619874E-2,1.0036202E-1,-4.527637E-2,4.381231E-2,4.0651843E-2,-5.1483214E-2,7.306397E-2,-4.8515075E-3,1.0117131E-1,1.105379E-2,-6.1326653E-2,4.4753928E-2,-1.1031338E-2,-8.877356E-2,-7.4761316E-2,7.428795E-3],"categories":[],"categories_nodes":[],"categories_segments":[],"categories_sizes":[],"default_left":[0,0,0,0,0,0,0,0,0,0,0,0,0,0,0,0,0,0,0,0,0,0,0,0,0,0,0,0,0,0,0,0,0,0,0,0,0,0,0,0,0,0,0,0,0,0,0],"id":13,"left_children":[1,3,-1,5,7,9,11,13,15,17,19,21,23,-1,25,27,29,31,33,-1,-1,-1,-1,35,37,-1,39,-1,41,43,45,-1,-1,-1,-1,-1,-1,-1,-1,-1,-1,-1,-1,-1,-1,-1,-1],"loss_changes":[2.4560819E0,2.5983517E0,0E0,3.1028104E0,2.4255142E0,2.4007921E0,3.5701098E0,1.8154818E0,2.224626E0,2.4136677E0,7.1273327E-1,2.1493268E-1,2.9280946E0,0E0,1.9397228E0,3.4446814E0,2.7386744E0,9.462786E-2,3.7553165E0,0E0,0E0,0E0,0E0,3.8437057E0,3.102485E0,0E0,6.048231E-1,0E0,2.5823464E0,4.539261E0,3.1449032E0,0E0,0E0,0E0,0E0,0E0,0E0,0E0,0E0,0E0,0E0,0E0,0E0,0E0,0E0,0E0,0E0],"parents":[2147483647,0,0,1,1,3,3,4,4,5,5,6,6,7,7,8,8,9,9,10,10,11,11,12,12,14,14,15,15,16,16,17,17,18,18,23,23,24,24,26,26,28,28,29,29,30,30],"right_children":[2,4,-1,6,8,10,12,14,16,18,20,22,24,-1,26,28,30,32,34,-1,-1,-1,-1,36,38,-1,40,-1,42,44,46,-1,-1,-1,-1,-1,-1,-1,-1,-1,-1,-1,-1,-1,-1,-1,-1],"split_conditions":[2.4545002E0,-1.711515E-2,-9.430408E-2,-8.0301756E-1,-9.089716E-1,-8.4019405E-1,-8.0693686E-1,-8.411015E-1,5.5941183E-2,-6.570019E-1,-7.996029E-1,-8.120945E-1,-4.184859E-1,-3.7364304E-2,-8.2549596E-1,-6.1956036E-1,-6.452304E-1,-1.5043887E-1,-4.6623173E-1,1.139207E-1,1.811989E-2,-2.723577E-2,-1.1426429E-1,4.8429754E-1,-7.648726E-1,-3.3549488E-2,6.027386E-1,7.2919406E-2,4.783875E-1,-7.0584255E-1,-1.4263984E0,2.4619874E-2,1.0036202E-1,-4.527637E-2,4.381231E-2,4.0651843E-2,-5.1483214E-2,7.306397E-2,-4.8515075E-3,1.0117131E-1,1.105379E-2,-6.1326653E-2,4.4753928E-2,-1.1031338E-2,-8.877356E-2,-7.4761316E-2,7.428795E-3],"split_indices":[10,2,0,6,20,11,7,22,2,2,10,17,3,0,18,14,9,14,0,0,0,0,0,15,17,0,26,0,5,5,21,0,0,0,0,0,0,0,0,0,0,0,0,0,0,0,0],"split_type":[0,0,0,0,0,0,0,0,0,0,0,0,0,0,0,0,0,0,0,0,0,0,0,0,0,0,0,0,0,0,0,0,0,0,0,0,0,0,0,0,0,0,0,0,0,0,0],"sum_hessian":[4.02979E2,4.0124854E2,1.7304807E0,1.8902303E2,2.122255E2,2.6133621E1,1.628894E2,8.190276E0,2.0403522E2,2.0785236E1,5.3483853E0,2.7265213E0,1.6016289E2,1.5367849E0,6.6534915E0,2.2233444E1,1.8180177E2,3.480754E0,1.7304482E1,3.9131558E0,1.4352293E0,1.236511E0,1.4900103E0,3.952371E1,1.2063917E2,1.1160843E0,5.5374074E0,1.6630937E0,2.057035E1,6.589483E1,1.1590695E2,1.0323502E0,2.4484036E0,7.3286486E0,9.975833E0,3.5216896E1,4.3068132E0,4.3436747E0,1.16295494E2,4.363127E0,1.17428E0,1.8697147E1,1.873202E0,5.8195694E1,7.699133E0,3.8581295E0,1.1204882E2],"tree_param":{"num_deleted":"0","num_feature":"29","num_nodes":"47","size_leaf_vector":"1"}},{"base_weights":[2.0580685E-3,2.6275882E-1,-2.0223076E-2,5.496354E-1,-1.2044243E-1,2.5834823E-1,-4.1988615E-2,-4.343268E-2,6.7128205E-1,3.226414E-1,-4.494532E-1,4.2181998E-1,-5.73736E-1,4.1111942E-2,-1.2467981E-1,8.0657506E-1,-4.2870384E-2,8.163688E-1,-5.2631926E-2,-7.584633E-1,3.1567046E-1,-2.846721E-2,8.610715E-1,-1.18631735E-1,1.403341E-2,3.743173E-1,-1.8184839E-2,-4.2226964E-1,-5.3326298E-2,3.083952E-1,1.2022029E0,-7.559417E-4,1.0652486E-1,-7.188251E-3,-1.0498543E-1,5.15786E-2,-4.8445407E-3,-9.407618E-2,1.9765308E-1,1.1136184E0,8.344397E-2,1.6636415E-1,1.0500929E0,-8.752831E-1,3.852449E-3,-6.3009024E-1,2.206466E-1,3.988457E-1,-1.2069436E-1,9.106886E-2,-1.8218262E-2,1.29093E-1,3.262321E-2,6.890904E-2,-5.7998866E-2,9.6375495E-3,1.3757591E-1,-4.152645E-2,6.0664114E-2,-7.462101E-2,3.3127036E-2,2.8507227E-2,1.1522168E-1,-1.089915E-1,-2.4531705E-2,5.9105456E-2,-2.4960104E-3,-2.0856058E-2,-1.0542303E-1,5.943138E-2,-4.8108675E-2,-4.2155843E-2,6.847901E-2,-7.483106E-2,-5.175232E-3],"categories":[],"categories_nodes":[],"categories_segments":[],"categories_sizes":[],"default_left":[0,0,0,0,0,0,0,0,0,0,0,0,0,0,0,0,0,0,0,0,0,0,0,0,0,0,0,0,0,0,0,0,0,0,0,0,0,0,0,0,0,0,0,0,0,0,0,0,0,0,0,0,0,0,0,0,0,0,0,0,0,0,0,0,0,0,0,0,0,0,0,0,0,0,0],"id":14,"left_children":[1,3,5,7,9,11,13,-1,15,17,19,21,23,25,27,29,-1,31,-1,33,35,37,39,-1,-1,41,43,45,47,49,51,-1,-1,-1,-1,-1,-1,-1,53,55,57,59,61,63,65,67,69,71,73,-1,-1,-1,-1,-1,-1,-1,-1,-1,-1,-1,-1,-1,-1,-1,-1,-1,-1,-1,-1,-1,-1,-1,-1,-1,-1],"loss_changes":[2.34414E0,3.5591862E0,2.2655718E0,2.4880495E0,2.2476714E0,3.9267426E0,2.3812013E0,0E0,2.8347168E0,3.2499158E0,2.2952316E0,4.616663E0,2.2975252E0,3.4291708E0,3.6629484E0,2.632907E0,0E0,9.6080875E-1,0E0,1.222465E0,2.5870776E-1,2.7506588E0,2.2214441E0,0E0,0E0,3.5092065E0,2.7988062E0,4.6046658E0,4.347573E0,2.5564654E0,2.1222496E-1,0E0,0E0,0E0,0E0,0E0,0E0,0E0,4.523034E0,2.2179422E0,1.2877845E0,3.4426956E0,1.3876152E-1,2.3483753E-1,2.4728045E0,4.342325E0,2.620997E0,4.6365433E0,5.3096523E0,0E0,0E0,0E0,0E0,0E0,0E0,0E0,0E0,0E0,0E0,0E0,0E0,0E0,0E0,0E0,0E0,0E0,0E0,0E0,0E0,0E0,0E0,0E0,0E0,0E0,0E0],"parents":[2147483647,0,0,1,1,2,2,3,3,4,4,5,5,6,6,8,8,9,9,10,10,11,11,12,12,13,13,14,14,15,15,17,17,19,19,20,20,21,21,22,22,25,25,26,26,27,27,28,28,29,29,30,30,38,38,39,39,40,40,41,41,42,42,43,43,44,44,45,45,46,46,47,47,48,48],"right_children":[2,4,6,8,10,12,14,-1,16,18,20,22,24,26,28,30,-1,32,-1,34,36,38,40,-1,-1,42,44,46,48,50,52,-1,-1,-1,-1,-1,-1,-1,54,56,58,60,62,64,66,68,70,72,74,-1,-1,-1,-1,-1,-1,-1,-1,-1,-1,-1,-1,-1,-1,-1,-1,-1,-1,-1,-1,-1,-1,-1,-1,-1,-1],"split_conditions":[-1.0850307E0,2.105929E-1,-8.5993814E-1,-6.3078684E-1,-5.7709944E-1,1.2845312E0,1.860521E-3,-4.343268E-2,1.1022785E0,3.1067947E-1,5.8917776E-2,-5.8740443E-1,3.5898215E-1,-8.0301756E-1,1.3414806E-1,-5.670765E-1,-4.2870384E-2,-6.396028E-1,-5.2631926E-2,-4.826442E-1,1.3104646E0,-3.4692112E-1,-4.8138836E-1,-1.18631735E-1,1.403341E-2,-8.506389E-1,-8.0693686E-1,6.027386E-1,2.1587898E-1,-4.0659153E-1,6.751789E-1,-7.559417E-4,1.0652486E-1,-7.188251E-3,-1.0498543E-1,5.15786E-2,-4.8445407E-3,-9.407618E-2,-6.306719E-1,-5.184871E-1,1.4770211E-1,-7.0183563E-1,-6.416954E-1,-1.1733738E-1,-7.648726E-1,9.5479704E-2,1.9952944E-1,-6.2895954E-1,3.1067947E-1,9.106886E-2,-1.8218262E-2,1.29093E-1,3.262321E-2,6.890904E-2,-5.7998866E-2,9.6375495E-3,1.3757591E-1,-4.152645E-2,6.0664114E-2,-7.462101E-2,3.3127036E-2,2.8507227E-2,1.1522168E-1,-1.089915E-1,-2.4531705E-2,5.9105456E-2,-2.4960104E-3,-2.0856058E-2,-1.0542303E-1,5.943138E-2,-4.8108675E-2,-4.2155843E-2,6.847901E-2,-7.483106E-2,-5.175232E-3],"split_indices":[26,15,23,3,25,21,2,0,23,0,20,4,0,6,2,25,0,25,0,3,13,15,24,0,0,6,7,26,2,4,13,0,0,0,0,0,0,0,25,24,2,26,25,14,17,0,27,25,0,0,0,0,0,0,0,0,0,0,0,0,0,0,0,0,0,0,0,0,0,0,0,0,0,0,0],"split_type":[0,0,0,0,0,0,0,0,0,0,0,0,0,0,0,0,0,0,0,0,0,0,0,0,0,0,0,0,0,0,0,0,0,0,0,0,0,0,0,0,0,0,0,0,0,0,0,0,0,0,0,0,0,0,0,0,0,0,0,0,0,0,0,0,0,0,0,0,0,0,0,0,0,0,0],"sum_hessian":[4.0164117E2,3.0774221E1,3.7086694E2,1.7350649E1,1.3423573E1,2.608916E1,3.4477777E2,1.6262245E0,1.5724424E1,5.7284036E0,7.695169E0,2.2217379E1,3.871783E0,1.7221404E2,1.7256375E2,1.4239744E1,1.4846798E0,3.6462536E0,2.0821502E0,5.4876E0,2.2075694E0,1.143267E1,1.0784709E1,1.7280179E0,2.143765E0,2.5214428E1,1.469996E2,3.242263E1,1.4014111E2,7.0906334E0,7.1491113E0,1.0708337E0,2.57542E0,2.0065103E0,3.4810894E0,1.1558038E0,1.0517654E0,1.6430893E0,9.78958E0,7.814693E0,2.9700162E0,2.0234077E1,4.9803514E0,2.7142875E0,1.4428531E2,2.4517408E1,7.905222E0,1.753389E1,1.2260722E2,2.798497E0,4.292136E0,6.0614347E0,1.0876765E0,6.068446E0,3.7211342E0,1.8814256E0,5.933267E0,1.6262133E0,1.3438028E0,2.557282E0,1.7676796E1,1.0330564E0,3.9472952E0,1.4799467E0,1.2343409E0,5.8358774E0,1.3844943E2,1.3044709E1,1.1472698E1,5.258299E0,2.6469233E0,4.409192E0,1.3124697E1,1.1159761E1,1.11447464E2],"tree_param":{"num_deleted":"0","num_feature":"29","num_nodes":"75","size_leaf_vector":"1"}},{"base_weights":[1.9263128E-3,3.386147E-2,-1.715044E-1,1.3165675E-2,9.5849514E-1,6.598463E-1,-2.599793E-1,3.464421E-2,-5.319338E-1,1.2342564E0,-2.2446087E-2,-3.2439623E-2,1.2641114E-1,-8.390002E-1,-1.0790138E-1,-1.0738763E-2,4.58319E-1,-9.354523E-1,1.7577595E-1,2.1193532E-2,1.4484707E-1,-1.0600153E0,-3.121919E-5,7.5759625E-1,-1.7333663E-1,1.10450305E-1,-2.8233087E-2,7.053614E-1,-2.6228943E-1,1.1693693E-2,-1.1357754E0,6.7144895E-1,-5.6394048E-2,2.080061E-2,-1.2783631E0,5.923608E-2,-5.9017956E-2,1.0721004E-2,1.0605844E-1,1.7234537E-1,-3.6203456E-1,-7.960144E-4,-8.478983E-2,1.1209308E-1,-3.1634476E-2,2.7114173E-2,-1.1361462E-1,-5.607637E-3,-1.4139603E-1,1.1587898E-1,-1.7807228E-2,3.4725748E-3,-1.5059942E-1,-1.6640915E-2,1.3584334E-1,-1.2548174E-2,-1.135815E-1],"categories":[],"categories_nodes":[],"categories_segments":[],"categories_sizes":[],"default_left":[0,0,0,0,0,0,0,0,0,0,0,0,0,0,0,0,0,0,0,0,0,0,0,0,0,0,0,0,0,0,0,0,0,0,0,0,0,0,0,0,0,0,0,0,0,0,0,0,0,0,0,0,0,0,0,0,0],"id":15,"left_children":[1,3,5,7,9,11,13,15,17,19,-1,-1,-1,21,23,25,27,29,31,-1,-1,33,35,37,39,-1,41,43,45,-1,47,49,-1,-1,51,-1,-1,-1,-1,53,55,-1,-1,-1,-1,-1,-1,-1,-1,-1,-1,-1,-1,-1,-1,-1,-1],"loss_changes":[2.227334E0,6.485317E0,4.7714443E0,3.9188757E0,2.6975703E0,4.1557407E0,4.9498158E0,6.185738E0,3.788488E0,1.0444908E0,0E0,0E0,0E0,2.1803904E0,2.7637236E0,5.715154E0,5.7258716E0,1.8700299E0,2.3769681E0,0E0,0E0,2.842784E0,1.5563767E0,5.66808E-1,2.9342933E0,0E0,4.7757297E0,1.0311082E1,4.3519077E0,0E0,2.0280018E0,1.7463852E0,0E0,0E0,2.4673748E0,0E0,0E0,0E0,0E0,6.744871E0,5.129628E0,0E0,0E0,0E0,0E0,0E0,0E0,0E0,0E0,0E0,0E0,0E0,0E0,0E0,0E0,0E0,0E0],"parents":[2147483647,0,0,1,1,2,2,3,3,4,4,5,5,6,6,7,7,8,8,9,9,13,13,14,14,15,15,16,16,17,17,18,18,21,21,22,22,23,23,24,24,26,26,27,27,28,28,30,30,31,31,34,34,39,39,40,40],"right_children":[2,4,6,8,10,12,14,16,18,20,-1,-1,-1,22,24,26,28,30,32,-1,-1,34,36,38,40,-1,42,44,46,-1,48,50,-1,-1,52,-1,-1,-1,-1,54,56,-1,-1,-1,-1,-1,-1,-1,-1,-1,-1,-1,-1,-1,-1,-1,-1],"split_conditions":[6.8414223E-1,6.1608016E-1,-4.4399995E-1,1.5980395E0,1.1591744E0,2.786032E-1,-2.4876045E-1,7.4812967E-1,3.045104E-1,-2.4405028E-1,-2.2446087E-2,-3.2439623E-2,1.2641114E-1,1.7736603E0,-6.102915E-1,-1.5394856E0,1.567061E0,-4.6962258E-1,2.5840786E-1,2.1193532E-2,1.4484707E-1,-1.597289E0,3.0465615E-1,-4.6202105E-2,-7.776489E-1,1.10450305E-1,5.169731E-1,2.4042891E-1,4.7995725E-1,1.1693693E-2,-1.1332203E-1,1.9336587E0,-5.6394048E-2,2.080061E-2,2.1679279E-1,5.923608E-2,-5.9017956E-2,1.0721004E-2,1.0605844E-1,-1.098995E0,1.6335362E0,-7.960144E-4,-8.478983E-2,1.1209308E-1,-3.1634476E-2,2.7114173E-2,-1.1361462E-1,-5.607637E-3,-1.4139603E-1,1.1587898E-1,-1.7807228E-2,3.4725748E-3,-1.5059942E-1,-1.6640915E-2,1.3584334E-1,-1.2548174E-2,-1.135815E-1],"split_indices":[24,24,20,20,0,26,4,16,24,3,0,0,0,25,26,16,8,4,16,0,0,14,13,21,0,0,24,26,21,0,27,8,0,0,9,0,0,0,0,0,25,0,0,0,0,0,0,0,0,0,0,0,0,0,0,0,0],"split_type":[0,0,0,0,0,0,0,0,0,0,0,0,0,0,0,0,0,0,0,0,0,0,0,0,0,0,0,0,0,0,0,0,0,0,0,0,0,0,0,0,0,0,0,0,0,0,0,0,0,0,0,0,0,0,0,0,0],"sum_hessian":[4.0010358E2,3.3856558E2,6.153798E1,3.321455E2,6.420073E0,5.2979555E0,5.6240025E1,3.2045508E2,1.1690435E1,5.171231E0,1.2488424E0,2.1915152E0,3.1064405E0,1.0759069E1,4.5480953E1,2.903303E2,3.0124794E1,7.2403603E0,4.4500756E0,1.2404828E0,3.930748E0,8.30718E0,2.4518893E0,2.4533415E0,4.302761E1,3.524319E0,2.8680597E2,2.2449654E1,7.67514E0,1.2243817E0,6.0159783E0,2.7198396E0,1.7302358E0,1.2272832E0,7.0798974E0,1.2217478E0,1.2301416E0,1.2099462E0,1.2433953E0,1.5224326E1,2.7803286E1,2.808689E2,5.937075E0,1.5889594E1,6.560059E0,5.1941667E0,2.4809732E0,1.4786354E0,4.537343E0,1.4970081E0,1.2228316E0,1.1712118E0,5.908685E0,1.2510846E1,2.7134805E0,2.2183672E1,5.619614E0],"tree_param":{"num_deleted":"0","num_feature":"29","num_nodes":"57","size_leaf_vector":"1"}},{"base_weights":[2.1397413E-3,9.245781E-2,-5.9272297E-2,1.21935755E-1,-9.334816E-1,-3.154878E-1,8.715881E-3,7.71162E-2,8.1697273E-1,-2.1920377E-2,-1.1299192E-1,2.307907E-1,-4.969188E-1,4.3778423E-2,-6.693964E-1,3.6779005E-2,6.507017E-1,-1.853208E-2,1.0634563E0,7.0727855E-1,-1.2997237E-1,-6.91347E-1,4.913649E-2,1.8727976E-1,-1.4691702E-1,-9.2363083E-1,4.0867135E-2,1.309406E-1,-4.0788624E-1,-3.9976064E-2,1.2132688E-1,1.2244196E-1,6.0258363E-3,-1.0974935E-2,1.01930335E-1,-4.8415458E-1,7.425322E-2,5.1018964E-2,-7.8529006E-1,-5.449373E-1,5.192592E-1,-1.1725074E-1,3.4062308E-1,-2.2200693E-1,7.2844106E-1,-1.1260198E-1,-1.3554995E-1,8.006648E-3,6.386574E-2,1.9329183E-3,-8.07356E-2,8.484986E-2,-6.864885E-2,-1.0620785E-1,3.4384564E-3,-2.2134343E-2,-9.528615E-2,-1.0355025E-1,6.0272913E-2,1.20233655E-1,2.9379472E-3,-4.234715E-2,2.150595E-2,1.3544813E-2,6.2492203E-2,6.2742564E-3,-4.595601E-2,1.1840335E-1,-9.098606E-3,7.734539E-2,-9.811201E-2],"categories":[],"categories_nodes":[],"categories_segments":[],"categories_sizes":[],"default_left":[0,0,0,0,0,0,0,0,0,0,0,0,0,0,0,0,0,0,0,0,0,0,0,0,0,0,0,0,0,0,0,0,0,0,0,0,0,0,0,0,0,0,0,0,0,0,0,0,0,0,0,0,0,0,0,0,0,0,0,0,0,0,0,0,0,0,0,0,0,0,0],"id":16,"left_children":[1,3,5,7,9,11,13,15,17,-1,-1,19,21,23,25,27,29,-1,31,33,35,37,39,41,43,45,-1,47,49,51,-1,-1,-1,-1,-1,53,-1,-1,55,57,59,61,63,65,67,69,-1,-1,-1,-1,-1,-1,-1,-1,-1,-1,-1,-1,-1,-1,-1,-1,-1,-1,-1,-1,-1,-1,-1,-1,-1],"loss_changes":[2.225256E0,5.0243473E0,4.1631207E0,4.881341E0,4.0484476E-1,5.081379E0,4.540163E0,3.4514437E0,2.5467267E0,0E0,0E0,2.3569868E0,4.061509E0,4.989663E0,2.9507632E0,5.973891E0,3.8599977E0,0E0,1.1828413E0,1.598875E0,2.9379292E0,3.5658092E0,3.3256052E0,4.892249E0,5.3164864E0,2.6157866E0,0E0,2.9824815E0,4.2740955E0,3.667905E0,0E0,0E0,0E0,0E0,0E0,1.9963892E0,0E0,0E0,2.2840633E0,3.6084113E0,2.1710858E0,3.7079728E0,3.9615211E0,4.9663334E0,2.5079648E0,3.7116146E0,0E0,0E0,0E0,0E0,0E0,0E0,0E0,0E0,0E0,0E0,0E0,0E0,0E0,0E0,0E0,0E0,0E0,0E0,0E0,0E0,0E0,0E0,0E0,0E0,0E0],"parents":[2147483647,0,0,1,1,2,2,3,3,4,4,5,5,6,6,7,7,8,8,11,11,12,12,13,13,14,14,15,15,16,16,18,18,19,19,20,20,21,21,22,22,23,23,24,24,25,25,27,27,28,28,29,29,35,35,38,38,39,39,40,40,41,41,42,42,43,43,44,44,45,45],"right_children":[2,4,6,8,10,12,14,16,18,-1,-1,20,22,24,26,28,30,-1,32,34,36,38,40,42,44,46,-1,48,50,52,-1,-1,-1,-1,-1,54,-1,-1,56,58,60,62,64,66,68,70,-1,-1,-1,-1,-1,-1,-1,-1,-1,-1,-1,-1,-1,-1,-1,-1,-1,-1,-1,-1,-1,-1,-1,-1,-1],"split_conditions":[-1.991654E-1,3.0193707E-1,-2.3083532E-2,-3.0163756E-1,-8.463167E-1,-7.8392786E-1,2.0485802E0,1.2878274E0,-4.852218E-1,-2.1920377E-2,-1.1299192E-1,-5.782855E-2,9.298027E-2,1.259986E-1,1.6843977E0,3.7751928E-1,-3.3105545E0,-1.853208E-2,8.083833E-1,-6.0270697E-1,1.5188137E-2,-7.344946E-1,-3.448854E-1,-7.1355754E-1,1.4752132E0,-5.56633E-1,4.0867135E-2,1.1256269E0,-1.0530286E0,-1.68237E0,1.2132688E-1,1.2244196E-1,6.0258363E-3,-1.0974935E-2,1.01930335E-1,1.7879178E-1,7.425322E-2,5.1018964E-2,-7.804322E-1,5.136615E-1,-1.8324938E-1,7.6967865E-1,-3.7614653E-1,-4.2411196E-1,1.4256178E0,4.444859E-1,-1.3554995E-1,8.006648E-3,6.386574E-2,1.9329183E-3,-8.07356E-2,8.484986E-2,-6.864885E-2,-1.0620785E-1,3.4384564E-3,-2.2134343E-2,-9.528615E-2,-1.0355025E-1,6.0272913E-2,1.20233655E-1,2.9379472E-3,-4.234715E-2,2.150595E-2,1.3544813E-2,6.2492203E-2,6.2742564E-3,-4.595601E-2,1.1840335E-1,-9.098606E-3,7.734539E-2,-9.811201E-2],"split_indices":[21,28,27,21,13,20,6,20,28,0,0,13,20,26,0,20,27,0,26,3,15,13,16,12,5,0,0,26,27,21,0,0,0,0,0,13,0,0,18,2,16,21,26,20,13,21,0,0,0,0,0,0,0,0,0,0,0,0,0,0,0,0,0,0,0,0,0,0,0,0,0],"split_type":[0,0,0,0,0,0,0,0,0,0,0,0,0,0,0,0,0,0,0,0,0,0,0,0,0,0,0,0,0,0,0,0,0,0,0,0,0,0,0,0,0,0,0,0,0,0,0,0,0,0,0,0,0,0,0,0,0,0,0,0,0,0,0,0,0,0,0,0,0,0,0],"sum_hessian":[3.9920355E2,1.6137112E2,2.3783243E2,1.5772055E2,3.6505804E0,4.9112007E1,1.8872043E2,1.4920969E2,8.510855E0,1.2438052E0,2.4067752E0,1.2176674E1,3.6935333E1,1.8033162E2,8.388804E0,1.4040022E2,8.809475E0,1.72885E0,6.7820044E0,4.832934E0,7.3437395E0,2.7041039E1,9.894295E0,1.02908936E2,7.742268E1,6.9039416E0,1.4848628E0,1.164471E2,2.3953121E1,4.371461E0,4.4380136E0,5.6542606E0,1.1277438E0,1.5147836E0,3.3181503E0,5.5399604E0,1.8037792E0,1.6396027E0,2.5401436E1,4.300633E0,5.5936623E0,3.4543343E1,6.836559E1,7.199334E1,5.4293466E0,2.8369722E0,4.066969E0,1.06893845E2,9.553253E0,1.2034433E1,1.1918687E1,1.7096027E0,2.6618583E0,2.1242366E0,3.4157236E0,6.350453E0,1.9050983E1,3.0812833E0,1.2193495E0,1.7287632E0,3.864899E0,1.7834599E1,1.6708742E1,4.056603E1,2.7799564E1,3.307863E1,3.8914707E1,3.203361E0,2.2259858E0,1.4584886E0,1.3784838E0],"tree_param":{"num_deleted":"0","num_feature":"29","num_nodes":"71","size_leaf_vector":"1"}},{"base_weights":[2.4366057E-3,8.0206385E-3,-8.5461356E-2,-2.1671802E-5,7.362988E-1,2.4671026E-2,-2.6146716E-1,1.0221263E-1,1.7972099E-2,1.1317086E-2,1.1629423E-1,1.5505332E-1,-6.615525E-1,7.589209E-1,-1.8352421E-4,-4.274481E-2,1.1488368E-1,-8.296446E-1,2.850423E-2,-2.6716588E-2,1.3138828E-1,-3.0881224E-2,2.7389142E-3,1.5874578E-2,-9.612006E-2,-9.743576E-3,-1.0148473E-1,7.417005E-2,-5.7706695E-2],"categories":[],"categories_nodes":[],"categories_segments":[],"categories_sizes":[],"default_left":[0,0,0,0,0,0,0,0,0,0,0,0,0,0,0,0,0,0,0,0,0,0,0,0,0,0,0,0,0],"id":17,"left_children":[1,3,-1,5,7,9,11,-1,-1,13,-1,15,17,19,21,23,-1,25,27,-1,-1,-1,-1,-1,-1,-1,-1,-1,-1],"loss_changes":[1.9146204E0,2.3255014E0,0E0,2.548126E0,5.0619626E-1,5.468759E0,5.7787123E0,0E0,0E0,3.073639E0,0E0,3.4886856E0,2.060882E0,3.4351115E0,3.0128548E0,3.0316825E0,0E0,1.820816E0,2.3313804E0,0E0,0E0,0E0,0E0,0E0,0E0,0E0,0E0,0E0,0E0],"parents":[2147483647,0,0,1,1,3,3,4,4,5,5,6,6,9,9,11,11,12,12,13,13,14,14,15,15,17,17,18,18],"right_children":[2,4,-1,6,8,10,12,-1,-1,14,-1,16,18,20,22,24,-1,26,28,-1,-1,-1,-1,-1,-1,-1,-1,-1,-1],"split_conditions":[2.4545002E0,2.4350953E0,-8.5461356E-2,1.7975873E0,4.7241226E-1,1.7368227E0,-5.280287E-1,1.0221263E-1,1.7972099E-2,-1.756642E0,1.1629423E-1,-7.8216064E-1,2.311508E0,-9.1034865E-1,-8.9153427E-1,-3.69917E-2,1.1488368E-1,-8.159897E-1,2.1479218E0,-2.6716588E-2,1.3138828E-1,-3.0881224E-2,2.7389142E-3,1.5874578E-2,-9.612006E-2,-9.743576E-3,-1.0148473E-1,7.417005E-2,-5.7706695E-2],"split_indices":[10,7,0,8,0,8,16,0,0,2,0,16,8,14,16,27,0,26,11,0,0,0,0,0,0,0,0,0,0],"split_type":[0,0,0,0,0,0,0,0,0,0,0,0,0,0,0,0,0,0,0,0,0,0,0,0,0,0,0,0,0],"sum_hessian":[3.9763086E2,3.9604114E2,1.5897287E0,3.927045E2,3.3366303E0,3.59643E2,3.306151E1,1.6518722E0,1.6847582E0,3.5647092E2,3.1720932E0,1.6498114E1,1.6563393E1,4.41601E0,3.520549E2,1.455762E1,1.9404943E0,1.3156333E1,3.4070592E0,1.7320864E0,2.6839237E0,2.8036331E1,3.2401855E2,1.261689E1,1.9407296E0,2.964021E0,1.0192312E1,1.4612792E0,1.9457799E0],"tree_param":{"num_deleted":"0","num_feature":"29","num_nodes":"29","size_leaf_vector":"1"}},{"base_weights":[2.6224183E-3,8.730997E-2,-5.5015434E-2,3.9666973E-2,6.3842326E-1,-2.8423178E-1,5.486231E-3,6.604792E-2,-9.083107E-1,-3.568188E-2,8.5338575E-1,2.1264996E-1,-4.489186E-1,-6.1834913E-1,4.1908756E-2,9.16773E-2,-8.871729E-1,-1.1778199E-1,-1.5069275E-2,1.24450706E-1,3.4921172E-1,-1.13704786E-1,6.924552E-1,-6.307644E-1,6.198896E-2,4.0494E-2,-8.526619E-1,1.01611786E-1,-3.1586E-1,5.1105475E-1,4.3148644E-2,-1.5335946E-2,-1.1135681E-1,-2.6271588E-1,8.866034E-2,2.1733233E-1,-5.8493906E-1,-7.041674E-3,1.0227098E-1,4.8047632E-2,-7.1859056E-1,-4.9949452E-1,4.9847722E-1,-1.1545612E0,4.29815E-2,2.0215709E-2,4.5995468E-1,9.8504655E-2,-4.4387078E-1,9.762765E-2,-1.9552084E-3,5.0593408E-5,5.857134E-2,-7.705337E-2,2.9717425E-2,5.4850318E-2,-3.757367E-2,6.852425E-3,-1.0844823E-1,-2.0458205E-2,-8.728926E-2,-9.659296E-2,5.6887873E-2,-3.734289E-2,8.215852E-2,8.176727E-3,-1.4321661E-1,6.743139E-3,-9.624522E-2,1.21291175E-1,2.9163579E-2,-1.1666515E-1,-1.8756524E-2],"categories":[],"categories_nodes":[],"categories_segments":[],"categories_sizes":[],"default_left":[0,0,0,0,0,0,0,0,0,0,0,0,0,0,0,0,0,0,0,0,0,0,0,0,0,0,0,0,0,0,0,0,0,0,0,0,0,0,0,0,0,0,0,0,0,0,0,0,0,0,0,0,0,0,0,0,0,0,0,0,0,0,0,0,0,0,0,0,0,0,0,0,0],"id":18,"left_children":[1,3,5,7,9,11,13,15,17,-1,19,21,23,25,27,29,31,-1,-1,-1,33,35,37,39,41,-1,43,45,47,49,51,-1,-1,53,-1,55,57,-1,-1,-1,59,61,63,65,-1,67,69,-1,71,-1,-1,-1,-1,-1,-1,-1,-1,-1,-1,-1,-1,-1,-1,-1,-1,-1,-1,-1,-1,-1,-1,-1,-1],"loss_changes":[1.9485606E0,4.2191095E0,3.2960453E0,3.8076527E0,3.0421515E0,4.1565685E0,4.3187666E0,3.6660159E0,6.648042E-1,0E0,1.6986876E0,2.1195016E0,3.531992E0,2.8594408E0,3.8650491E0,2.9044294E0,4.8303747E-1,0E0,0E0,0E0,2.2441854E0,1.4711483E0,1.4368043E0,3.0600471E0,2.890791E0,0E0,3.9243536E0,4.4982853E0,4.7513943E0,3.6777391E0,3.0068185E0,0E0,0E0,1.2614032E0,0E0,1.3432467E0,1.323236E0,0E0,0E0,0E0,1.8978052E0,3.147821E0,2.1563554E0,2.6699839E0,0E0,5.9564643E0,3.2658224E0,0E0,4.2781367E0,0E0,0E0,0E0,0E0,0E0,0E0,0E0,0E0,0E0,0E0,0E0,0E0,0E0,0E0,0E0,0E0,0E0,0E0,0E0,0E0,0E0,0E0,0E0,0E0],"parents":[2147483647,0,0,1,1,2,2,3,3,4,4,5,5,6,6,7,7,8,8,10,10,11,11,12,12,13,13,14,14,15,15,16,16,20,20,21,21,22,22,23,23,24,24,26,26,27,27,28,28,29,29,30,30,33,33,35,35,36,36,40,40,41,41,42,42,43,43,45,45,46,46,48,48],"right_children":[2,4,6,8,10,12,14,16,18,-1,20,22,24,26,28,30,32,-1,-1,-1,34,36,38,40,42,-1,44,46,48,50,52,-1,-1,54,-1,56,58,-1,-1,-1,60,62,64,66,-1,68,70,-1,72,-1,-1,-1,-1,-1,-1,-1,-1,-1,-1,-1,-1,-1,-1,-1,-1,-1,-1,-1,-1,-1,-1,-1,-1],"split_conditions":[-1.991654E-1,-3.2889238E-1,-2.3083532E-2,3.0193707E-1,-5.8858633E-1,-7.8392786E-1,-3.5432765E-1,-3.4893924E-1,-2.9658294E-1,-3.568188E-2,3.7002914E-2,-7.290485E-1,9.298027E-2,-8.86989E-1,8.144608E-1,-7.932068E-1,-6.3740337E-1,-1.1778199E-1,-1.5069275E-2,1.24450706E-1,4.7097534E-2,-6.7348105E-1,9.51017E-3,-7.344946E-1,-3.448854E-1,4.0494E-2,-1.0220432E-1,2.0678374E-1,-4.4399995E-1,-6.4653784E-1,1.2878274E0,-1.5335946E-2,-1.1135681E-1,-4.0853032E-1,8.866034E-2,2.957023E-1,5.0224032E-2,-7.041674E-3,1.0227098E-1,4.8047632E-2,-7.804322E-1,5.136615E-1,-6.488012E-1,-1.3178241E-1,4.29815E-2,1.5980395E0,2.549535E-1,9.8504655E-2,4.3122005E-1,9.762765E-2,-1.9552084E-3,5.0593408E-5,5.857134E-2,-7.705337E-2,2.9717425E-2,5.4850318E-2,-3.757367E-2,6.852425E-3,-1.0844823E-1,-2.0458205E-2,-8.728926E-2,-9.659296E-2,5.6887873E-2,-3.734289E-2,8.215852E-2,8.176727E-3,-1.4321661E-1,6.743139E-3,-9.624522E-2,1.21291175E-1,2.9163579E-2,-1.1666515E-1,-1.8756524E-2],"split_indices":[21,21,27,28,27,20,13,21,4,0,26,22,20,26,24,8,25,0,0,0,16,12,0,13,16,0,3,24,20,21,20,0,0,3,0,21,26,0,0,0,18,2,0,2,0,20,21,0,8,0,0,0,0,0,0,0,0,0,0,0,0,0,0,0,0,0,0,0,0,0,0,0,0],"split_type":[0,0,0,0,0,0,0,0,0,0,0,0,0,0,0,0,0,0,0,0,0,0,0,0,0,0,0,0,0,0,0,0,0,0,0,0,0,0,0,0,0,0,0,0,0,0,0,0,0,0,0,0,0,0,0,0,0,0,0,0,0,0,0,0,0,0,0,0,0,0,0,0,0],"sum_hessian":[3.972123E2,1.6065152E2,2.365608E2,1.4885516E2,1.1796351E1,4.862864E1,1.8793216E2,1.4573003E2,3.1251438E0,1.9781089E0,9.818242E0,1.2032818E1,3.659582E1,9.4857435E0,1.7844643E2,1.4279451E2,2.9355123E0,1.8960294E0,1.2291144E0,4.7021017E0,5.1161404E0,7.615745E0,4.4170723E0,2.6816505E1,9.779314E0,1.6316798E0,7.854064E0,1.5354022E2,2.4906197E1,1.3821363E1,1.2897314E2,1.0876184E0,1.8478941E0,2.6311636E0,2.4849768E0,4.789778E0,2.825967E0,1.5721847E0,2.8448875E0,1.6367228E0,2.5179783E1,4.214097E0,5.5652175E0,6.438226E0,1.415838E0,1.2598066E2,2.7559563E1,1.6314633E0,2.3274734E1,6.9168935E0,6.90447E0,1.20503174E2,8.469977E0,1.1824572E0,1.4487065E0,3.1217382E0,1.6680399E0,1.5981799E0,1.2277871E0,6.3506045E0,1.882918E1,3.0001607E0,1.2139362E0,1.4626145E0,4.102603E0,1.3099132E0,5.128313E0,1.2109367E2,4.8869853E0,3.901331E0,2.3658232E1,5.1630774E0,1.8111656E1],"tree_param":{"num_deleted":"0","num_feature":"29","num_nodes":"73","size_leaf_vector":"1"}},{"base_weights":[2.2866507E-3,7.175142E-2,-6.591041E-2,2.2153099E-1,-2.3654515E-2,3.7980136E-2,-1.6736774E-1,8.082732E-1,1.468176E-1,-4.4571498E-1,5.7691723E-2,-2.3261592E-2,1.2170135E-1,7.1514976E-1,-2.0516804E-1,1.1190345E0,-8.902254E-3,2.2338298E-1,-4.2006424E-1,5.1136076E-2,-5.7776356E-1,1.1434299E-1,1.7806377E-2,2.8262328E-2,-8.5534203E-1,1.7846538E-2,1.155929E-1,-7.404186E-1,-7.848925E-2,1.226339E-1,3.1997565E-2,-5.5846423E-2,5.183634E-2,1.3150649E-1,7.928159E-1,-9.7110146E-1,2.3192675E-1,-1.7983451E-1,-1.0471231E0,6.076831E-1,-2.4986334E-2,-5.4920956E-2,4.431215E-1,1.4982565E-3,-1.1604285E-1,2.655974E-1,-9.9815327E-1,9.914643E-2,-1.1753883E-1,2.1849196E-2,-7.337906E-2,9.9784255E-2,-1.1001855E-2,-1.3363676E-1,-1.488819E-2,-4.5452207E-2,9.748791E-2,6.8690866E-2,-4.0514648E-2,-1.2912647E-1,1.8818194E-2,9.561713E-2,-1.7107386E-2,-7.2907604E-2,2.015816E-3,1.3468163E-3,-9.7408555E-2,7.043584E-2,-5.156219E-2,-5.7891775E-2,7.205335E-2,-1.2076285E-1,-2.5732204E-2,-4.72494E-2,3.170031E-3],"categories":[],"categories_nodes":[],"categories_segments":[],"categories_sizes":[],"default_left":[0,0,0,0,0,0,0,0,0,0,0,0,0,0,0,0,0,0,0,0,0,0,0,0,0,0,0,0,0,0,0,0,0,0,0,0,0,0,0,0,0,0,0,0,0,0,0,0,0,0,0,0,0,0,0,0,0,0,0,0,0,0,0,0,0,0,0,0,0,0,0,0,0,0,0],"id":19,"left_children":[1,3,5,7,9,11,13,15,17,19,21,23,-1,25,27,29,31,33,35,-1,37,-1,39,41,43,-1,-1,45,47,-1,-1,-1,-1,49,51,53,55,57,59,61,63,65,67,-1,-1,69,71,-1,73,-1,-1,-1,-1,-1,-1,-1,-1,-1,-1,-1,-1,-1,-1,-1,-1,-1,-1,-1,-1,-1,-1,-1,-1,-1,-1],"loss_changes":[1.8841214E0,2.8205357E0,2.1219244E0,3.2462022E0,4.1887875E0,7.2475114E0,3.5403373E0,2.1553202E0,3.1021242E0,2.7862132E0,4.420448E0,4.1409626E0,0E0,8.348625E-1,6.6089687E0,1.3306665E-1,1.2514094E0,3.1245286E0,3.312985E0,0E0,3.134078E0,0E0,2.537642E0,3.178274E0,1.5126348E0,0E0,0E0,5.1135197E0,3.485287E0,0E0,0E0,0E0,0E0,4.2504015E0,1.6600952E0,1.2578287E0,2.8624659E0,2.39407E0,2.641942E0,2.008617E0,3.0067163E0,4.854588E0,4.2139654E0,0E0,0E0,2.1857648E0,2.0318937E0,0E0,4.183085E0,0E0,0E0,0E0,0E0,0E0,0E0,0E0,0E0,0E0,0E0,0E0,0E0,0E0,0E0,0E0,0E0,0E0,0E0,0E0,0E0,0E0,0E0,0E0,0E0,0E0,0E0],"parents":[2147483647,0,0,1,1,2,2,3,3,4,4,5,5,6,6,7,7,8,8,9,9,10,10,11,11,13,13,14,14,15,15,16,16,17,17,18,18,20,20,22,22,23,23,24,24,27,27,28,28,33,33,34,34,35,35,36,36,37,37,38,38,39,39,40,40,41,41,42,42,45,45,46,46,48,48],"right_children":[2,4,6,8,10,12,14,16,18,20,22,24,-1,26,28,30,32,34,36,-1,38,-1,40,42,44,-1,-1,46,48,-1,-1,-1,-1,50,52,54,56,58,60,62,64,66,68,-1,-1,70,72,-1,74,-1,-1,-1,-1,-1,-1,-1,-1,-1,-1,-1,-1,-1,-1,-1,-1,-1,-1,-1,-1,-1,-1,-1,-1,-1,-1],"split_conditions":[5.7911957E-3,-6.194841E-1,-2.7926797E-1,-5.597824E-1,-5.1474345E-1,8.642669E-1,-5.929004E-1,-1.0478052E0,-1.3244538E-1,-6.906913E-1,-4.2854807E-1,1.3104646E0,1.2170135E-1,-6.147374E-1,-3.0363566E-1,8.96843E-2,-6.5156156E-1,-6.8588644E-1,-5.328468E-1,5.1136076E-2,-6.5115696E-1,1.1434299E-1,-1.845507E0,-3.1953946E-2,-4.9200416E-1,1.7846538E-2,1.155929E-1,-5.6859183E-1,-2.8679103E-1,1.226339E-1,3.1997565E-2,-5.5846423E-2,5.183634E-2,-6.882377E-1,-1.2026565E-1,2.824399E-1,-1.8789051E-1,-1.0926723E0,-8.075864E-2,-2.818728E-1,-1.6516932E0,-8.66379E-2,1.3585519E0,1.4982565E-3,-1.1604285E-1,-7.784153E-1,-4.091199E-2,9.914643E-2,-7.6391333E-1,2.1849196E-2,-7.337906E-2,9.9784255E-2,-1.1001855E-2,-1.3363676E-1,-1.488819E-2,-4.5452207E-2,9.748791E-2,6.8690866E-2,-4.0514648E-2,-1.2912647E-1,1.8818194E-2,9.561713E-2,-1.7107386E-2,-7.2907604E-2,2.015816E-3,1.3468163E-3,-9.7408555E-2,7.043584E-2,-5.156219E-2,-5.7891775E-2,7.205335E-2,-1.2076285E-1,-2.5732204E-2,-4.72494E-2,3.170031E-3],"split_indices":[2,17,20,14,8,25,22,13,22,16,9,13,0,22,22,23,8,6,2,0,20,0,21,4,3,0,0,14,22,0,0,0,0,7,0,15,3,21,22,15,21,23,0,0,0,7,5,0,13,0,0,0,0,0,0,0,0,0,0,0,0,0,0,0,0,0,0,0,0,0,0,0,0,0,0],"split_type":[0,0,0,0,0,0,0,0,0,0,0,0,0,0,0,0,0,0,0,0,0,0,0,0,0,0,0,0,0,0,0,0,0,0,0,0,0,0,0,0,0,0,0,0,0,0,0,0,0,0,0,0,0,0,0,0,0,0,0,0,0,0,0,0,0,0,0,0,0,0,0,0,0,0,0],"sum_hessian":[3.9572278E2,1.9601347E2,1.9970929E2,7.575784E1,1.2025564E2,9.898057E1,1.0072873E2,7.4480667E0,6.830978E1,1.870848E1,1.0154716E2,9.502502E1,3.955549E0,3.4012456E0,9.7327484E1,5.128406E0,2.3196604E0,6.071527E1,7.5945086E0,1.9199976E0,1.6788483E1,2.617837E0,9.892931E1,9.039371E1,4.631307E0,2.1672857E0,1.2339599E0,1.7699152E1,7.9628334E1,4.049831E0,1.0785753E0,1.1068426E0,1.2128178E0,5.3339954E1,7.3753166E0,3.85065E0,3.7438583E0,9.83413E0,6.9543533E0,5.798547E0,9.313077E1,7.6018814E1,1.4374894E1,1.4489E0,3.1824071E0,3.6034179E0,1.4095734E1,1.9450245E0,7.768331E1,4.9146873E1,4.193078E0,5.9246435E0,1.450673E0,2.233233E0,1.6174171E0,2.1477096E0,1.5961487E0,1.6062839E0,8.227846E0,5.7689047E0,1.1854485E0,3.848537E0,1.9500101E0,4.698678E0,8.843209E1,7.167155E1,4.347271E0,1.1505284E1,2.8696096E0,1.1661409E0,2.4372768E0,1.0497416E1,3.5983176E0,2.2352762E1,5.5330547E1],"tree_param":{"num_deleted":"0","num_feature":"29","num_nodes":"75","size_leaf_vector":"1"}},{"base_weights":[2.5206034E-3,6.098045E-1,-5.2254484E-3,-3.4117248E-2,1.0240602E-1,6.466026E-2,-6.829834E-2,7.7109516E-2,-9.360305E-2,2.7101405E-2,-1.5886842E-1,5.625678E-2,7.939691E-1,-4.0803358E-2,6.174598E-1,-6.9303215E-2,-4.5348474E-1,7.863007E-2,-8.0380875E-1,-5.152367E-3,1.0341243E-1,-1.2528157E-1,5.3974426E-1,-5.373597E-2,8.8283616E-1,-1.3916954E-1,7.2697747E-1,-9.9570125E-1,-8.882117E-2,3.6998443E-2,3.7124516E-3,3.5031646E-2,-1.2354095E-1,1.8864789E-3,-4.6625823E-2,1.1917263E-1,-2.1476944E-3,-1.0185979E-2,1.2127512E-1,-7.5070583E-3,-1.0658091E-1,1.2478472E-1,1.592552E-2,2.1758862E-2,-1.23185575E-1,9.802269E-2,-2.8684158E-2],"categories":[],"categories_nodes":[],"categories_segments":[],"categories_sizes":[],"default_left":[0,0,0,0,0,0,0,0,0,0,0,0,0,0,0,0,0,0,0,0,0,0,0,0,0,0,0,0,0,0,0,0,0,0,0,0,0,0,0,0,0,0,0,0,0,0,0],"id":20,"left_children":[1,3,5,-1,-1,7,9,11,-1,13,15,17,19,21,23,25,27,29,31,-1,-1,33,35,-1,37,39,41,43,45,-1,-1,-1,-1,-1,-1,-1,-1,-1,-1,-1,-1,-1,-1,-1,-1,-1,-1],"loss_changes":[1.8619326E0,2.3132443E0,1.7285727E0,0E0,0E0,2.39019E0,1.7849431E0,2.7164068E0,0E0,4.0829206E0,2.762034E0,3.5376494E0,1.0979266E0,4.565729E0,3.6933522E0,4.6833324E0,4.755832E0,2.1254134E0,2.7575352E0,0E0,0E0,3.983962E0,4.357605E0,0E0,3.0210986E0,4.4673557E0,1.8134024E0,3.0626898E0,3.6145375E0,0E0,0E0,0E0,0E0,0E0,0E0,0E0,0E0,0E0,0E0,0E0,0E0,0E0,0E0,0E0,0E0,0E0,0E0],"parents":[2147483647,0,0,1,1,2,2,5,5,6,6,7,7,9,9,10,10,11,11,12,12,13,13,14,14,15,15,16,16,17,17,18,18,21,21,22,22,24,24,25,25,26,26,27,27,28,28],"right_children":[2,4,6,-1,-1,8,10,12,-1,14,16,18,20,22,24,26,28,30,32,-1,-1,34,36,-1,38,40,42,44,46,-1,-1,-1,-1,-1,-1,-1,-1,-1,-1,-1,-1,-1,-1,-1,-1,-1,-1],"split_conditions":[-9.543695E-1,-6.1274767E-1,-1.711515E-2,-3.4117248E-2,1.0240602E-1,1.5226828E0,-1.6318786E-1,1.7215158E0,-9.360305E-2,-2.428561E-1,3.8465598E-1,1.4792047E0,-5.551434E-1,1.158816E0,-7.6280236E-1,2.5481266E-1,1.284923E-1,-6.6323245E-1,-5.6577766E-1,-5.152367E-3,1.0341243E-1,4.995351E-1,8.5303354E-1,-5.373597E-2,-7.7641994E-1,1.9981775E-1,1.1052207E-1,-4.7402635E-1,1.793498E-1,3.6998443E-2,3.7124516E-3,3.5031646E-2,-1.2354095E-1,1.8864789E-3,-4.6625823E-2,1.1917263E-1,-2.1476944E-3,-1.0185979E-2,1.2127512E-1,-7.5070583E-3,-1.0658091E-1,1.2478472E-1,1.592552E-2,2.1758862E-2,-1.23185575E-1,9.802269E-2,-2.8684158E-2],"split_indices":[20,3,2,0,0,21,26,13,0,26,9,13,26,21,7,8,20,22,3,0,0,21,13,0,13,10,3,20,20,0,0,0,0,0,0,0,0,0,0,0,0,0,0,0,0,0,0],"split_type":[0,0,0,0,0,0,0,0,0,0,0,0,0,0,0,0,0,0,0,0,0,0,0,0,0,0,0,0,0,0,0,0,0,0,0,0,0,0,0,0,0,0,0,0,0,0,0],"sum_hessian":[3.9413715E2,3.9850876E0,3.9015204E2,1.2627357E0,2.7223518E0,1.8506836E2,2.050837E2,1.8370589E2,1.3624794E0,1.002201E2,1.0486359E2,1.7956111E2,4.1447787E0,9.07165E1,9.503596E0,8.136374E1,2.349985E1,1.7589407E2,3.6670382E0,1.0906129E0,3.054166E0,7.987737E1,1.083913E1,1.5843219E0,7.919275E0,7.5559326E1,5.8044133E0,8.75364E0,1.474621E1,2.0946054E1,1.5494801E2,1.0493494E0,2.617689E0,5.68071E1,2.3070272E1,4.4944196E0,6.3447104E0,2.1608994E0,5.758375E0,7.1681854E1,3.8774757E0,2.4023414E0,3.4020717E0,1.4390187E0,7.3146214E0,1.6872363E0,1.3058973E1],"tree_param":{"num_deleted":"0","num_feature":"29","num_nodes":"47","size_leaf_vector":"1"}},{"base_weights":[2.6937532E-3,2.2629945E-1,-1.5893802E-2,7.10952E-1,1.2628905E-2,-7.026422E-1,-7.5441278E-3,9.4732827E-1,-3.2710843E-2,-3.187492E-1,5.7645524E-1,-9.7835384E-2,9.713532E-3,7.122604E-1,-1.5270468E-2,1.1210583E0,-5.1348293E-3,3.1540185E-1,-6.0317224E-1,1.0904782E-1,6.8659503E-3,1.0240694E-1,-1.6519995E-3,-2.1141391E-2,9.4027884E-2,1.2258782E-1,2.6845697E-2,8.832843E-2,-4.566532E-2,-8.187698E-1,1.960713E-2,5.8197916E-1,-7.263955E-2,-8.934984E-3,-5.312675E-1,-9.830816E-2,-5.6878417E-3,2.5186837E-3,8.400797E-2,-2.2657672E-3,9.090129E-2,5.0137907E-2,-8.9112274E-2],"categories":[],"categories_nodes":[],"categories_segments":[],"categories_sizes":[],"default_left":[0,0,0,0,0,0,0,0,0,0,0,0,0,0,0,0,0,0,0,0,0,0,0,0,0,0,0,0,0,0,0,0,0,0,0,0,0,0,0,0,0,0,0],"id":21,"left_children":[1,3,5,7,9,11,13,15,-1,17,19,-1,-1,21,23,25,-1,27,29,-1,31,-1,-1,33,-1,-1,-1,-1,-1,35,-1,37,-1,39,41,-1,-1,-1,-1,-1,-1,-1,-1],"loss_changes":[1.6412419E0,3.1293006E0,2.0860012E0,2.5807014E0,4.3036656E0,1.0586841E0,2.0204606E0,1.4099565E0,0E0,2.811344E0,2.4865832E0,0E0,0E0,8.9370525E-1,2.0309534E0,2.6820755E-1,0E0,2.6640527E0,1.9484372E0,0E0,2.551189E0,0E0,0E0,2.219917E0,0E0,0E0,0E0,0E0,0E0,9.912405E-1,0E0,4.6512425E-1,0E0,4.42869E0,3.5429864E0,0E0,0E0,0E0,0E0,0E0,0E0,0E0,0E0],"parents":[2147483647,0,0,1,1,2,2,3,3,4,4,5,5,6,6,7,7,9,9,10,10,13,13,14,14,15,15,17,17,18,18,20,20,23,23,29,29,31,31,33,33,34,34],"right_children":[2,4,6,8,10,12,14,16,-1,18,20,-1,-1,22,24,26,-1,28,30,-1,32,-1,-1,34,-1,-1,-1,-1,-1,36,-1,38,-1,40,42,-1,-1,-1,-1,-1,-1,-1,-1],"split_conditions":[-1.0850307E0,-3.059378E-1,-5.323605E-1,-2.6696926E-1,6.615438E-1,-4.982922E-1,-6.6609806E-1,-6.7651205E-2,-3.2710843E-2,-7.2508967E-1,1.2831981E-1,-9.7835384E-2,9.713532E-3,2.2704058E0,4.8454366E0,1.8194507E-1,-5.1348293E-3,-4.6922076E-3,-5.225896E-1,1.0904782E-1,2.4464704E-1,1.0240694E-1,-1.6519995E-3,2.2704058E0,9.4027884E-2,1.2258782E-1,2.6845697E-2,8.832843E-2,-4.566532E-2,2.1216337E-1,1.960713E-2,-3.9995575E-4,-7.263955E-2,1.7855785E0,-3.9459366E-1,-9.830816E-2,-5.6878417E-3,2.5186837E-3,8.400797E-2,-2.2657672E-3,9.090129E-2,5.0137907E-2,-8.9112274E-2],"split_indices":[26,27,24,21,21,22,25,24,0,18,2,0,0,26,26,0,0,13,24,0,15,0,0,26,0,0,0,0,0,0,0,14,0,26,4,0,0,0,0,0,0,0,0],"split_type":[0,0,0,0,0,0,0,0,0,0,0,0,0,0,0,0,0,0,0,0,0,0,0,0,0,0,0,0,0,0,0,0,0,0,0,0,0,0,0,0,0,0,0],"sum_hessian":[3.9301672E2,2.9305145E1,3.6371158E2,8.254581E0,2.1050564E1,3.3701444E0,3.6034143E2,6.7947564E0,1.4598253E0,1.3532036E1,7.5185266E0,2.3401346E0,1.0300099E0,2.8584166E0,3.5748303E2,5.6835074E0,1.1112487E0,4.1562724E0,9.375764E0,3.4713373E0,4.047189E0,1.7181311E0,1.1402855E0,3.5627194E2,1.2110708E0,4.6713915E0,1.012116E0,2.311781E0,1.8444915E0,7.364692E0,2.011072E0,2.3838205E0,1.6633689E0,3.4893994E2,7.3319955E0,5.8193555E0,1.5453365E0,1.1026635E0,1.281157E0,3.4476132E2,4.178627E0,1.7931271E0,5.5388684E0],"tree_param":{"num_deleted":"0","num_feature":"29","num_nodes":"43","size_leaf_vector":"1"}},{"base_weights":[3.3910023E-3,5.76951E-1,-3.7845245E-3,-3.3941433E-2,9.8886244E-2,3.6008605E-1,-1.4961215E-2,-8.224116E-2,6.038298E-1,-2.1530247E-1,9.765144E-3,1.22297876E-1,1.835092E-1,-6.433976E-1,-3.5275877E-2,3.1520817E-1,-1.9573953E-2,-6.828209E-2,4.7323585E-1,2.5314212E-1,-9.982686E-1,-6.654914E-1,2.1643163E-1,6.9444895E-1,-2.5399464E-1,-5.876141E-1,1.9250302E-2,1.0018207E-1,-2.1591622E-3,-7.002404E-2,8.321706E-2,-1.2058294E-1,3.5019524E-3,-1.1497916E-1,8.115648E-3,9.1963574E-2,-1.3910527E-2,-5.9472024E-2,8.397299E-2,5.2188303E-2,-6.2313724E-2,-7.7827643E-3,-8.990243E-2,1.6775697E-2,-4.5744563E-3],"categories":[],"categories_nodes":[],"categories_segments":[],"categories_sizes":[],"default_left":[0,0,0,0,0,0,0,0,0,0,0,0,0,0,0,0,0,0,0,0,0,0,0,0,0,0,0,0,0,0,0,0,0,0,0,0,0,0,0,0,0,0,0,0,0],"id":22,"left_children":[1,3,5,-1,-1,7,9,-1,11,13,15,-1,17,19,21,23,25,-1,27,29,31,33,35,37,39,41,43,-1,-1,-1,-1,-1,-1,-1,-1,-1,-1,-1,-1,-1,-1,-1,-1,-1,-1],"loss_changes":[1.620874E0,2.17243E0,1.5891904E0,0E0,0E0,3.8531387E0,1.8785422E0,0E0,2.4383397E0,3.1878633E0,3.0363524E0,0E0,2.1481683E0,4.1578956E0,4.963856E0,6.585743E0,6.8357263E0,0E0,1.6013057E0,2.944585E0,1.9715996E0,3.317806E0,5.744966E0,3.8869476E0,3.9352608E0,3.0778599E0,2.812752E0,0E0,0E0,0E0,0E0,0E0,0E0,0E0,0E0,0E0,0E0,0E0,0E0,0E0,0E0,0E0,0E0,0E0,0E0],"parents":[2147483647,0,0,1,1,2,2,5,5,6,6,8,8,9,9,10,10,12,12,13,13,14,14,15,15,16,16,18,18,19,19,20,20,21,21,22,22,23,23,24,24,25,25,26,26],"right_children":[2,4,6,-1,-1,8,10,-1,12,14,16,-1,18,20,22,24,26,-1,28,30,32,34,36,38,40,42,44,-1,-1,-1,-1,-1,-1,-1,-1,-1,-1,-1,-1,-1,-1,-1,-1,-1,-1],"split_conditions":[-9.543695E-1,-6.1274767E-1,-1.8527379E0,-3.3941433E-2,9.8886244E-2,-5.220591E-1,-8.0150527E-1,-8.224116E-2,1.4086001E-2,-2.7224922E-1,-7.807504E-1,1.22297876E-1,-2.303678E0,-5.9703654E-1,-1.0431888E0,3.2193708E-1,-6.910756E-1,-6.828209E-2,-3.4541932E-1,-1.6993461E0,1.7249911E0,4.8614275E-1,3.8096732E-1,-1.6618055E0,-9.410074E-1,-7.511719E-1,-1.991654E-1,1.0018207E-1,-2.1591622E-3,-7.002404E-2,8.321706E-2,-1.2058294E-1,3.5019524E-3,-1.1497916E-1,8.115648E-3,9.1963574E-2,-1.3910527E-2,-5.9472024E-2,8.397299E-2,5.2188303E-2,-6.2313724E-2,-7.7827643E-3,-8.990243E-2,1.6775697E-2,-4.5744563E-3],"split_indices":[20,3,13,0,0,24,14,0,26,4,2,0,13,4,0,23,0,0,4,14,23,24,2,13,21,5,21,0,0,0,0,0,0,0,0,0,0,0,0,0,0,0,0,0,0],"split_type":[0,0,0,0,0,0,0,0,0,0,0,0,0,0,0,0,0,0,0,0,0,0,0,0,0,0,0,0,0,0,0,0,0,0,0,0,0,0,0,0,0,0,0,0,0],"sum_hessian":[3.9230655E2,3.8661842E0,3.8844037E2,1.2535206E0,2.6126637E0,1.0645507E1,3.7779486E2,1.4135809E0,9.231926E0,4.065852E1,3.3713632E2,2.9608471E0,6.2710786E0,1.1274458E1,2.938406E1,2.8691517E1,3.0844482E2,1.2316045E0,5.0394745E0,3.2784655E0,7.9959927E0,7.917249E0,2.146681E1,1.7086988E1,1.1604527E1,1.8828506E1,2.896163E2,1.9412286E0,3.0982456E0,1.1596844E0,2.1187813E0,6.519426E0,1.4765667E0,4.474806E0,3.4424434E0,6.67599E0,1.479082E1,1.4172502E0,1.566974E1,3.6077833E0,7.996744E0,7.6140423E0,1.1214463E1,8.768467E1,2.0193164E2],"tree_param":{"num_deleted":"0","num_feature":"29","num_nodes":"45","size_leaf_vector":"1"}},{"base_weights":[2.9494246E-3,7.919101E-3,-7.8879155E-2,3.362124E-4,6.995524E-1,1.0075683E-2,-5.408264E-1,1.7738128E-2,1.02364235E-1,1.5571734E-2,-8.473882E-2,4.093217E-2,