{"learner":{"attributes":{"scikit_learn":"{\"_estimator_type\": \"classifier\"}"},"feature_names":[],"feature_types":[],"gradient_booster":{"model":{"cats":{"enc":[],"feature_segments":[],"sorted_idx":[]},"gbtree_model_param":{"num_parallel_tree":"1","num_trees":"100"},"iteration_indptr":[0,1,2,3,4,5,6,7,8,9,10,11,12,13,14,15,16,17,18,19,20,21,22,23,24,25,26,27,28,29,30,31,32,33,34,35,36,37,38,39,40,41,42,43,44,45,46,47,48,49,50,51,52,53,54,55,56,57,58,59,60,61,62,63,64,65,66,67,68,69,70,71,72,73,74,75,76,77,78,79,80,81,82,83,84,85,86,87,88,89,90,91,92,93,94,95,96,97,98,99,100],"tree_info":[0,0,0,0,0,0,0,0,0,0,0,0,0,0,0,0,0,0,0,0,0,0,0,0,0,0,0,0,0,0,0,0,0,0,0,0,0,0,0,0,0,0,0,0,0,0,0,0,0,0,0,0,0,0,0,0,0,0,0,0,0,0,0,0,0,0,0,0,0,0,0,0,0,0,0,0,0,0,0,0,0,0,0,0,0,0,0,0,0,0,0,0,0,0,0,0,0,0,0,0],"trees":[{"base_weights":[-6.9244855E-8,1.2767571E0,-9.242082E-2,3.469628E-2,1.5951902E-1,2.1689843E-1,-4.1486043E-1,5.277499E-1,-3.469729E-1,-6.4689094E-1,3.8222533E-1,1.0149161E-1,1.0366201E0,3.2973644E-1,-1.315765E0,-1.0630008E0,-3.253901E-1,9.804346E-1,-4.597084E-1,1.443256E-1,-2.0312968E-1,-3.8777936E-2,1.2346122E0,6.1842525E-1,-1.099837E-1,-1.5029886E-1,-2.108966E-2,-1.4967291E-1,-1.4939184E0,2.9130766E-1,-8.7502915E-1,1.4164445E-1,-1.6884241E-2,-9.8477083E-1,6.7804374E-2,-1.0311852E-1,1.9256484E-2,1.360634E-3,1.460508E-1,9.592717E-2,-7.8780435E-2,5.8604937E-2,-8.426283E-2,-1.6392182E-1,-3.8777936E-2,6.844155E-2,-4.286062E-2,-1.390146E-1,-1.4967292E-2,-2.108966E-2,-1.2598239E-1],"categories":[],"categories_nodes":[],"categories_segments":[],"categories_sizes":[],"default_left":[0,0,0,0,0,0,0,0,0,0,0,0,0,0,0,0,0,0,0,0,0,0,0,0,0,0,0,0,0,0,0,0,0,0,0,0,0,0,0,0,0,0,0,0,0,0,0,0,0,0,0],"id":0,"left_children":[1,3,5,-1,-1,7,9,11,13,15,17,19,21,23,25,27,29,31,33,-1,35,-1,37,39,-1,-1,-1,41,43,45,47,-1,-1,49,-1,-1,-1,-1,-1,-1,-1,-1,-1,-1,-1,-1,-1,-1,-1,-1,-1],"loss_changes":[1.1798682E1,1.4448719E0,9.38948E0,0E0,0E0,8.639525E0,8.754009E0,6.7267733E0,1.20694475E1,4.4696894E0,5.9903674E0,7.751757E0,4.4971485E0,5.3226223E0,1.2343149E0,5.7777443E0,7.6265764E0,3.6212544E0,3.8037558E0,0E0,5.358665E0,0E0,3.4964962E0,5.548353E0,0E0,0E0,0E0,3.5524929E0,1.011591E0,3.4060912E0,4.1818237E0,0E0,0E0,5.856664E-1,0E0,0E0,0E0,0E0,0E0,0E0,0E0,0E0,0E0,0E0,0E0,0E0,0E0,0E0,0E0,0E0,0E0],"parents":[2147483647,0,0,1,1,2,2,5,5,6,6,7,7,8,8,9,9,10,10,11,11,12,12,13,13,14,14,15,15,16,16,17,17,18,18,20,20,22,22,23,23,27,27,28,28,29,29,30,30,33,33],"right_children":[2,4,6,-1,-1,8,10,12,14,16,18,20,22,24,26,28,30,32,34,-1,36,-1,38,40,-1,-1,-1,42,44,46,48,-1,-1,50,-1,-1,-1,-1,-1,-1,-1,-1,-1,-1,-1,-1,-1,-1,-1,-1,-1],"split_conditions":[-1.7919749E0,-7.5606994E-2,-5.648201E-1,3.469628E-2,1.5951902E-1,3.9717603E-1,1.7384045E0,-4.8856288E-1,2.2431482E-1,-4.5631593E-1,-2.1996209E-1,-1.9697492E-1,-1.5865252E0,5.1121426E-1,1.7625908E0,-8.7268275E-1,-5.2016776E-2,7.267651E-2,5.748014E-1,1.443256E-1,-5.7276106E-1,-3.8777936E-2,2.7808288E-1,1.670744E0,-1.099837E-1,-1.5029886E-1,-2.108966E-2,-2.9603943E-1,1.1234356E0,-1.343884E-1,-2.879517E-1,1.4164445E-1,-1.6884241E-2,-3.0065787E-1,6.7804374E-2,-1.0311852E-1,1.9256484E-2,1.360634E-3,1.460508E-1,9.592717E-2,-7.8780435E-2,5.8604937E-2,-8.426283E-2,-1.6392182E-1,-3.8777936E-2,6.844155E-2,-4.286062E-2,-1.390146E-1,-1.4967292E-2,-2.108966E-2,-1.2598239E-1],"split_indices":[10,24,25,0,0,21,25,24,8,3,26,12,0,26,5,20,4,18,26,0,4,0,19,13,0,0,0,13,16,14,13,0,0,3,0,0,0,0,0,0,0,0,0,0,0,0,0,0,0,0,0],"split_type":[0,0,0,0,0,0,0,0,0,0,0,0,0,0,0,0,0,0,0,0,0,0,0,0,0,0,0,0,0,0,0,0,0,0,0,0,0,0,0,0,0,0,0,0,0,0,0,0,0,0,0],"sum_hessian":[9.79898E1,5.7494016E0,9.22404E1,1.9997919E0,3.7496097E0,4.7245083E1,4.4995316E1,3.0496826E1,1.6748257E1,3.4996357E1,9.99896E0,1.7248205E1,1.3248621E1,1.0248933E1,6.4993234E0,1.4248517E1,2.074784E1,5.7494016E0,4.2495575E0,2.49974E0,1.4748465E1,1.4998438E0,1.1748777E1,8.9990635E0,1.24987E0,5.2494535E0,1.24987E0,4.99948E0,9.249038E0,9.99896E0,1.0748881E1,3.9995837E0,1.7498178E0,2.9996877E0,1.24987E0,4.2495575E0,1.0498907E1,1.9997919E0,9.748985E0,7.4992194E0,1.4998438E0,2.49974E0,2.49974E0,7.7491937E0,1.4998438E0,6.4993234E0,3.4996357E0,5.7494016E0,4.99948E0,1.24987E0,1.7498178E0],"tree_param":{"num_deleted":"0","num_feature":"29","num_nodes":"51","size_leaf_vector":"1"}},{"base_weights":[-2.2122222E-3,1.1810489E0,-8.7856814E-2,3.238195E-2,1.4749154E-1,1.9992378E-1,-3.754639E-1,4.9111202E-1,-3.356733E-1,-5.808514E-1,3.4893522E-1,6.9222796E-1,-4.1616398E-1,3.059388E-1,-1.2134572E0,-9.9445724E-1,-2.7082896E-1,9.029176E-1,-4.2974997E-1,1.5727143E-1,4.3175974E-1,-1.13890626E-1,3.710483E-1,5.9246033E-1,-1.0412251E-1,-1.70848E-2,-1.3949914E-1,-2.167465E-1,-1.3735055E0,1.0612875E-1,-4.7160807E-1,1.3069628E-1,-1.5812397E-2,-1.2107654E-1,3.064625E-1,1.3435684E-1,1.4258759E-2,7.7629626E-2,-2.4421316E-2,9.351183E-2,-7.416279E-2,-8.7971404E-2,5.5458494E-2,-1.5056033E-1,-3.6468994E-2,-1.1429842E-1,-2.2223502E-2,1.1048485E-1,-6.2968604E-2],"categories":[],"categories_nodes":[],"categories_segments":[],"categories_sizes":[],"default_left":[0,0,0,0,0,0,0,0,0,0,0,0,0,0,0,0,0,0,0,0,0,0,0,0,0,0,0,0,0,0,0,0,0,0,0,0,0,0,0,0,0,0,0,0,0,0,0,0,0],"id":1,"left_children":[1,3,5,-1,-1,7,9,11,13,15,17,19,21,23,25,27,29,31,33,-1,35,-1,37,39,-1,-1,-1,41,43,-1,45,-1,-1,-1,47,-1,-1,-1,-1,-1,-1,-1,-1,-1,-1,-1,-1,-1,-1],"loss_changes":[1.0107265E1,1.2182121E0,7.770854E0,0E0,0E0,7.51504E0,7.1734004E0,5.932964E0,1.0053974E1,4.459381E0,5.1220326E0,5.2146187E0,3.9716437E0,4.758977E0,1.1738825E0,4.249466E0,6.5056787E0,3.0938988E0,3.383684E0,0E0,5.4009075E0,0E0,1.1220984E0,5.0300584E0,0E0,0E0,0E0,3.6797798E0,8.0796623E-1,0E0,3.128604E0,0E0,0E0,0E0,3.3079572E0,0E0,0E0,0E0,0E0,0E0,0E0,0E0,0E0,0E0,0E0,0E0,0E0,0E0,0E0],"parents":[2147483647,0,0,1,1,2,2,5,5,6,6,7,7,8,8,9,9,10,10,11,11,12,12,13,13,14,14,15,15,16,16,17,17,18,18,20,20,22,22,23,23,27,27,28,28,30,30,34,34],"right_children":[2,4,6,-1,-1,8,10,12,14,16,18,20,22,24,26,28,30,32,34,-1,36,-1,38,40,-1,-1,-1,42,44,-1,46,-1,-1,-1,48,-1,-1,-1,-1,-1,-1,-1,-1,-1,-1,-1,-1,-1,-1],"split_conditions":[-1.7919749E0,-7.5606994E-2,-5.650846E-1,3.238195E-2,1.4749154E-1,3.9717603E-1,1.7384045E0,7.95779E-1,2.2431482E-1,-4.5631593E-1,-2.1996209E-1,-9.0907055E-1,9.474806E-1,5.1121426E-1,4.302086E-1,-8.7268275E-1,-6.788955E-1,7.267651E-2,1.0989926E-1,1.5727143E-1,-3.0147457E-1,-1.13890626E-1,1.3381474E0,1.670744E0,-1.0412251E-1,-1.70848E-2,-1.3949914E-1,-9.437029E-1,1.1234356E0,1.0612875E-1,-9.511014E-1,1.3069628E-1,-1.5812397E-2,-1.2107654E-1,-7.805057E-1,1.3435684E-1,1.4258759E-2,7.7629626E-2,-2.4421316E-2,9.351183E-2,-7.416279E-2,-8.7971404E-2,5.5458494E-2,-1.5056033E-1,-3.6468994E-2,-1.1429842E-1,-2.2223502E-2,1.1048485E-1,-6.2968604E-2],"split_indices":[10,24,25,0,0,21,25,19,8,3,26,16,19,26,27,20,4,18,26,0,17,0,15,13,0,0,0,20,16,0,0,0,0,0,5,0,0,0,0,0,0,0,0,0,0,0,0,0,0],"split_type":[0,0,0,0,0,0,0,0,0,0,0,0,0,0,0,0,0,0,0,0,0,0,0,0,0,0,0,0,0,0,0,0,0,0,0,0,0,0,0,0,0,0,0,0,0,0,0,0,0],"sum_hessian":[9.7712364E1,5.731814E0,9.198055E1,1.999898E0,3.7319162E0,4.6128796E1,4.5851753E1,2.9936348E1,1.6192448E1,3.5877605E1,9.974148E0,2.4698463E1,5.2378845E0,9.731048E0,6.4613996E0,1.4425123E1,2.1452482E1,5.73473E0,4.239418E0,4.4882755E0,2.0210188E1,2.4978452E0,2.740039E0,8.486345E0,1.2447017E0,1.2460521E0,5.2153473E0,5.241897E0,9.183227E0,2.248491E0,1.920399E1,3.985338E0,1.7493916E0,1.7443388E0,2.4950793E0,3.9882634E0,1.6221926E1,1.4941614E0,1.2458779E0,6.990029E0,1.4963167E0,2.743401E0,2.498496E0,7.684539E0,1.4986871E0,4.2306275E0,1.4973364E1,1.2493638E0,1.2457155E0],"tree_param":{"num_deleted":"0","num_feature":"29","num_nodes":"49","size_leaf_vector":"1"}},{"base_weights":[-2.3126937E-3,1.0998467E0,-8.185811E-2,3.0233577E-2,1.3762283E-1,1.7593396E-1,-3.510109E-1,4.4284767E-1,-3.1052816E-1,-5.4635864E-1,3.2015097E-1,6.691033E-2,8.9481694E-1,2.5605315E-1,-1.1263118E0,-9.0215605E-1,-2.744291E-1,8.3615196E-1,-4.0293053E-1,1.2695864E-1,-2.0216121E-1,-3.568115E-2,1.0712024E0,6.7419976E-1,-5.923868E-1,-1.4120534E-1,-3.186423E-2,-2.8562754E-1,-1.3968387E-1,9.907114E-2,-4.7147977E-1,1.21477224E-1,-1.4809832E-2,-8.795163E-1,6.188981E-2,-9.656884E-2,1.635212E-2,-3.8746726E-3,1.2828845E-1,1.0988591E-1,-6.993853E-2,2.1907186E-2,-1.0026044E-1,4.287107E-2,-7.419099E-2,4.0720206E-2,-6.409052E-2,-1.1411824E-1,-1.6866982E-2],"categories":[],"categories_nodes":[],"categories_segments":[],"categories_sizes":[],"default_left":[0,0,0,0,0,0,0,0,0,0,0,0,0,0,0,0,0,0,0,0,0,0,0,0,0,0,0,0,0,0,0,0,0,0,0,0,0,0,0,0,0,0,0,0,0,0,0,0,0],"id":2,"left_children":[1,3,5,-1,-1,7,9,11,13,15,17,19,21,23,25,27,29,31,33,-1,35,-1,37,39,41,-1,-1,43,-1,-1,45,-1,-1,47,-1,-1,-1,-1,-1,-1,-1,-1,-1,-1,-1,-1,-1,-1,-1],"loss_changes":[8.690837E0,1.0547504E0,6.475013E0,0E0,0E0,6.3540564E0,6.1472664E0,5.2629576E0,8.400255E0,3.201848E0,4.403788E0,6.1407146E0,3.504816E0,4.3628345E0,1.2528915E0,4.1780386E0,5.86313E0,2.6714768E0,3.0834694E0,0E0,4.5473914E0,0E0,3.0211983E0,5.406557E0,1.6245462E0,0E0,0E0,2.9053447E0,0E0,0E0,3.1499085E0,0E0,0E0,5.4570127E-1,0E0,0E0,0E0,0E0,0E0,0E0,0E0,0E0,0E0,0E0,0E0,0E0,0E0,0E0,0E0],"parents":[2147483647,0,0,1,1,2,2,5,5,6,6,7,7,8,8,9,9,10,10,11,11,12,12,13,13,14,14,15,15,16,16,17,17,18,18,20,20,22,22,23,23,24,24,27,27,30,30,33,33],"right_children":[2,4,6,-1,-1,8,10,12,14,16,18,20,22,24,26,28,30,32,34,-1,36,-1,38,40,42,-1,-1,44,-1,-1,46,-1,-1,48,-1,-1,-1,-1,-1,-1,-1,-1,-1,-1,-1,-1,-1,-1,-1],"split_conditions":[-1.7919749E0,-7.5606994E-2,-5.648201E-1,3.0233577E-2,1.3762283E-1,3.9717603E-1,1.7384045E0,-4.8856288E-1,2.2431482E-1,-4.5631593E-1,-2.1996209E-1,-1.9697492E-1,-1.5865252E0,1.2008499E-1,-1.1709632E-1,-5.81348E-1,-6.788955E-1,7.267651E-2,5.748014E-1,1.2695864E-1,-5.7276106E-1,-3.568115E-2,2.7808288E-1,1.6321929E0,-1.8133608E-1,-1.4120534E-1,-3.186423E-2,-5.4576325E-1,-1.3968387E-1,9.907114E-2,-3.4981304E-1,1.21477224E-1,-1.4809832E-2,1.0989926E-1,6.188981E-2,-9.656884E-2,1.635212E-2,-3.8746726E-3,1.2828845E-1,1.0988591E-1,-6.993853E-2,2.1907186E-2,-1.0026044E-1,4.287107E-2,-7.419099E-2,4.0720206E-2,-6.409052E-2,-1.1411824E-1,-1.6866982E-2],"split_indices":[10,24,25,0,0,21,25,24,8,3,26,12,0,26,26,20,4,18,26,0,4,0,19,13,5,0,0,21,0,0,3,0,0,26,0,0,0,0,0,0,0,0,0,0,0,0,0,0,0],"split_type":[0,0,0,0,0,0,0,0,0,0,0,0,0,0,0,0,0,0,0,0,0,0,0,0,0,0,0,0,0,0,0,0,0,0,0,0,0,0,0,0,0,0,0,0,0,0,0,0,0],"sum_hessian":[9.710238E1,5.6729465E0,9.142943E1,1.9989114E0,3.674035E0,4.687721E1,4.455222E1,3.0326963E1,1.6550245E1,3.4652306E1,9.899917E0,1.718278E1,1.3144186E1,1.0171807E1,6.378439E0,1.40072975E1,2.0645006E1,5.685962E0,4.2139544E0,2.4616191E0,1.4721159E1,1.4971962E0,1.164699E1,6.9512877E0,3.2205195E0,4.1588078E0,2.219631E0,6.937905E0,7.069393E0,2.239414E0,1.8405592E1,3.9371955E0,1.7487668E0,2.9686391E0,1.2453153E0,4.2359395E0,1.048522E1,1.9963164E0,9.650673E0,5.4625006E0,1.4887872E0,1.2378561E0,1.9826633E0,2.7277968E0,4.2101083E0,2.7483816E0,1.565721E1,1.7273924E0,1.2412468E0],"tree_param":{"num_deleted":"0","num_feature":"29","num_nodes":"49","size_leaf_vector":"1"}},{"base_weights":[-1.7446937E-3,1.029712E0,-7.586383E-2,1.22204006E-1,1.04785785E-2,1.4243929E-1,-3.4618977E-1,3.9100134E-1,-2.9039687E-1,-8.03065E-1,-2.5219347E-2,6.027168E-1,-2.7552697E-1,1.8551563E-1,-9.882728E-1,-1.0000067E0,9.493273E-2,-6.168251E-1,2.8609747E-1,2.026751E-1,1.065623E0,7.529598E-2,-5.914113E-1,3.9919198E-1,-9.6473E-2,-1.2372185E-1,-5.4618525E-3,-1.159129E0,-2.5679958E-3,9.71503E-2,-1.0161217E-1,-1.2753527E-1,-7.865642E-3,-3.6042202E-1,6.548763E-1,4.0168297E-2,-1.0979649E-1,2.6353179E-3,1.21801674E-1,-9.097257E-2,3.765027E-2,6.809777E-2,-5.984493E-2,-1.8032676E-2,-1.2552164E-1,1.00969784E-1,-8.288482E-2,3.922337E-2,-1.1143335E-1,1.0017326E-1,-3.2549914E-2],"categories":[],"categories_nodes":[],"categories_segments":[],"categories_sizes":[],"default_left":[0,0,0,0,0,0,0,0,0,0,0,0,0,0,0,0,0,0,0,0,0,0,0,0,0,0,0,0,0,0,0,0,0,0,0,0,0,0,0,0,0,0,0,0,0,0,0,0,0,0,0],"id":3,"left_children":[1,3,5,-1,-1,7,9,11,13,15,17,19,21,23,25,27,29,31,33,35,37,-1,39,41,-1,-1,-1,43,-1,-1,-1,-1,45,47,49,-1,-1,-1,-1,-1,-1,-1,-1,-1,-1,-1,-1,-1,-1,-1,-1],"loss_changes":[7.5071144E0,1.0430388E0,5.4543376E0,0E0,0E0,5.641281E0,6.0230784E0,4.8317676E0,6.5987597E0,3.0966463E0,4.824752E0,4.4888515E0,3.2577333E0,3.414686E0,1.7894802E0,2.1418047E0,4.8498564E0,3.6066017E0,4.3415456E0,4.2882786E0,1.7960596E0,0E0,2.5555298E0,3.5287004E0,0E0,0E0,0E0,9.0392494E-1,0E0,0E0,0E0,0E0,5.5918965E0,4.3521047E0,4.1754117E0,0E0,0E0,0E0,0E0,0E0,0E0,0E0,0E0,0E0,0E0,0E0,0E0,0E0,0E0,0E0,0E0],"parents":[2147483647,0,0,1,1,2,2,5,5,6,6,7,7,8,8,9,9,10,10,11,11,12,12,13,13,14,14,15,15,16,16,17,17,18,18,19,19,20,20,22,22,23,23,27,27,32,32,33,33,34,34],"right_children":[2,4,6,-1,-1,8,10,12,14,16,18,20,22,24,26,28,30,32,34,36,38,-1,40,42,-1,-1,-1,44,-1,-1,-1,-1,46,48,50,-1,-1,-1,-1,-1,-1,-1,-1,-1,-1,-1,-1,-1,-1,-1,-1],"split_conditions":[-1.7919749E0,2.649403E0,-5.637625E-1,1.22204006E-1,1.04785785E-2,3.9717603E-1,-1.6775177E-1,7.95779E-1,2.2431482E-1,6.70634E-1,-5.9461117E-1,-2.2851652E-1,-6.966239E-1,5.1121426E-1,5.6402823E-3,1.3794414E0,-2.9246536E-1,-4.0453914E-1,-1.8406047E-1,-2.881334E-1,-1.3445462E0,7.529598E-2,-4.7504935E-1,8.3286536E-1,-9.6473E-2,-1.2372185E-1,-5.4618525E-3,-1.5423981E0,-2.5679958E-3,9.71503E-2,-1.0161217E-1,-1.2753527E-1,4.9965647E-1,-3.908328E-1,1.3683432E0,4.0168297E-2,-1.0979649E-1,2.6353179E-3,1.21801674E-1,-9.097257E-2,3.765027E-2,6.809777E-2,-5.984493E-2,-1.8032676E-2,-1.2552164E-1,1.00969784E-1,-8.288482E-2,3.922337E-2,-1.1143335E-1,1.0017326E-1,-3.2549914E-2],"split_indices":[10,22,25,0,0,21,24,19,8,15,14,15,4,26,26,8,3,3,0,15,0,0,24,6,0,0,0,22,0,0,0,0,24,0,13,0,0,0,0,0,0,0,0,0,0,0,0,0,0,0,0],"split_type":[0,0,0,0,0,0,0,0,0,0,0,0,0,0,0,0,0,0,0,0,0,0,0,0,0,0,0,0,0,0,0,0,0,0,0,0,0,0,0,0,0,0,0,0,0,0,0,0,0,0,0],"sum_hessian":[9.6173706E1,5.5832615E0,9.059044E1,4.3562074E0,1.2270544E0,5.0379387E1,4.0211056E1,3.206327E1,1.8316114E1,1.5972918E1,2.4238138E1,2.4406536E1,7.656735E0,1.1326347E1,6.9897676E0,1.300678E1,2.9661384E0,8.018662E0,1.6219475E1,1.3863545E1,1.0542991E1,1.4739732E0,6.1827617E0,1.0102583E1,1.2237644E0,5.261679E0,1.7280883E0,1.1017743E1,1.9890363E0,1.7282401E0,1.2378982E0,3.3267772E0,4.691885E0,5.8995037E0,1.0319971E1,1.2623256E1,1.2402897E0,1.4982688E0,9.044722E0,4.697898E0,1.4848639E0,8.125057E0,1.9775258E0,1.2420624E0,9.775681E0,1.992466E0,2.6994188E0,3.1922784E0,2.7072256E0,7.6068783E0,2.7130933E0],"tree_param":{"num_deleted":"0","num_feature":"29","num_nodes":"51","size_leaf_vector":"1"}},{"base_weights":[-4.53522E-3,9.625312E-1,-7.358814E-2,2.2986615E-2,1.2350793E-1,-1.4002705E-2,-9.3973887E-1,-5.0822604E-1,1.037151E-1,-6.9185597E-4,-1.1798896E-1,6.0501914E-2,-6.336049E-1,3.1645253E-1,-1.8516202E-1,-9.645523E-1,-2.4887168E-1,7.9359335E-1,5.60973E-2,3.149083E-2,-8.884996E-1,-4.067358E-2,-1.3848716E-1,2.1565698E-2,-9.938089E-2,1.1288456E-1,-3.7824314E-2,-5.1609047E-2,3.2923877E-2,-5.5159338E-2,2.0819953E-2,-1.1350564E-1,-2.13928E-2],"categories":[],"categories_nodes":[],"categories_segments":[],"categories_sizes":[],"default_left":[0,0,0,0,0,0,0,0,0,0,0,0,0,0,0,0,0,0,0,0,0,0,0,0,0,0,0,0,0,0,0,0,0],"id":4,"left_children":[1,3,5,-1,-1,7,9,11,13,-1,-1,-1,15,17,19,21,23,25,27,29,31,-1,-1,-1,-1,-1,-1,-1,-1,-1,-1,-1,-1],"loss_changes":[6.4949546E0,1.0105343E0,4.6687818E0,0E0,0E0,5.049916E0,1.2965069E0,2.7132654E0,4.3728023E0,0E0,0E0,0E0,1.7324214E0,5.0236044E0,4.6608734E0,1.307744E0,3.1596282E0,6.055312E0,4.463315E0,2.609286E0,9.537034E-1,0E0,0E0,0E0,0E0,0E0,0E0,0E0,0E0,0E0,0E0,0E0,0E0],"parents":[2147483647,0,0,1,1,2,2,5,5,6,6,7,7,8,8,12,12,13,13,14,14,15,15,16,16,17,17,18,18,19,19,20,20],"right_children":[2,4,6,-1,-1,8,10,12,14,-1,-1,-1,16,18,20,22,24,26,28,30,32,-1,-1,-1,-1,-1,-1,-1,-1,-1,-1,-1,-1],"split_conditions":[-1.7919749E0,-7.5606994E-2,1.2013035E0,2.2986615E-2,1.2350793E-1,-6.5707797E-1,-7.086793E-1,-4.906769E-1,3.9746413E-1,-6.9185597E-4,-1.1798896E-1,6.0501914E-2,2.6260474E-1,8.3665736E-2,2.3136932E-1,5.740568E-2,1.2697052E0,3.04391E-1,-4.5631593E-1,-8.9312047E-1,4.3679267E-1,-4.067358E-2,-1.3848716E-1,2.1565698E-2,-9.938089E-2,1.1288456E-1,-3.7824314E-2,-5.1609047E-2,3.2923877E-2,-5.5159338E-2,2.0819953E-2,-1.1350564E-1,-2.13928E-2],"split_indices":[10,24,19,0,0,15,4,24,21,0,0,0,20,12,8,22,22,0,3,19,0,0,0,0,0,0,0,0,0,0,0,0,0],"split_type":[0,0,0,0,0,0,0,0,0,0,0,0,0,0,0,0,0,0,0,0,0,0,0,0,0,0,0,0,0,0,0,0,0],"sum_hessian":[9.52001E1,5.482348E0,8.971776E1,1.9862629E0,3.496085E0,8.489379E1,4.823964E0,1.5692691E1,6.92011E1,1.1982799E0,3.6256843E0,1.2012455E0,1.4491445E1,3.9797565E1,2.9403534E1,6.9800982E0,7.5113463E0,1.3326535E1,2.6471031E1,2.3209435E1,6.1940994E0,3.8449926E0,3.1351058E0,5.064022E0,2.4473245E0,1.0390571E1,2.9359646E0,8.265878E0,1.8205154E1,4.904526E0,1.8304909E1,4.0362225E0,2.157877E0],"tree_param":{"num_deleted":"0","num_feature":"29","num_nodes":"33","size_leaf_vector":"1"}},{"base_weights":[-7.059148E-3,9.076515E-1,-7.1464114E-2,1.0929853E-1,6.5694163E-3,-1.222937E-1,-2.8803747E-2,-3.690395E-1,1.0631169E-1,8.90161E-1,-5.857499E-1,3.2978848E-1,-2.315891E-1,1.0727115E-2,1.1733525E-1,-7.135584E-1,3.4314212E-1,1.4437592E-1,1.0764703E0,4.4398308E-1,-5.031505E-1,-2.055785E-2,-1.1312536E-1,-1.48891155E-2,6.7562625E-2,-2.1485107E-2,5.3029377E-2,3.299116E-3,1.2655762E-1,-2.2441464E-2,1.1919498E-1,-8.38145E-2,2.8925478E-2],"categories":[],"categories_nodes":[],"categories_segments":[],"categories_sizes":[],"default_left":[0,0,0,0,0,0,0,0,0,0,0,0,0,0,0,0,0,0,0,0,0,0,0,0,0,0,0,0,0,0,0,0,0],"id":5,"left_children":[1,3,5,-1,-1,-1,7,9,11,13,15,17,19,-1,-1,21,23,25,27,29,31,-1,-1,-1,-1,-1,-1,-1,-1,-1,-1,-1,-1],"loss_changes":[5.692332E0,9.200697E-1,4.393983E0,0E0,0E0,0E0,4.0833077E0,7.405818E0,4.8896794E0,7.834058E-1,2.8718095E0,5.213361E0,4.9863715E0,0E0,0E0,3.9634676E0,6.488902E-1,4.5806947E0,1.4498711E0,4.2545342E0,5.282563E0,0E0,0E0,0E0,0E0,0E0,0E0,0E0,0E0,0E0,0E0,0E0,0E0],"parents":[2147483647,0,0,1,1,2,2,6,6,7,7,8,8,9,9,10,10,11,11,12,12,15,15,16,16,17,17,18,18,19,19,20,20],"right_children":[2,4,6,-1,-1,-1,8,10,12,14,16,18,20,-1,-1,22,24,26,28,30,32,-1,-1,-1,-1,-1,-1,-1,-1,-1,-1,-1,-1],"split_conditions":[-1.7919749E0,2.649403E0,-2.3542905E0,1.0929853E-1,6.5694163E-3,-1.222937E-1,-5.4971075E-1,-1.0488583E0,2.3988236E-1,-1.3393073E0,7.546309E-1,1.0022204E-1,-3.3162564E-1,1.0727115E-2,1.1733525E-1,-7.0253634E-1,-4.560382E-1,2.7297863E-1,-4.9381587E-1,4.7838303E-1,5.7266575E-1,-2.055785E-2,-1.1312536E-1,-1.48891155E-2,6.7562625E-2,-2.1485107E-2,5.3029377E-2,3.299116E-3,1.2655762E-1,-2.2441464E-2,1.1919498E-1,-8.38145E-2,2.8925478E-2],"split_indices":[10,22,2,0,0,0,3,20,27,23,28,13,3,0,0,22,22,23,24,15,3,0,0,0,0,0,0,0,0,0,0,0,0],"split_type":[0,0,0,0,0,0,0,0,0,0,0,0,0,0,0,0,0,0,0,0,0,0,0,0,0,0,0,0,0,0,0,0,0],"sum_hessian":[9.452342E1,5.356396E0,8.916702E1,4.1456885E0,1.2107077E0,2.1970928E0,8.696993E1,2.4228521E1,6.2741413E1,3.101219E0,2.1127302E1,3.7779358E1,2.4962055E1,1.1900609E0,1.9111582E0,1.8775724E1,2.3515778E0,3.1220247E1,6.5591106E0,6.975055E0,1.7987E1,9.145546E0,9.6301775E0,1.1709337E0,1.180644E0,1.6398848E1,1.4821399E1,1.1865013E0,5.372609E0,4.0530963E0,2.921959E0,1.26017885E1,5.385211E0],"tree_param":{"num_deleted":"0","num_feature":"29","num_nodes":"33","size_leaf_vector":"1"}},{"base_weights":[-3.8343319E-3,8.5335165E-1,-6.338396E-2,1.6934885E-2,1.1285978E-1,-1.1549225E-1,-2.3274876E-2,2.9610548E-2,-8.20526E-1,-4.271462E-1,1.3672489E-1,-8.691974E-3,-1.1856724E-1,-8.0056554E-1,-1.7153615E-3,3.6206356E-1,-1.5954685E-1,1.2329612E-2,-1.0109993E-1,7.73949E-2,-4.3930102E-2,6.88691E-2,4.1729547E-3,3.6584113E-3,-8.10645E-2],"categories":[],"categories_nodes":[],"categories_segments":[],"categories_sizes":[],"default_left":[0,0,0,0,0,0,0,0,0,0,0,0,0,0,0,0,0,0,0,0,0,0,0,0,0],"id":6,"left_children":[1,3,5,-1,-1,-1,7,9,11,13,15,-1,-1,17,19,21,23,-1,-1,-1,-1,-1,-1,-1,-1],"loss_changes":[4.8941846E0,9.815059E-1,3.8954897E0,0E0,0E0,0E0,3.710885E0,4.117361E0,1.3633106E0,2.5408094E0,4.5948977E0,0E0,0E0,1.7810221E0,3.2190669E0,4.0420885E0,3.867487E0,0E0,0E0,0E0,0E0,0E0,0E0,0E0,0E0],"parents":[2147483647,0,0,1,1,2,2,6,6,7,7,8,8,9,9,10,10,13,13,14,14,15,15,16,16],"right_children":[2,4,6,-1,-1,-1,8,10,12,14,16,-1,-1,18,20,22,24,-1,-1,-1,-1,-1,-1,-1,-1],"split_conditions":[-1.7919749E0,-7.5606994E-2,-2.3542905E0,1.6934885E-2,1.1285978E-1,-1.1549225E-1,1.2013035E0,-6.5707797E-1,-4.7856614E-1,-5.210401E-1,3.9746413E-1,-8.691974E-3,-1.1856724E-1,-1.9581485E0,-5.529889E-1,5.676443E-1,2.3136932E-1,1.2329612E-2,-1.0109993E-1,7.73949E-2,-4.3930102E-2,6.88691E-2,4.1729547E-3,3.6584113E-3,-8.10645E-2],"split_indices":[10,24,2,0,0,0,19,15,24,7,21,0,0,7,10,8,8,0,0,0,0,0,0,0,0],"split_type":[0,0,0,0,0,0,0,0,0,0,0,0,0,0,0,0,0,0,0,0,0,0,0,0,0],"sum_hessian":[9.3819984E1,5.2284904E0,8.859149E1,1.9637414E0,3.2647488E0,2.1548316E0,8.643666E1,8.1962555E1,4.4741035E0,1.5002247E1,6.696031E1,1.898306E0,2.575797E0,7.5199127E0,7.482334E0,3.790694E1,2.9053366E1,1.4719102E0,6.0480027E0,2.421429E0,5.060905E0,1.8199734E1,1.9707209E1,2.3052921E1,6.0004444E0],"tree_param":{"num_deleted":"0","num_feature":"29","num_nodes":"25","size_leaf_vector":"1"}},{"base_weights":[-5.3765704E-3,8.085085E-1,-6.098752E-2,1.583674E-2,1.0788124E-1,1.1583626E-1,-2.808696E-1,2.5606194E-1,-4.2400447E-1,-6.692071E-1,-9.09511E-3,8.635404E-2,8.68794E-1,4.450881E-1,-8.8279855E-1,-3.1616154E-1,-1.23042084E-1,-4.9259144E-1,2.3891701E-1,2.6646557E-1,-8.4844315E-1,1.1039097E0,-1.8202826E-2,-2.1406941E-2,1.05305314E-1,-1.151406E0,2.7346564E-2,-6.206309E-1,8.8784695E-2,-1.1292334E-1,5.626401E-2,-3.6989796E-1,5.8641416E-1,1.2720343E-1,5.083365E-3,-1.2662014E-1,-1.403057E-2,1.268728E-1,1.5738996E-2,-2.2530032E-2,-1.3659005E-1,3.0589363E-2,-1.010636E-1,8.647113E-2,-8.562156E-2,3.1753827E-2,-1.045254E-1,8.564802E-2,-3.5152316E-2],"categories":[],"categories_nodes":[],"categories_segments":[],"categories_sizes":[],"default_left":[0,0,0,0,0,0,0,0,0,0,0,0,0,0,0,0,0,0,0,0,0,0,0,0,0,0,0,0,0,0,0,0,0,0,0,0,0,0,0,0,0,0,0,0,0,0,0,0,0],"id":7,"left_children":[1,3,5,-1,-1,7,9,11,13,15,17,19,21,23,25,27,-1,29,31,33,35,37,-1,-1,-1,39,-1,41,-1,-1,43,45,47,-1,-1,-1,-1,-1,-1,-1,-1,-1,-1,-1,-1,-1,-1,-1,-1],"loss_changes":[4.306979E0,8.9878464E-1,3.4922214E0,0E0,0E0,3.895706E0,4.210703E0,4.119376E0,4.6562347E0,2.8674808E0,3.0577772E0,5.7313647E0,2.3351946E0,1.9722776E0,2.592393E0,4.7428565E0,0E0,3.0823593E0,3.7878828E0,6.044962E0,1.4557133E0,9.236288E-1,0E0,0E0,0E0,9.124613E-1,0E0,3.8198094E0,0E0,0E0,4.865644E0,3.4641135E0,3.1209927E0,0E0,0E0,0E0,0E0,0E0,0E0,0E0,0E0,0E0,0E0,0E0,0E0,0E0,0E0,0E0,0E0],"parents":[2147483647,0,0,1,1,2,2,5,5,6,6,7,7,8,8,9,9,10,10,11,11,12,12,13,13,14,14,15,15,17,17,18,18,19,19,20,20,21,21,25,25,27,27,30,30,31,31,32,32],"right_children":[2,4,6,-1,-1,8,10,12,14,16,18,20,22,24,26,28,-1,30,32,34,36,38,-1,-1,-1,40,-1,42,-1,-1,44,46,48,-1,-1,-1,-1,-1,-1,-1,-1,-1,-1,-1,-1,-1,-1,-1,-1],"split_conditions":[-1.7919749E0,-7.5606994E-2,-5.637625E-1,1.583674E-2,1.0788124E-1,1.0380671E0,-1.6775177E-1,2.1862388E-1,-3.37254E-1,-2.9246536E-1,-5.9461117E-1,7.4275917E-1,1.2457823E0,4.0752426E-1,2.1925645E0,6.70634E-1,-1.23042084E-1,-4.0453914E-1,-1.8406047E-1,-8.37222E-1,9.3853945E-1,1.5164704E0,-1.8202826E-2,-2.1406941E-2,1.05305314E-1,-6.30674E-1,2.7346564E-2,-1.8442114E-1,8.8784695E-2,-1.1292334E-1,3.891531E-1,-3.908328E-1,2.7541325E0,1.2720343E-1,5.083365E-3,-1.2662014E-1,-1.403057E-2,1.268728E-1,1.5738996E-2,-2.2530032E-2,-1.3659005E-1,3.0589363E-2,-1.010636E-1,8.647113E-2,-8.562156E-2,3.1753827E-2,-1.045254E-1,8.564802E-2,-3.5152316E-2],"split_indices":[10,24,25,0,0,10,24,15,27,3,14,21,7,20,20,15,0,3,0,18,0,16,0,0,0,4,0,0,0,0,3,0,25,0,0,0,0,0,0,0,0,0,0,0,0,0,0,0,0],"split_type":[0,0,0,0,0,0,0,0,0,0,0,0,0,0,0,0,0,0,0,0,0,0,0,0,0,0,0,0,0,0,0,0,0,0,0,0,0,0,0,0,0,0,0,0,0,0,0,0,0],"sum_hessian":[9.306945E1,5.086605E0,8.798284E1,1.9594873E0,3.1271179E0,4.9028507E1,3.8954338E1,3.93364E1,9.692107E0,1.5435808E1,2.3518528E1,3.1697971E1,7.6384277E0,3.3590121E0,6.3330946E0,1.04348545E1,5.0009537E0,7.6394205E0,1.5879108E1,2.717667E1,4.5213017E0,6.2005653E0,1.4378622E0,1.9225116E0,1.4365005E0,5.1426306E0,1.1904641E0,8.715428E0,1.719426E0,3.0472946E0,4.592126E0,5.746601E0,1.0132506E1,3.9336333E0,2.3243038E1,2.348032E0,2.1732697E0,4.991056E0,1.2095097E0,1.352674E0,3.7899568E0,2.6457226E0,6.069706E0,2.4626203E0,2.1295056E0,3.110393E0,2.636208E0,7.9346743E0,2.1978323E0],"tree_param":{"num_deleted":"0","num_feature":"29","num_nodes":"49","size_leaf_vector":"1"}},{"base_weights":[-5.4778294E-3,7.6753604E-1,-5.763847E-2,9.7751945E-2,1.588188E-3,-1.08596854E-1,-2.0055706E-2,-3.1912285E-1,9.6639395E-2,7.750481E-1,-5.053001E-1,2.8958818E-1,-1.9594564E-1,4.651975E-3,1.0565112E-1,-6.251559E-1,3.4323606E-1,1.23579256E-1,9.6475714E-1,4.050987E-1,-4.3841642E-1,-1.5870733E-2,-1.0205243E-1,-1.4402762E-2,6.6856705E-2,-1.8816303E-2,4.594072E-2,4.9308327E-4,1.1427589E-1,-1.9946162E-2,1.0792055E-1,-7.387886E-2,2.6432697E-2],"categories":[],"categories_nodes":[],"categories_segments":[],"categories_sizes":[],"default_left":[0,0,0,0,0,0,0,0,0,0,0,0,0,0,0,0,0,0,0,0,0,0,0,0,0,0,0,0,0,0,0,0,0],"id":8,"left_children":[1,3,5,-1,-1,-1,7,9,11,13,15,17,19,-1,-1,21,23,25,27,29,31,-1,-1,-1,-1,-1,-1,-1,-1,-1,-1,-1,-1],"loss_changes":[3.7895415E0,9.222379E-1,3.3771102E0,0E0,0E0,0E0,3.027462E0,5.348399E0,3.586887E0,7.5730395E-1,2.3909602E0,4.1495304E0,3.8860083E0,0E0,0E0,3.3614483E0,6.1848664E-1,3.4068432E0,1.2534199E0,3.4080386E0,4.123946E0,0E0,0E0,0E0,0E0,0E0,0E0,0E0,0E0,0E0,0E0,0E0,0E0],"parents":[2147483647,0,0,1,1,2,2,6,6,7,7,8,8,9,9,10,10,11,11,12,12,15,15,16,16,17,17,18,18,19,19,20,20],"right_children":[2,4,6,-1,-1,-1,8,10,12,14,16,18,20,-1,-1,22,24,26,28,30,32,-1,-1,-1,-1,-1,-1,-1,-1,-1,-1,-1,-1],"split_conditions":[-1.7919749E0,7.769083E-1,-2.3542905E0,9.7751945E-2,1.588188E-3,-1.08596854E-1,-5.4971075E-1,-1.0488583E0,2.3988236E-1,-1.3393073E0,7.546309E-1,1.0022204E-1,-3.3162564E-1,4.651975E-3,1.0565112E-1,-7.0253634E-1,-4.560382E-1,2.7297863E-1,-4.9381587E-1,4.7838303E-1,5.7266575E-1,-1.5870733E-2,-1.0205243E-1,-1.4402762E-2,6.6856705E-2,-1.8816303E-2,4.594072E-2,4.9308327E-4,1.1427589E-1,-1.9946162E-2,1.0792055E-1,-7.387886E-2,2.6432697E-2],"split_indices":[10,0,2,0,0,0,3,20,27,23,28,13,3,0,0,22,22,23,24,15,3,0,0,0,0,0,0,0,0,0,0,0,0],"split_type":[0,0,0,0,0,0,0,0,0,0,0,0,0,0,0,0,0,0,0,0,0,0,0,0,0,0,0,0,0,0,0,0,0],"sum_hessian":[9.188737E1,4.9414134E0,8.694595E1,3.6275294E0,1.313884E0,2.0820496E0,8.48639E1,2.3332502E1,6.15314E1,2.932882E0,2.039962E1,3.708529E1,2.4446108E1,1.14207E0,1.790812E0,1.8105474E1,2.2941463E0,3.0715958E1,6.3693323E0,6.834305E0,1.7611803E1,8.949009E0,9.156466E0,1.1416026E0,1.1525435E0,1.615723E1,1.4558727E1,1.1571909E0,5.2121415E0,3.9742138E0,2.8600907E0,1.2302205E1,5.309599E0],"tree_param":{"num_deleted":"0","num_feature":"29","num_nodes":"33","size_leaf_vector":"1"}},{"base_weights":[-2.6121999E-3,7.235849E-1,-5.103432E-2,1.0058215E-2,1.0073119E-1,-1.0342648E-1,-1.5564867E-2,-6.402177E-1,3.726449E-2,3.432037E-2,-9.1535646E-1,1.2526093E-1,-1.2927635E-2,-1.15402065E-1,-2.2825379E-2,-8.14226E-1,4.8153594E-2,1.6755007E-2,-1.12402536E-1,6.956961E-2,-4.1197636E-3],"categories":[],"categories_nodes":[],"categories_segments":[],"categories_sizes":[],"default_left":[0,0,0,0,0,0,0,0,0,0,0,0,0,0,0,0,0,0,0,0,0],"id":9,"left_children":[1,3,5,-1,-1,-1,7,9,11,-1,13,-1,15,-1,-1,17,19,-1,-1,-1,-1],"loss_changes":[3.2724051E0,9.2701244E-1,3.024744E0,0E0,0E0,0E0,2.8345616E0,2.1261277E0,4.8642964E0,0E0,6.3940334E-1,0E0,3.823279E0,0E0,0E0,1.8708708E0,4.239732E0,0E0,0E0,0E0,0E0],"parents":[2147483647,0,0,1,1,2,2,6,6,7,7,8,8,10,10,12,12,15,15,16,16],"right_children":[2,4,6,-1,-1,-1,8,10,12,-1,14,-1,16,-1,-1,18,20,-1,-1,-1,-1],"split_conditions":[-1.7919749E0,-7.5606994E-2,-2.3542905E0,1.0058215E-2,1.0073119E-1,-1.0342648E-1,-1.3150667E0,-5.7462335E-1,-1.5770721E0,3.432037E-2,-1.1803344E0,1.2526093E-1,-8.9312047E-1,-1.15402065E-1,-2.2825379E-2,-5.576046E-1,-5.4517174E-1,1.6755007E-2,-1.12402536E-1,6.956961E-2,-4.1197636E-3],"split_indices":[10,24,2,0,0,0,5,0,11,0,19,0,19,0,0,0,19,0,0,0,0],"split_type":[0,0,0,0,0,0,0,0,0,0,0,0,0,0,0,0,0,0,0,0,0],"sum_hessian":[9.101107E1,4.817575E0,8.619349E1,1.9313192E0,2.8862557E0,2.020655E0,8.417284E1,5.696694E0,7.847614E1,1.1912949E0,4.5053988E0,2.1622972E0,7.631384E1,2.8395417E0,1.6658571E0,4.5318775E0,7.178197E1,1.1971596E0,3.3347178E0,7.8810043E0,6.3900963E1],"tree_param":{"num_deleted":"0","num_feature":"29","num_nodes":"21","size_leaf_vector":"1"}},{"base_weights":[-2.4060146E-3,4.334294E-2,-7.325873E-1,9.947025E-2,-5.4954463E-1,8.536448E-3,-9.669897E-2,5.41537E-1,-4.374179E-2,-1.3335161E-1,-1.134223E-1,-2.736675E-1,7.810895E-1,5.8038443E-2,-5.554972E-1,-7.418682E-1,5.2095264E-1,-7.4749315E-1,7.276118E-2,9.5213306E-1,-6.4066514E-2,-1.2070996E-1,5.294581E-1,-8.386604E-1,7.068911E-2,-1.4656305E-2,-9.780101E-2,9.168095E-2,-1.24065345E-2,-5.0624707E-3,-9.961725E-2,1.938143E-2,1.082981E-1,-7.2862476E-2,6.6463366E-2,4.0369146E-3,-9.056904E-2,8.717434E-2,-3.7473973E-2,-1.1482003E-2,-1.23438396E-1],"categories":[],"categories_nodes":[],"categories_segments":[],"categories_sizes":[],"default_left":[0,0,0,0,0,0,0,0,0,0,0,0,0,0,0,0,0,0,0,0,0,0,0,0,0,0,0,0,0,0,0,0,0,0,0,0,0,0,0,0,0],"id":10,"left_children":[1,3,5,7,9,-1,-1,11,13,15,-1,17,19,21,23,25,27,29,-1,31,33,35,37,39,-1,-1,-1,-1,-1,-1,-1,-1,-1,-1,-1,-1,-1,-1,-1,-1,-1],"loss_changes":[3.0901132E0,2.9531062E0,1.1282196E0,5.114657E0,1.7189903E0,0E0,0E0,4.0708833E0,3.2440522E0,2.625307E0,0E0,3.0234497E0,2.3052626E0,4.474283E0,4.2832575E0,3.2421398E-1,9.555917E-1,6.4983654E-1,0E0,1.077527E0,2.2034364E0,4.9380307E0,4.8375573E0,2.4046812E0,0E0,0E0,0E0,0E0,0E0,0E0,0E0,0E0,0E0,0E0,0E0,0E0,0E0,0E0,0E0,0E0,0E0],"parents":[2147483647,0,0,1,1,2,2,3,3,4,4,7,7,8,8,9,9,11,11,12,12,13,13,14,14,15,15,16,16,17,17,19,19,20,20,21,21,22,22,23,23],"right_children":[2,4,6,8,10,-1,-1,12,14,16,-1,18,20,22,24,26,28,30,-1,32,34,36,38,40,-1,-1,-1,-1,-1,-1,-1,-1,-1,-1,-1,-1,-1,-1,-1,-1,-1],"split_conditions":[1.2013035E0,1.6767479E0,-7.086793E-1,-5.420083E-1,1.218237E0,8.536448E-3,-9.669897E-2,-6.426539E-1,8.663062E-1,2.11918E0,-1.134223E-1,9.8384E-1,7.9114926E-1,2.1862388E-1,8.513804E-1,-7.866081E-2,-7.570503E-1,-4.6213537E-1,7.276118E-2,-4.1092932E-1,-3.6817843E-1,1.0226098E0,1.9254853E0,-6.30674E-1,7.068911E-2,-1.4656305E-2,-9.780101E-2,9.168095E-2,-1.24065345E-2,-5.0624707E-3,-9.961725E-2,1.938143E-2,1.082981E-1,-7.2862476E-2,6.6463366E-2,4.0369146E-3,-9.056904E-2,8.717434E-2,-3.7473973E-2,-1.1482003E-2,-1.23438396E-1],"split_indices":[19,26,4,28,3,0,0,26,6,26,0,7,4,15,23,12,21,4,0,3,14,21,24,4,0,0,0,0,0,0,0,0,0,0,0,0,0,0,0,0,0],"split_type":[0,0,0,0,0,0,0,0,0,0,0,0,0,0,0,0,0,0,0,0,0,0,0,0,0,0,0,0,0,0,0,0,0,0,0,0,0,0,0,0,0],"sum_hessian":[9.0553894E1,8.6100006E1,4.45389E0,7.941427E1,6.685739E0,1.1336873E0,3.3202028E0,1.8751328E1,6.0662937E1,4.6230087E0,2.0627303E0,4.2263885E0,1.452494E1,5.1338997E1,9.323942E0,2.3259757E0,2.2970333E0,3.0408556E0,1.1855326E0,1.19748745E1,2.550065E0,3.776396E1,1.3575035E1,7.889846E0,1.4340961E0,1.1208955E0,1.2050802E0,1.1623265E0,1.1347067E0,1.1162863E0,1.9245695E0,2.1273289E0,9.847546E0,1.3337857E0,1.2162793E0,3.2121216E1,5.642746E0,9.873356E0,3.7016792E0,3.2447822E0,4.645064E0],"tree_param":{"num_deleted":"0","num_feature":"29","num_nodes":"41","size_leaf_vector":"1"}},{"base_weights":[-4.9080243E-3,8.5049826E-1,-4.214886E-2,9.905561E-2,2.281044E-2,6.0488874E-1,-8.755498E-2,9.6906453E-1,-3.202496E-2,-4.0720335E-1,2.8188081E-2,1.1027932E-1,2.7828908E-2,-1.6123375E-1,-9.418109E-1,-3.8025028E-1,1.47088E-1,-3.8368914E-1,8.6813286E-2,-1.1479997E-1,3.4581725E-3,4.338551E-2,-5.6097454E-1,-3.31859E-1,2.674717E-1,-6.729745E-2,4.1126736E-2,2.9121278E-2,-7.6430954E-2,3.428131E-2,-1.0414385E-1,-4.6527535E-2,3.926617E-2],"categories":[],"categories_nodes":[],"categories_segments":[],"categories_sizes":[],"default_left":[0,0,0,0,0,0,0,0,0,0,0,0,0,0,0,0,0,0,0,0,0,0,0,0,0,0,0,0,0,0,0,0,0],"id":11,"left_children":[1,3,5,-1,-1,7,9,11,-1,13,15,-1,-1,17,19,21,23,25,-1,-1,-1,-1,27,29,31,-1,-1,-1,-1,-1,-1,-1,-1],"loss_changes":[2.925459E0,1.08048916E-1,2.6347375E0,0E0,0E0,2.2943766E0,3.0817933E0,1.06387615E-1,0E0,2.7576575E0,3.0601537E0,0E0,0E0,4.0794277E0,1.4017634E0,2.33659E0,2.8929286E0,3.530045E0,0E0,0E0,0E0,0E0,2.315557E0,5.2474127E0,3.7987652E0,0E0,0E0,0E0,0E0,0E0,0E0,0E0,0E0],"parents":[2147483647,0,0,1,1,2,2,5,5,6,6,7,7,9,9,10,10,13,13,14,14,15,15,16,16,17,17,22,22,23,23,24,24],"right_children":[2,4,6,-1,-1,8,10,12,-1,14,16,-1,-1,18,20,22,24,26,-1,-1,-1,-1,28,30,32,-1,-1,-1,-1,-1,-1,-1,-1],"split_conditions":[-1.873577E0,5.552798E-1,-1.0859407E0,9.905561E-2,2.281044E-2,9.919882E-1,-5.4971075E-1,2.3558713E-1,-3.202496E-2,6.1414725E-1,-7.254356E-1,1.1027932E-1,2.7828908E-2,2.627531E-1,1.2544141E0,-5.9798574E-1,-8.9312047E-1,1.2314494E0,8.6813286E-2,-1.1479997E-1,3.4581725E-3,4.338551E-2,-5.795856E-1,-1.5614896E0,-5.797418E-1,-6.729745E-2,4.1126736E-2,2.9121278E-2,-7.6430954E-2,3.428131E-2,-1.0414385E-1,-4.6527535E-2,3.926617E-2],"split_indices":[11,0,20,0,0,21,3,0,0,5,0,0,0,15,17,26,19,8,0,0,0,0,25,11,25,0,0,0,0,0,0,0,0],"split_type":[0,0,0,0,0,0,0,0,0,0,0,0,0,0,0,0,0,0,0,0,0,0,0,0,0,0,0,0,0,0,0,0,0],"sum_hessian":[8.970843E1,2.8315325E0,8.68769E1,1.8285303E0,1.0030022E0,4.8888597E0,8.198804E1,3.4738977E0,1.4149622E0,2.1126015E1,6.0862022E1,2.4107406E0,1.0631571E0,1.536039E1,5.765626E0,1.3227069E1,4.7634953E1,1.3146558E1,2.2138321E0,4.615249E0,1.1503769E0,2.1484292E0,1.1078639E1,9.215274E0,3.8419678E1,9.751444E0,3.3951137E0,2.0509257E0,9.027714E0,4.988787E0,4.226487E0,5.209792E0,3.320989E1],"tree_param":{"num_deleted":"0","num_feature":"29","num_nodes":"33","size_leaf_vector":"1"}},{"base_weights":[-3.4884997E-3,3.8969014E-2,-6.8648285E-1,9.177169E-2,-5.1881415E-1,-4.9844338E-3,-1.0419897E-1,5.0376385E-1,-4.0768854E-2,-7.882309E-1,1.4434657E-2,-2.711874E-1,7.358346E-1,4.9969554E-2,-5.005741E-1,-1.1518651E-1,-1.0277557E-2,-7.215133E-1,6.854893E-2,1.8332094E-1,1.0128576E0,-7.9697764E-1,1.4468127E-1,-7.6487315E-1,6.533896E-2,-1.6442966E-2,-1.0462952E-1,-5.5101402E-2,6.2228907E-2,1.1138674E-1,1.2264959E-2,-1.1310905E-1,-2.8633412E-3,8.492942E-2,4.2746235E-3,-8.019465E-3,-1.1499818E-1],"categories":[],"categories_nodes":[],"categories_segments":[],"categories_sizes":[],"default_left":[0,0,0,0,0,0,0,0,0,0,0,0,0,0,0,0,0,0,0,0,0,0,0,0,0,0,0,0,0,0,0,0,0,0,0,0,0],"id":12,"left_children":[1,3,5,7,9,-1,-1,11,13,15,-1,17,19,21,23,-1,-1,25,-1,27,29,31,33,35,-1,-1,-1,-1,-1,-1,-1,-1,-1,-1,-1,-1,-1],"loss_changes":[2.6345909E0,2.5691528E0,1.1514513E0,4.3376555E0,1.4634414E0,0E0,0E0,3.6738076E0,2.5592763E0,1.2591324E0,0E0,2.7273545E0,2.1309605E0,4.257628E0,3.580772E0,0E0,0E0,5.536852E-1,0E0,2.3657975E0,7.5000095E-1,1.3404021E0,3.3604424E0,2.1965122E0,0E0,0E0,0E0,0E0,0E0,0E0,0E0,0E0,0E0,0E0,0E0,0E0,0E0],"parents":[2147483647,0,0,1,1,2,2,3,3,4,4,7,7,8,8,9,9,11,11,12,12,13,13,14,14,17,17,19,19,20,20,21,21,22,22,23,23],"right_children":[2,4,6,8,10,-1,-1,12,14,16,-1,18,20,22,24,-1,-1,26,-1,28,30,32,34,36,-1,-1,-1,-1,-1,-1,-1,-1,-1,-1,-1,-1,-1],"split_conditions":[1.2013035E0,1.6767479E0,9.2196995E-1,-5.420083E-1,-7.42486E-1,-4.9844338E-3,-1.0419897E-1,-6.426539E-1,8.663062E-1,3.877617E-1,1.4434657E-2,9.8384E-1,-1.0254309E0,-3.37254E-1,8.513804E-1,-1.1518651E-1,-1.0277557E-2,1.3023303E-1,6.854893E-2,4.5614928E-1,-2.6644185E-1,-4.7528887E-1,-4.906769E-1,-6.30674E-1,6.533896E-2,-1.6442966E-2,-1.0462952E-1,-5.5101402E-2,6.2228907E-2,1.1138674E-1,1.2264959E-2,-1.1310905E-1,-2.8633412E-3,8.492942E-2,4.2746235E-3,-8.019465E-3,-1.1499818E-1],"split_indices":[19,26,9,28,27,0,0,26,6,18,0,7,27,27,23,0,0,0,0,23,21,24,24,4,0,0,0,0,0,0,0,0,0,0,0,0,0],"split_type":[0,0,0,0,0,0,0,0,0,0,0,0,0,0,0,0,0,0,0,0,0,0,0,0,0,0,0,0,0,0,0,0,0,0,0,0,0],"sum_hessian":[8.893095E1,8.461397E1,4.316981E0,7.8059875E1,6.554086E0,1.9554266E0,2.3615541E0,1.831823E1,5.974165E1,4.5265326E0,2.0275536E0,4.1826386E0,1.41355915E1,5.063969E1,9.10196E0,2.512966E0,2.0135667E0,3.011079E0,1.1715593E0,5.2755084E0,8.860084E0,4.3475466E0,4.629214E1,7.6801157E0,1.4218441E0,1.6636953E0,1.3473837E0,1.8782308E0,3.3972774E0,7.7315574E0,1.128526E0,2.7009358E0,1.6466107E0,4.9239874E0,4.1368156E1,3.199685E0,4.4804306E0],"tree_param":{"num_deleted":"0","num_feature":"29","num_nodes":"37","size_leaf_vector":"1"}},{"base_weights":[-5.7615726E-3,8.07335E-2,-4.0541887E-2,5.65493E-1,-8.2826994E-2,1.0238725E-1,-1.5220282E-2,-3.6387753E-2,-7.922719E-1,-1.5994295E-1,2.1162006E-1,9.571384E-3,-1.0646137E-1,-3.1750973E-2,-6.235965E-1,6.9375545E-1,-1.3728884E-1,-6.458069E-2,7.607157E-3,-9.546875E-2,8.01814E-3,-2.732771E-2,8.529278E-2,2.5331428E-2,-4.892722E-2],"categories":[],"categories_nodes":[],"categories_segments":[],"categories_sizes":[],"default_left":[0,0,0,0,0,0,0,0,0,0,0,0,0,0,0,0,0,0,0,0,0,0,0,0,0],"id":13,"left_children":[1,-1,3,5,7,-1,-1,9,11,13,15,-1,-1,17,19,21,23,-1,-1,-1,-1,-1,-1,-1,-1],"loss_changes":[2.5562987E0,0E0,2.264214E0,2.0544636E0,2.6647186E0,0E0,0E0,2.4172795E0,1.3049617E0,3.0998225E0,4.5186267E0,0E0,0E0,2.8412786E0,2.7130551E0,1.9578128E0,2.3360875E0,0E0,0E0,0E0,0E0,0E0,0E0,0E0,0E0],"parents":[2147483647,0,0,2,2,3,3,4,4,7,7,8,8,9,9,10,10,13,13,14,14,15,15,16,16],"right_children":[2,-1,4,6,8,-1,-1,10,12,14,16,-1,-1,18,20,22,24,-1,-1,-1,-1,-1,-1,-1,-1],"split_conditions":[-1.873577E0,8.07335E-2,-1.0859407E0,3.0654743E-1,1.2013035E0,1.0238725E-1,-1.5220282E-2,2.1862388E-1,-1.0141584E0,4.8177835E-1,1.015254E0,9.571384E-3,-1.0646137E-1,-6.426539E-1,-1.1709632E-1,-8.9312047E-1,-1.9579351E-1,-6.458069E-2,7.607157E-3,-9.546875E-2,8.01814E-3,-2.732771E-2,8.529278E-2,2.5331428E-2,-4.892722E-2],"split_indices":[11,0,20,27,19,0,0,15,21,21,15,0,0,26,26,19,3,0,0,0,0,0,0,0,0],"split_type":[0,0,0,0,0,0,0,0,0,0,0,0,0,0,0,0,0,0,0,0,0,0,0,0,0],"sum_hessian":[8.8235855E1,2.7083135E0,8.552754E1,4.771306E0,8.075623E1,2.651335E0,2.1199708E0,7.678152E1,3.974717E0,5.1486504E1,2.5295012E1,1.0851328E0,2.889584E0,4.117173E1,1.03147745E1,1.0205002E1,1.5090011E1,5.404312E0,3.5767418E1,6.7722588E0,3.5425158E0,1.341007E0,8.863995E0,7.285484E0,7.804527E0],"tree_param":{"num_deleted":"0","num_feature":"29","num_nodes":"25","size_leaf_vector":"1"}},{"base_weights":[-5.675108E-3,6.2814695E-1,-4.6186548E-2,6.28623E-3,9.142684E-2,-4.4638276E-1,2.8088242E-2,-7.6652646E-1,-4.56531E-2,4.7122905E-1,-7.591856E-2,-9.5987517E-1,1.1976349E-2,6.9705956E-2,-3.843971E-1,6.5838295E-1,-4.3231238E-2,8.3924785E-2,-6.6599613E-1,8.6310925E-4,-1.1746886E-1,-8.194867E-2,1.6405585E-1,7.581201E-2,1.0848093E0,-6.8375856E-1,1.7161658E-1,-8.696743E-1,4.423402E-2,6.369042E-2,-4.0085148E-2,5.595162E-2,-9.386631E-2,7.977507E-3,1.3165571E-1,8.699009E-4,-9.738965E-2,7.955285E-2,6.2800967E-3,-6.0184975E-3,-1.07321315E-1],"categories":[],"categories_nodes":[],"categories_segments":[],"categories_sizes":[],"default_left":[0,0,0,0,0,0,0,0,0,0,0,0,0,0,0,0,0,0,0,0,0,0,0,0,0,0,0,0,0,0,0,0,0,0,0,0,0,0,0,0,0],"id":14,"left_children":[1,3,5,-1,-1,7,9,11,13,15,17,19,-1,-1,21,23,-1,25,27,-1,-1,-1,29,31,33,35,37,39,-1,-1,-1,-1,-1,-1,-1,-1,-1,-1,-1,-1,-1],"loss_changes":[2.3005714E0,8.1321144E-1,2.511872E0,0E0,0E0,1.6612439E0,3.347848E0,1.3636112E0,2.012771E0,2.6180305E0,5.626683E0,1.2776923E0,0E0,0E0,1.4248003E0,2.8559752E0,0E0,3.3057146E0,3.251852E0,0E0,0E0,0E0,1.116829E0,3.5055962E0,1.4680185E0,1.0242815E0,2.8901196E0,1.7587337E0,0E0,0E0,0E0,0E0,0E0,0E0,0E0,0E0,0E0,0E0,0E0,0E0,0E0],"parents":[2147483647,0,0,1,1,2,2,5,5,6,6,7,7,8,8,9,9,10,10,11,11,14,14,15,15,17,17,18,18,22,22,23,23,24,24,25,25,26,26,27,27],"right_children":[2,4,6,-1,-1,8,10,12,14,16,18,20,-1,-1,22,24,-1,26,28,-1,-1,-1,30,32,34,36,38,40,-1,-1,-1,-1,-1,-1,-1,-1,-1,-1,-1,-1,-1],"split_conditions":[-1.7919749E0,-7.5606994E-2,-7.4299544E-1,6.28623E-3,9.142684E-2,2.6260474E-1,-5.420083E-1,1.7930517E-2,-4.9422017E-1,1.422345E0,8.663062E-1,-1.6512698E0,1.1976349E-2,6.9705956E-2,-1.3035922E0,-3.326019E-1,-4.3231238E-2,-3.37254E-1,8.513804E-1,8.6310925E-4,-1.1746886E-1,-8.194867E-2,-6.273967E-1,-8.0639803E-1,-1.2735897E0,-4.654443E-1,-5.795562E-1,-1.1168094E0,4.423402E-2,6.369042E-2,-4.0085148E-2,5.595162E-2,-9.386631E-2,7.977507E-3,1.3165571E-1,8.699009E-4,-9.738965E-2,7.955285E-2,6.2800967E-3,-6.0184975E-3,-1.07321315E-1],"split_indices":[10,24,14,0,0,20,28,5,25,26,6,21,0,0,27,26,0,27,23,0,0,0,21,16,21,27,25,26,0,0,0,0,0,0,0,0,0,0,0,0,0],"split_type":[0,0,0,0,0,0,0,0,0,0,0,0,0,0,0,0,0,0,0,0,0,0,0,0,0,0,0,0,0,0,0,0,0,0,0,0,0,0,0,0,0],"sum_hessian":[8.746655E1,4.3832326E0,8.308332E1,1.8829095E0,2.500323E0,1.2221797E1,7.086153E1,6.2865963E0,5.9352007E0,1.2798847E1,5.806268E1,5.0925946E0,1.1940018E0,1.5277526E0,4.4074483E0,1.0827448E1,1.9713994E0,4.636174E1,1.1700941E1,1.0987226E0,3.993872E0,2.182157E0,2.225291E0,5.0736976E0,5.7537503E0,4.0560884E0,4.230565E1,1.0066382E1,1.6345584E0,1.1419706E0,1.0833205E0,3.7392712E0,1.3344262E0,1.3300176E0,4.4237328E0,1.484094E0,2.5719943E0,5.34551E0,3.696014E1,2.2828815E0,7.7835007E0],"tree_param":{"num_deleted":"0","num_feature":"29","num_nodes":"41","size_leaf_vector":"1"}},{"base_weights":[-5.4372754E-3,7.458286E-1,-3.6679447E-2,8.801644E-2,2.1693258E-2,-9.033906E-2,-7.1181515E-3,1.1832614E-1,-1.8469171E-1,-1.8225746E-2,5.588558E-1,-9.138224E-2,-1.04533456E-1,-2.3565595E-1,3.203435E-1,9.0270627E-1,-3.1731507E-1,-3.7257937E-1,2.4510853E-1,-8.0544196E-2,-8.086472E-3,-4.5210246E-2,5.4771155E-2,1.0793408E-1,9.033668E-3,4.164515E-2,-9.4982915E-2,5.30692E-2,-4.861573E-2,6.250268E-2,-3.4005705E-2],"categories":[],"categories_nodes":[],"categories_segments":[],"categories_sizes":[],"default_left":[0,0,0,0,0,0,0,0,0,0,0,0,0,0,0,0,0,0,0,0,0,0,0,0,0,0,0,0,0,0,0],"id":15,"left_children":[1,3,5,-1,-1,-1,7,9,11,13,15,17,-1,19,21,23,25,27,29,-1,-1,-1,-1,-1,-1,-1,-1,-1,-1,-1,-1],"loss_changes":[2.0825262E0,6.0780168E-2,2.1718402E0,0E0,0E0,0E0,1.8756826E0,2.980602E0,2.7025957E0,2.9216971E0,3.8161259E0,3.1693974E0,0E0,2.062176E0,2.9775352E0,1.1471515E0,2.2714882E0,2.1167836E0,3.6389914E0,0E0,0E0,0E0,0E0,0E0,0E0,0E0,0E0,0E0,0E0,0E0,0E0],"parents":[2147483647,0,0,1,1,2,2,6,6,7,7,8,8,9,9,10,10,11,11,13,13,14,14,15,15,16,16,17,17,18,18],"right_children":[2,4,6,-1,-1,-1,8,10,12,14,16,18,-1,20,22,24,26,28,30,-1,-1,-1,-1,-1,-1,-1,-1,-1,-1,-1,-1],"split_conditions":[-1.873577E0,-2.640493E-1,-2.3542905E0,8.801644E-2,2.1693258E-2,-9.033906E-2,1.7830622E-1,-1.3321211E-2,1.1334043E0,2.368705E-1,5.974635E-1,2.1862388E-1,-1.04533456E-1,-5.57305E-1,-6.426539E-1,4.8177835E-1,-3.7518707E-1,-7.8573906E-1,-9.0113565E-2,-8.0544196E-2,-8.086472E-3,-4.5210246E-2,5.4771155E-2,1.0793408E-1,9.033668E-3,4.164515E-2,-9.4982915E-2,5.30692E-2,-4.861573E-2,6.250268E-2,-3.4005705E-2],"split_indices":[11,4,2,0,0,0,27,13,11,23,19,15,0,2,26,21,16,4,26,0,0,0,0,0,0,0,0,0,0,0,0],"split_type":[0,0,0,0,0,0,0,0,0,0,0,0,0,0,0,0,0,0,0,0,0,0,0,0,0,0,0,0,0,0,0],"sum_hessian":[8.656143E1,2.5428245E0,8.401861E1,1.498151E0,1.0446734E0,1.7961831E0,8.222243E1,4.837925E1,3.3843174E1,3.7663303E1,1.0715944E1,3.1530834E1,2.3123417E0,2.3119717E1,1.4543588E1,7.674016E0,3.041929E0,1.7118267E1,1.4412567E1,4.041086E0,1.907863E1,3.0825865E0,1.1461001E1,6.0335097E0,1.6405061E0,1.5663879E0,1.4755411E0,1.5018384E0,1.5616427E1,8.697562E0,5.7150054E0],"tree_param":{"num_deleted":"0","num_feature":"29","num_nodes":"31","size_leaf_vector":"1"}},{"base_weights":[-5.6877905E-3,5.837331E-1,-4.2625926E-2,7.958918E-1,-7.2023124E-3,-4.222084E-1,2.7385617E-2,9.197951E-2,2.175851E-2,-7.2012687E-1,-4.691205E-2,4.3719634E-1,-6.801644E-2,-8.996142E-1,9.80471E-3,5.687927E-2,-4.0657768E-1,6.133285E-1,-4.072895E-2,7.7164054E-2,-6.1690927E-1,2.6718606E-3,-1.11010924E-1,-7.666516E-2,1.4118544E-2,6.8640314E-2,1.0215907E0,-6.3953054E-1,1.5871437E-1,-8.1137735E-1,4.1937597E-2,5.2400537E-2,-8.954772E-2,8.185941E-3,1.2424564E-1,-9.568321E-2,1.7222626E-3,4.4812527E-2,-5.92576E-3,-2.5992913E-2,-1.1040129E-1],"categories":[],"categories_nodes":[],"categories_segments":[],"categories_sizes":[],"default_left":[0,0,0,0,0,0,0,0,0,0,0,0,0,0,0,0,0,0,0,0,0,0,0,0,0,0,0,0,0,0,0,0,0,0,0,0,0,0,0,0,0],"id":16,"left_children":[1,3,5,7,-1,9,11,-1,-1,13,15,17,19,21,-1,-1,23,25,-1,27,29,-1,-1,-1,-1,31,33,35,37,39,-1,-1,-1,-1,-1,-1,-1,-1,-1,-1,-1],"loss_changes":[1.9110436E0,7.7756727E-1,2.2028172E0,8.608675E-2,0E0,1.4086432E0,2.788174E0,0E0,0E0,1.1341114E0,1.7323987E0,2.2515209E0,4.677215E0,1.1877227E0,0E0,0E0,1.0672491E0,2.4948325E0,0E0,2.8387384E0,2.811623E0,0E0,0E0,0E0,0E0,3.1093407E0,1.2517104E0,1.0549612E0,2.7296596E0,1.434298E0,0E0,0E0,0E0,0E0,0E0,0E0,0E0,0E0,0E0,0E0,0E0],"parents":[2147483647,0,0,1,1,2,2,3,3,5,5,6,6,9,9,10,10,11,11,12,12,13,13,16,16,17,17,19,19,20,20,25,25,26,26,27,27,28,28,29,29],"right_children":[2,4,6,8,-1,10,12,-1,-1,14,16,18,20,22,-1,-1,24,26,-1,28,30,-1,-1,-1,-1,32,34,36,38,40,-1,-1,-1,-1,-1,-1,-1,-1,-1,-1,-1],"split_conditions":[-1.7919749E0,7.769083E-1,-7.4299544E-1,1.8761685E-1,-7.2023124E-3,2.6260474E-1,-5.420083E-1,9.197951E-2,2.175851E-2,1.7930517E-2,-4.464072E-1,1.422345E0,8.663062E-1,-1.6512698E0,9.80471E-3,5.687927E-2,-4.346489E-1,-3.326019E-1,-4.072895E-2,-3.37254E-1,8.513804E-1,2.6718606E-3,-1.11010924E-1,-7.666516E-2,1.4118544E-2,-8.0639803E-1,-1.2735897E0,-4.7528887E-1,3.9746413E-1,-6.30674E-1,4.1937597E-2,5.2400537E-2,-8.954772E-2,8.185941E-3,1.2424564E-1,-9.568321E-2,1.7222626E-3,4.4812527E-2,-5.92576E-3,-2.5992913E-2,-1.1040129E-1],"split_indices":[10,0,14,3,0,20,28,0,0,5,25,26,6,21,0,0,16,26,0,27,23,0,0,0,0,16,21,24,21,4,0,0,0,0,0,0,0,0,0,0,0],"split_type":[0,0,0,0,0,0,0,0,0,0,0,0,0,0,0,0,0,0,0,0,0,0,0,0,0,0,0,0,0,0,0,0,0,0,0,0,0,0,0,0,0],"sum_hessian":[8.5631996E1,4.176984E0,8.145502E1,2.9944727E0,1.1825113E0,1.1900948E1,6.955407E1,1.9798E0,1.0146726E0,6.1221933E0,5.778754E0,1.2457735E1,5.7096333E1,4.9391303E0,1.1830631E0,1.9164947E0,3.8622594E0,1.0534341E1,1.9233941E0,4.583305E1,1.1263284E1,1.0761865E0,3.8629436E0,2.0892677E0,1.7729917E0,5.0135612E0,5.5207796E0,3.9833882E0,4.1849663E1,9.666343E0,1.5969417E0,3.7152796E0,1.2982817E0,1.3114601E0,4.2093196E0,2.3777144E0,1.6056739E0,1.752503E1,2.432463E1,4.0058575E0,5.660485E0],"tree_param":{"num_deleted":"0","num_feature":"29","num_nodes":"41","size_leaf_vector":"1"}},{"base_weights":[-6.3378136E-3,-8.403579E-2,1.886332E-2,2.7346778E-1,-7.3207766E-2,-8.5248925E-2,5.546491E-1,4.5212295E-2,-5.769315E-1,4.8308983E-1,-4.2640567E-1,2.7802205E-1,1.0597409E-1,-6.469453E-1,1.19893625E-1,-7.633814E-1,3.9484818E-2,1.07475914E-1,-2.4059204E-2,5.0006688E-2,-6.559852E-1,-5.804686E-1,7.148387E-1,-9.4918296E-2,1.6158944E-3,-7.159851E-1,1.8817995E-1,-3.1178504E-2,-9.6170264E-1,4.7276698E-2,-9.666114E-2,-9.266173E-2,1.5421986E-2,1.0046096E-1,-2.853464E-2,7.275503E-3,-1.04083054E-1,5.3936433E-2,-4.1415873E-3,6.650533E-2,-7.653106E-2,-4.0629907E-3,-1.0881086E-1],"categories":[],"categories_nodes":[],"categories_segments":[],"categories_sizes":[],"default_left":[0,0,0,0,0,0,0,0,0,0,0,0,0,0,0,0,0,0,0,0,0,0,0,0,0,0,0,0,0,0,0,0,0,0,0,0,0,0,0,0,0,0,0],"id":17,"left_children":[1,-1,3,5,7,9,11,13,15,17,19,21,-1,23,25,27,-1,-1,-1,-1,29,31,33,-1,-1,35,37,39,41,-1,-1,-1,-1,-1,-1,-1,-1,-1,-1,-1,-1,-1,-1],"loss_changes":[1.8172343E0,0E0,1.993106E0,2.3233151E0,3.760513E0,2.296602E0,1.4914281E0,2.7456431E0,2.4736795E0,2.191102E0,1.8741398E0,4.0206313E0,0E0,1.0541141E0,2.8421412E0,1.4801998E0,0E0,0E0,0E0,0E0,2.6511598E0,1.1078542E0,2.263476E0,0E0,0E0,1.0469043E0,3.621853E0,2.1701434E0,9.046731E-1,0E0,0E0,0E0,0E0,0E0,0E0,0E0,0E0,0E0,0E0,0E0,0E0,0E0,0E0],"parents":[2147483647,0,0,2,2,3,3,4,4,5,5,6,6,7,7,8,8,9,9,10,10,11,11,13,13,14,14,15,15,20,20,21,21,22,22,25,25,26,26,27,27,28,28],"right_children":[2,-1,4,6,8,10,12,14,16,18,20,22,-1,24,26,28,-1,-1,-1,-1,30,32,34,-1,-1,36,38,40,42,-1,-1,-1,-1,-1,-1,-1,-1,-1,-1,-1,-1,-1,-1],"split_conditions":[-1.9137329E0,-8.403579E-2,-5.420083E-1,-1.0066527E0,8.663062E-1,-1.4640907E0,3.281897E-1,-3.37254E-1,8.513804E-1,4.9642482E-1,-6.8149567E-1,1.1365616E-1,1.0597409E-1,-4.7528887E-1,-9.685129E-1,-1.1168094E0,3.9484818E-2,1.07475914E-1,-2.4059204E-2,5.0006688E-2,-1.4874661E0,-2.732969E-1,-6.157901E-1,-9.4918296E-2,1.6158944E-3,-1.2091131E0,1.8908153E-1,-4.3765873E-2,-5.8594626E-1,4.7276698E-2,-9.666114E-2,-9.266173E-2,1.5421986E-2,1.0046096E-1,-2.853464E-2,7.275503E-3,-1.04083054E-1,5.3936433E-2,-4.1415873E-3,6.650533E-2,-7.653106E-2,-4.0629907E-3,-1.0881086E-1],"split_indices":[21,0,28,27,6,28,20,27,23,20,4,12,0,24,3,26,0,0,0,0,7,16,21,0,0,22,28,0,25,0,0,0,0,0,0,0,0,0,0,0,0,0,0],"split_type":[0,0,0,0,0,0,0,0,0,0,0,0,0,0,0,0,0,0,0,0,0,0,0,0,0,0,0,0,0,0,0,0,0,0,0,0,0,0,0,0,0,0,0],"sum_hessian":[8.470561E1,1.5357171E0,8.316989E1,2.1565254E1,6.160464E1,9.782309E0,1.1782946E1,5.0615677E1,1.0988962E1,3.5133407E0,6.268968E0,8.615096E0,3.16785E0,4.183124E0,4.6432552E1,9.399904E0,1.5890577E0,1.6660674E0,1.8472733E0,1.0109746E0,5.257993E0,2.794368E0,5.820728E0,2.5770853E0,1.6060386E0,2.7904305E0,4.3642124E1,2.2500222E0,7.1498823E0,1.0220591E0,4.2359343E0,1.72187E0,1.0724981E0,4.5097513E0,1.3109765E0,1.040377E0,1.7500536E0,1.6719374E1,2.692275E1,1.2031151E0,1.0469071E0,1.0222863E0,6.127596E0],"tree_param":{"num_deleted":"0","num_feature":"29","num_nodes":"43","size_leaf_vector":"1"}},{"base_weights":[-7.3289694E-3,5.535723E-1,-4.227606E-2,1.3887244E-3,8.528164E-2,-2.2519772E-1,9.2365615E-2,3.2535622E-1,-3.9613378E-1,4.762359E-1,-1.3996607E-1,-5.292661E-1,8.063066E-1,-2.0766434E-1,-8.407229E-1,9.010385E-1,2.9411545E-2,-1.10443845E-1,-1.9672798E-2,1.0342906E-2,-9.5362306E-2,1.0602858E-1,7.5198165E-3,-4.3805787E-1,1.689466E-1,-1.0568416E0,1.7852006E-2,-9.4254967E-4,1.0208231E0,6.083045E-1,-3.668434E-1,8.315413E-1,-2.3194265E-1,-8.296955E-2,-7.484238E-3,-6.43709E-2,4.8707493E-2,-3.0855367E-2,-1.2328108E-1,1.1386114E-1,4.2698994E-2,-2.150978E-2,1.0092809E-1,8.369579E-3,-7.035429E-2,-1.5184537E-2,1.0749687E-1,-5.232808E-2,1.5379444E-2],"categories":[],"categories_nodes":[],"categories_segments":[],"categories_sizes":[],"default_left":[0,0,0,0,0,0,0,0,0,0,0,0,0,0,0,0,0,0,0,0,0,0,0,0,0,0,0,0,0,0,0,0,0,0,0,0,0,0,0,0,0,0,0,0,0,0,0,0,0],"id":18,"left_children":[1,3,5,-1,-1,7,9,11,13,15,17,19,21,23,25,27,29,-1,31,-1,-1,-1,-1,33,35,37,-1,-1,39,41,43,45,47,-1,-1,-1,-1,-1,-1,-1,-1,-1,-1,-1,-1,-1,-1,-1,-1],"loss_changes":[1.6838958E0,8.0199623E-1,2.007652E0,0E0,0E0,3.3751268E0,4.2741766E0,4.0115457E0,2.0687475E0,3.3929253E0,3.4777136E0,1.1039574E0,1.0301316E0,1.8206857E0,1.8721533E0,1.0131035E0,2.4742787E0,0E0,5.222446E0,0E0,0E0,0E0,0E0,1.7541349E0,2.4754238E0,4.6892738E-1,0E0,0E0,8.323002E-2,1.657924E0,1.0372634E0,1.5454493E0,2.672155E0,0E0,0E0,0E0,0E0,0E0,0E0,0E0,0E0,0E0,0E0,0E0,0E0,0E0,0E0,0E0,0E0],"parents":[2147483647,0,0,1,1,2,2,5,5,6,6,7,7,8,8,9,9,10,10,11,11,12,12,13,13,14,14,15,15,16,16,18,18,23,23,24,24,25,25,28,28,29,29,30,30,31,31,32,32],"right_children":[2,4,6,-1,-1,8,10,12,14,16,18,20,22,24,26,28,30,-1,32,-1,-1,-1,-1,34,36,38,-1,-1,40,42,44,46,48,-1,-1,-1,-1,-1,-1,-1,-1,-1,-1,-1,-1,-1,-1,-1,-1],"split_conditions":[-1.7919749E0,-7.5606994E-2,-2.2365178E-1,1.3887244E-3,8.528164E-2,-5.79534E-1,5.224584E-1,-5.797629E-1,-2.2183685E-1,4.4634888E-1,-1.0028275E0,1.0626295E-1,1.6278496E-1,-5.7241446E-1,5.3150916E-1,-1.1191769E0,-2.1996209E-1,-1.10443845E-1,-7.022801E-1,1.0342906E-2,-9.5362306E-2,1.0602858E-1,7.5198165E-3,2.6260474E-1,-1.3150667E0,-4.603789E-1,1.7852006E-2,-9.4254967E-4,4.6038955E-1,2.1862388E-1,-2.2626834E-1,-2.3388322E-1,1.8812414E-1,-8.296955E-2,-7.484238E-3,-6.43709E-2,4.8707493E-2,-3.0855367E-2,-1.2328108E-1,1.1386114E-1,4.2698994E-2,-2.150978E-2,1.0092809E-1,8.369579E-3,-7.035429E-2,-1.5184537E-2,1.0749687E-1,-5.232808E-2,1.5379444E-2],"split_indices":[10,24,15,0,0,25,5,25,5,21,23,6,27,15,6,2,26,0,22,0,0,0,0,20,5,26,0,0,0,15,10,0,23,0,0,0,0,0,0,0,0,0,0,0,0,0,0,0,0],"split_type":[0,0,0,0,0,0,0,0,0,0,0,0,0,0,0,0,0,0,0,0,0,0,0,0,0,0,0,0,0,0,0,0,0,0,0,0,0,0,0,0,0,0,0,0,0,0,0,0,0],"sum_hessian":[8.371095E1,4.039331E0,7.9671616E1,1.8140713E0,2.2252598E0,3.349431E1,4.617731E1,7.7214713E0,2.5772837E1,1.7014791E1,2.916252E1,2.7443874E0,4.977084E0,1.9130262E1,6.642573E0,8.201225E0,8.813566E0,2.3266869E0,2.6835833E1,1.4053495E0,1.3390379E0,3.3597121E0,1.6173719E0,1.1767985E1,7.362278E0,5.450062E0,1.192511E0,1.0606563E0,7.140569E0,3.3639715E0,5.449595E0,4.774089E0,2.2061745E1,5.044471E0,6.723514E0,1.7833368E0,5.5789413E0,1.5618659E0,3.888196E0,5.1931095E0,1.9474597E0,1.2534943E0,2.1104772E0,2.6521556E0,2.797439E0,1.0219364E0,3.7521524E0,1.236567E1,9.696074E0],"tree_param":{"num_deleted":"0","num_feature":"29","num_nodes":"49","size_leaf_vector":"1"}},{"base_weights":[-6.758548E-3,3.7226436E-1,-5.8840282E-2,-2.4561156E-1,7.436806E-1,-6.340118E-1,1.375008E-2,4.51765E-2,-7.40799E-1,2.207386E-1,1.1247356E-1,-6.917249E-2,-9.178906E-1,4.8367152E-1,-7.2350204E-2,-8.87567E-2,-2.3038546E-2,8.0549E-2,-5.0200965E-2,4.963489E-2,-5.9631865E-2,-3.1987063E-3,-1.1438842E-1,1.02710046E-1,1.5842967E-1,-6.579983E-1,3.6004628E-3,-6.2774986E-1,7.2333026E-1,2.1277035E-2,-9.776039E-1,5.350827E-1,-1.0916072E-1,-4.3493365E-3,-8.3004795E-2,1.04979396E-1,6.5393643E-3,-2.5880381E-2,-1.172876E-1,7.736593E-2,-5.1664658E-2,-2.9687375E-2,2.2012126E-2],"categories":[],"categories_nodes":[],"categories_segments":[],"categories_sizes":[],"default_left":[0,0,0,0,0,0,0,0,0,0,0,0,0,0,0,0,0,0,0,0,0,0,0,0,0,0,0,0,0,0,0,0,0,0,0,0,0,0,0,0,0,0,0],"id":19,"left_children":[1,3,5,7,9,11,13,-1,15,17,-1,19,21,23,25,-1,-1,-1,-1,-1,-1,-1,-1,-1,27,29,31,33,35,-1,37,39,41,-1,-1,-1,-1,-1,-1,-1,-1,-1,-1],"loss_changes":[1.6701521E0,2.528902E0,3.109773E0,1.9197783E0,1.0736167E0,1.2745225E0,2.742959E0,0E0,2.4972439E-2,2.1119587E0,0E0,1.4504474E0,1.0589447E0,1.6920631E0,2.5570874E0,0E0,0E0,0E0,0E0,0E0,0E0,0E0,0E0,0E0,3.8947692E0,2.0444887E0,3.1649628E0,4.1003537E-1,9.994545E-1,0E0,3.9908743E-1,2.718746E0,2.7598948E0,0E0,0E0,0E0,0E0,0E0,0E0,0E0,0E0,0E0,0E0],"parents":[2147483647,0,0,1,1,2,2,3,3,4,4,5,5,6,6,8,8,9,9,11,11,12,12,13,13,14,14,24,24,25,25,26,26,27,27,28,28,30,30,31,31,32,32],"right_children":[2,4,6,8,10,12,14,-1,16,18,-1,20,22,24,26,-1,-1,-1,-1,-1,-1,-1,-1,-1,28,30,32,34,36,-1,38,40,42,-1,-1,-1,-1,-1,-1,-1,-1,-1,-1],"split_conditions":[-1.5761199E0,-5.211074E-1,-8.5641795E-1,1.3023303E-1,-1.7342521E0,-1.2284538E0,-2.7869818E-1,4.51765E-2,-1.7098724E0,-1.8301629E0,1.1247356E-1,2.6069424E-1,-1.7552873E0,-3.5254934E-1,-1.0028275E0,-8.87567E-2,-2.3038546E-2,8.0549E-2,-5.0200965E-2,4.963489E-2,-5.9631865E-2,-3.1987063E-3,-1.1438842E-1,1.02710046E-1,8.763003E-2,-1.8442114E-1,-7.5597274E-1,6.5636635E-1,-3.9977065E-1,2.1277035E-2,5.4090005E-1,7.460789E-1,8.185418E-1,-4.3493365E-3,-8.3004795E-2,1.04979396E-1,6.5393643E-3,-2.5880381E-2,-1.172876E-1,7.736593E-2,-5.1664658E-2,-2.9687375E-2,2.2012126E-2],"split_indices":[11,26,9,0,11,9,11,0,7,11,0,3,12,26,23,0,0,0,0,0,0,0,0,0,26,0,23,16,18,0,9,27,18,0,0,0,0,0,0,0,0,0,0],"split_type":[0,0,0,0,0,0,0,0,0,0,0,0,0,0,0,0,0,0,0,0,0,0,0,0,0,0,0,0,0,0,0,0,0,0,0,0,0,0,0,0,0,0,0],"sum_hessian":[8.2497154E1,9.223776E0,7.3273384E1,3.590107E0,5.6336684E0,7.3445506E0,6.592883E1,1.5271285E0,2.0629787E0,3.0404208E0,2.5932477E0,2.8725836E0,4.4719667E0,9.494089E0,5.6434742E1,1.0283594E0,1.0346192E0,1.6173749E0,1.4230459E0,1.4140338E0,1.4585497E0,1.1409475E0,3.3310196E0,2.7467444E0,6.747345E0,5.598874E0,5.083587E1,2.774617E0,3.972728E0,1.5930003E0,4.0058737E0,8.242212E0,4.2593655E1,1.0261093E0,1.7485075E0,2.2571566E0,1.7155713E0,1.3525312E0,2.6533427E0,6.9337406E0,1.308472E0,2.719123E1,1.5402424E1],"tree_param":{"num_deleted":"0","num_feature":"29","num_nodes":"43","size_leaf_vector":"1"}},{"base_weights":[-6.4365813E-3,-7.3600166E-2,1.8356979E-2,-2.1237439E-1,1.02789715E-1,7.190206E-2,-3.3219162E-1,1.9057888E-1,-3.6073962E-1,-1.7095797E-1,-9.2092246E-1,2.7371916E-1,-3.3233145E-1,-5.694419E-1,3.8252376E-2,6.683742E-2,-2.9797715E-1,-1.0724759E-1,-2.9426828E-2,-4.2283487E-1,3.5357764E-1,-7.1040386E-1,1.683648E-1,3.7721645E-2,-8.5416603E-1,-4.050566E-2,4.365403E-2,1.9938141E-2,-9.080142E-2,-1.8580146E-2,4.3233316E-2,-3.946131E-3,-9.234803E-2,5.9024762E-2,-2.180639E-2,-1.2186563E-1,-8.288673E-3],"categories":[],"categories_nodes":[],"categories_segments":[],"categories_sizes":[],"default_left":[0,0,0,0,0,0,0,0,0,0,0,0,0,0,0,0,0,0,0,0,0,0,0,0,0,0,0,0,0,0,0,0,0,0,0,0,0],"id":20,"left_children":[1,-1,3,5,7,-1,9,11,13,15,17,19,21,23,-1,-1,25,-1,-1,27,29,31,33,-1,35,-1,-1,-1,-1,-1,-1,-1,-1,-1,-1,-1,-1],"loss_changes":[1.5078324E0,0E0,1.5973217E0,2.6930811E0,2.5054474E0,0E0,1.757087E0,2.3081658E0,1.7505276E0,2.0180576E0,7.4566126E-2,2.6277206E0,1.5294998E0,2.5098588E0,0E0,0E0,1.3967216E0,0E0,0E0,1.7018805E0,1.8013167E0,5.97625E-1,7.8289884E-1,0E0,1.7392254E0,0E0,0E0,0E0,0E0,0E0,0E0,0E0,0E0,0E0,0E0,0E0,0E0],"parents":[2147483647,0,0,2,2,3,3,4,4,6,6,7,7,8,8,9,9,10,10,11,11,12,12,13,13,16,16,19,19,20,20,21,21,22,22,24,24],"right_children":[2,-1,4,6,8,-1,10,12,14,16,18,20,22,24,-1,-1,26,-1,-1,28,30,32,34,-1,36,-1,-1,-1,-1,-1,-1,-1,-1,-1,-1,-1,-1],"split_conditions":[-2.3542905E0,-7.3600166E-2,-5.4971075E-1,-1.0708079E0,8.9907193E-1,7.190206E-2,-6.0378146E-1,1.4249117E0,5.7266575E-1,-4.9055398E-1,1.1049051E-1,-5.797418E-1,-2.128743E-2,-5.7959795E-1,3.8252376E-2,6.683742E-2,1.265501E0,-1.0724759E-1,-2.9426828E-2,-2.0418191E-1,-1.3475444E0,-1.6547395E0,1.8074857E-1,3.7721645E-2,2.0251144E-3,-4.050566E-2,4.365403E-2,1.9938141E-2,-9.080142E-2,-1.8580146E-2,4.3233316E-2,-3.946131E-3,-9.234803E-2,5.9024762E-2,-2.180639E-2,-1.2186563E-1,-8.288673E-3],"split_indices":[2,0,3,20,8,0,3,13,3,24,0,25,4,25,0,0,13,0,0,16,14,8,20,0,15,0,0,0,0,0,0,0,0,0,0,0,0],"split_type":[0,0,0,0,0,0,0,0,0,0,0,0,0,0,0,0,0,0,0,0,0,0,0,0,0,0,0,0,0,0,0,0,0,0,0,0,0],"sum_hessian":[8.1611626E1,1.739537E0,7.987209E1,2.099185E1,5.888024E1,1.8226404E0,1.9169209E1,4.9999535E1,8.880704E0,1.6061018E1,3.1081908E0,4.3551586E1,6.44795E0,7.116353E0,1.7643515E0,1.5508873E0,1.4510131E1,1.9299974E0,1.1781932E0,4.037786E0,3.95138E1,3.4352121E0,3.0127378E0,1.5703528E0,5.546E0,1.3055426E1,1.4547054E0,2.027142E0,2.0106442E0,4.8612113E0,3.4652588E1,1.1136644E0,2.3215477E0,1.1881427E0,1.8245951E0,3.3722844E0,2.1737156E0],"tree_param":{"num_deleted":"0","num_feature":"29","num_nodes":"37","size_leaf_vector":"1"}},{"base_weights":[-8.774139E-3,3.4902808E-1,-5.750688E-2,-2.345403E-1,7.065166E-1,-6.4948756E-1,5.576572E-3,4.2673502E-2,-7.072194E-2,2.1049097E-1,1.0664014E-1,4.0196236E-2,-1.0845385E-1,8.351743E-2,-3.946375E-2,7.7657886E-2,-4.7527097E-2,-2.6370857E-3,-9.443041E-2,-5.953197E-1,4.860369E-2,-4.5124996E-3,-7.3339656E-2,-2.9160378E-3,5.9614588E-2],"categories":[],"categories_nodes":[],"categories_segments":[],"categories_sizes":[],"default_left":[0,0,0,0,0,0,0,0,0,0,0,0,0,0,0,0,0,0,0,0,0,0,0,0,0],"id":21,"left_children":[1,3,5,7,9,11,13,-1,-1,15,-1,-1,-1,-1,17,-1,-1,19,-1,21,23,-1,-1,-1,-1],"loss_changes":[1.4477707E0,2.2428386E0,2.7268524E0,1.7187026E0,9.222059E-1,3.6521792E0,2.5323813E0,0E0,0E0,1.9012468E0,0E0,0E0,0E0,0E0,2.1435187E0,0E0,0E0,1.9387482E0,0E0,3.528043E-1,2.5212991E0,0E0,0E0,0E0,0E0],"parents":[2147483647,0,0,1,1,2,2,3,3,4,4,5,5,6,6,9,9,14,14,17,17,19,19,20,20],"right_children":[2,4,6,8,10,12,14,-1,-1,16,-1,-1,-1,-1,18,-1,-1,20,-1,22,24,-1,-1,-1,-1],"split_conditions":[-1.5761199E0,-5.211074E-1,-8.9312047E-1,1.3023303E-1,-1.7342521E0,-6.0856885E-1,-1.2552799E0,4.2673502E-2,-7.072194E-2,-1.8301629E0,1.0664014E-1,4.0196236E-2,-1.0845385E-1,8.351743E-2,2.4493275E0,7.7657886E-2,-4.7527097E-2,-1.3445462E0,-9.443041E-2,-4.4430804E-1,5.7266575E-1,-4.5124996E-3,-7.3339656E-2,-2.9160378E-3,5.9614588E-2],"split_indices":[11,26,19,0,11,0,12,0,0,11,0,0,0,0,24,0,0,0,0,26,3,0,0,0,0],"split_type":[0,0,0,0,0,0,0,0,0,0,0,0,0,0,0,0,0,0,0,0,0,0,0,0,0],"sum_hessian":[8.087906E1,8.956581E0,7.192248E1,3.5330734E0,5.4235077E0,6.0310345E0,6.589145E1,1.5132478E0,2.0198257E0,2.9468198E0,2.4766877E0,1.7873487E0,4.2436857E0,2.489759E0,6.3401688E1,1.5417182E0,1.4051014E0,6.1885868E1,1.5158174E0,4.0796795E0,5.780619E1,1.0846171E0,2.9950624E0,5.1446327E1,6.3598638E0],"tree_param":{"num_deleted":"0","num_feature":"29","num_nodes":"25","size_leaf_vector":"1"}},{"base_weights":[-7.8525385E-3,-8.126843E-2,1.2862045E-2,4.10961E-1,-4.5771647E-2,1.0165011E-1,-1.6928768E-1,-6.365674E-3,-7.571991E-2,8.627063E-2,-7.926748E-1,-8.364114E-2,2.6049485E-2,-1.078156E-1,-8.652615E-3,-7.502421E-2,5.813002E-2,2.039448E-2,-1.5416935E-2],"categories":[],"categories_nodes":[],"categories_segments":[],"categories_sizes":[],"default_left":[0,0,0,0,0,0,0,0,0,0,0,0,0,0,0,0,0,0,0],"id":22,"left_children":[1,-1,3,5,7,-1,9,11,-1,-1,13,-1,15,-1,-1,-1,17,-1,-1],"loss_changes":[1.3653092E0,0E0,1.8911164E0,3.825395E0,1.9804235E0,0E0,4.651196E0,1.8542596E0,0E0,0E0,7.868011E-1,0E0,1.7001238E0,0E0,0E0,0E0,2.0375607E0,0E0,0E0],"parents":[2147483647,0,0,2,2,3,3,4,4,6,6,7,7,10,10,12,12,16,16],"right_children":[2,-1,4,6,8,-1,10,12,-1,-1,14,-1,16,-1,-1,-1,18,-1,-1],"split_conditions":[-4.9603125E-1,-8.126843E-2,-7.457909E-1,6.645356E-3,1.2013035E0,1.0165011E-1,-2.470521E-1,-9.780162E-1,-7.571991E-2,8.627063E-2,8.060667E-1,-8.364114E-2,-1.7453138E0,-1.078156E-1,-8.652615E-3,-7.502421E-2,1.8908153E-1,2.039448E-2,-1.5416935E-2],"split_indices":[24,0,4,2,19,0,8,3,0,0,7,0,21,0,0,0,28,0,0],"split_type":[0,0,0,0,0,0,0,0,0,0,0,0,0,0,0,0,0,0,0],"sum_hessian":[8.026657E1,1.0547183E0,7.921185E1,9.397525E0,6.981433E1,4.230643E0,5.1668816E0,6.710626E1,2.708069E0,1.8011854E0,3.3656962E0,1.5899432E0,6.551632E1,2.0215957E0,1.3441005E0,1.7116338E0,6.3804684E1,3.7848404E1,2.595628E1],"tree_param":{"num_deleted":"0","num_feature":"29","num_nodes":"19","size_leaf_vector":"1"}},{"base_weights":[-1.0113484E-2,6.195447E-2,-3.53068E-2,-7.8877516E-2,-1.0463342E-2,-3.4314103E-2,6.988673E-2,1.1878454E-2,-4.0275124E-1,-2.237647E-1,1.15801975E-1,4.6200126E-2,-7.385152E-1,5.8715947E-2,-3.597519E-2,2.6622502E-2,-9.9257305E-3,-9.958515E-2,-1.744674E-2],"categories":[],"categories_nodes":[],"categories_segments":[],"categories_sizes":[],"default_left":[0,0,0,0,0,0,0,0,0,0,0,0,0,0,0,0,0,0,0],"id":23,"left_children":[1,-1,3,-1,5,7,-1,9,11,13,15,-1,17,-1,-1,-1,-1,-1,-1],"loss_changes":[1.3027399E0,0E0,1.4627471E0,0E0,1.3281842E0,1.2903144E0,0E0,1.693385E0,2.7928562E0,2.5468767E0,1.5763369E0,0E0,7.6494145E-1,0E0,0E0,0E0,0E0,0E0,0E0],"parents":[2147483647,0,0,2,2,4,4,5,5,7,7,8,8,9,9,10,10,12,12],"right_children":[2,-1,4,-1,6,8,-1,10,12,14,16,-1,18,-1,-1,-1,-1,-1,-1],"split_conditions":[-1.873577E0,6.195447E-2,-2.3542905E0,-7.8877516E-2,1.9016606E0,8.2613343E-1,6.988673E-2,-5.4971075E-1,-5.9798574E-1,-1.0488583E0,1.4792527E-1,4.6200126E-2,1.3450173E0,5.8715947E-2,-3.597519E-2,2.6622502E-2,-9.9257305E-3,-9.958515E-2,-1.744674E-2],"split_indices":[11,0,2,0,4,4,0,3,26,20,27,0,0,0,0,0,0,0,0],"split_type":[0,0,0,0,0,0,0,0,0,0,0,0,0,0,0,0,0,0,0],"sum_hessian":[7.974458E1,2.1603053E0,7.758428E1,1.494941E0,7.608934E1,7.453478E1,1.5545568E0,6.709105E1,7.4437346E0,2.018012E1,4.6910927E1,1.976733E0,5.467002E0,2.4216273E0,1.7758493E1,2.7463614E1,1.9447315E1,3.2285097E0,2.238492E0],"tree_param":{"num_deleted":"0","num_feature":"29","num_nodes":"19","size_leaf_vector":"1"}},{"base_weights":[-8.928867E-3,-7.7568635E-2,1.076567E-2,3.8803446E-1,-4.386275E-2,9.5909804E-1,-1.6577025E-1,1.2673465E-2,-5.176011E-1,1.1084338E-1,3.7026502E-2,8.25911E-2,-7.541519E-1,-6.562783E-2,6.9961745E-1,-9.2926435E-2,-1.1367565E-1,-9.898075E-2,-3.6326514E-4,-5.465767E-1,2.2927847E-2,9.233749E-1,-1.3390236E-2,3.2814253E-2,-5.189201E-2,-9.020918E-2,3.5679605E-2,6.61185E-2,-4.8945765E-3,1.8991632E-2,1.0599482E-1],"categories":[],"categories_nodes":[],"categories_segments":[],"categories_sizes":[],"default_left":[0,0,0,0,0,0,0,0,0,0,0,0,0,0,0,0,0,0,0,0,0,0,0,0,0,0,0,0,0,0,0],"id":24,"left_children":[1,-1,3,5,7,9,11,13,15,-1,-1,-1,17,19,21,-1,23,-1,-1,25,27,29,-1,-1,-1,-1,-1,-1,-1,-1,-1],"loss_changes":[1.2198205E0,0E0,1.6493442E0,3.3593345E0,1.883611E0,4.0638447E-2,4.1179338E0,3.4661598E0,1.1407928E0,0E0,0E0,0E0,7.5376153E-1,2.482571E0,1.3531063E0,0E0,1.0516949E0,0E0,0E0,3.2310212E0,2.323143E0,3.3196878E-1,0E0,0E0,0E0,0E0,0E0,0E0,0E0,0E0,0E0],"parents":[2147483647,0,0,2,2,3,3,4,4,5,5,6,6,7,7,8,8,12,12,13,13,14,14,16,16,19,19,20,20,21,21],"right_children":[2,-1,4,6,8,10,12,14,16,-1,-1,-1,18,20,22,-1,24,-1,-1,26,28,30,-1,-1,-1,-1,-1,-1,-1,-1,-1],"split_conditions":[-4.9603125E-1,-7.7568635E-2,-7.457909E-1,6.645356E-3,1.1137218E0,1.74147E-1,-2.470521E-1,9.262022E-1,1.3802212E0,1.1084338E-1,3.7026502E-2,8.25911E-2,8.493915E-1,-6.30674E-1,6.930726E-1,-9.2926435E-2,1.0267889E-1,-9.898075E-2,-3.6326514E-4,-4.5631593E-1,-4.906769E-1,1.560664E-1,-1.3390236E-2,3.2814253E-2,-5.189201E-2,-9.020918E-2,3.5679605E-2,6.61185E-2,-4.8945765E-3,1.8991632E-2,1.0599482E-1],"split_indices":[24,0,4,2,6,16,8,18,6,0,0,0,5,4,19,0,21,0,0,3,24,7,0,0,0,0,0,0,0,0,0],"split_type":[0,0,0,0,0,0,0,0,0,0,0,0,0,0,0,0,0,0,0,0,0,0,0,0,0,0,0,0,0,0,0],"sum_hessian":[7.922483E1,1.0227001E0,7.8202126E1,9.119422E0,6.908271E1,4.1294484E0,4.9899735E0,6.2586807E1,6.495899E0,2.590132E0,1.5393162E0,1.7078304E0,3.282143E0,5.6994728E1,5.5920787E0,2.5730126E0,3.9228866E0,2.2552018E0,1.0269413E0,8.0582075E0,4.893652E1,4.323609E0,1.2684697E0,1.9677764E0,1.9551101E0,5.783554E0,2.274654E0,4.12309E0,4.481343E1,1.0539604E0,3.2696486E0],"tree_param":{"num_deleted":"0","num_feature":"29","num_nodes":"31","size_leaf_vector":"1"}},{"base_weights":[-7.3516667E-3,1.0364044E-1,-1.4283763E-1,2.8524261E-2,7.565176E-1,-3.416384E-1,1.8482079E-1,-1.1821259E-1,2.919741E-1,2.6437962E-2,9.175832E-2,-8.029054E-1,-1.1738874E-1,3.7913582E-1,-8.423062E-2,2.841986E-1,-3.4279084E-1,8.190832E-1,-1.3972622E-2,3.663221E-2,-1.152211E-1,7.441295E-2,-2.6210263E-1,-3.906974E-1,5.696535E-1,-1.0250394E-1,8.1737125E-1,2.556704E-1,-6.669666E-1,-7.1061365E-3,1.0581463E-1,3.9138466E-1,-4.6497795E-1,3.545622E-1,-5.767336E-1,-7.810479E-2,1.805875E-2,7.2181785E-1,-3.9355192E-2,2.4793679E-2,-9.7524084E-2,1.0236893E-1,1.4306026E-2,-5.0588083E-2,6.920912E-2,6.9497935E-3,-8.790418E-2,-4.186856E-2,7.279657E-2,1.3988616E-2,-9.55139E-2,6.981589E-2,-1.6972462E-2,6.5160766E-3,-8.105099E-2,8.4075324E-2,-3.9149746E-3],"categories":[],"categories_nodes":[],"categories_segments":[],"categories_sizes":[],"default_left":[0,0,0,0,0,0,0,0,0,0,0,0,0,0,0,0,0,0,0,0,0,0,0,0,0,0,0,0,0,0,0,0,0,0,0,0,0,0,0,0,0,0,0,0,0,0,0,0,0,0,0,0,0,0,0,0,0],"id":25,"left_children":[1,3,5,7,9,11,13,15,17,-1,-1,19,21,23,-1,25,27,29,31,-1,-1,-1,33,35,37,39,41,43,45,-1,-1,47,49,51,53,-1,-1,55,-1,-1,-1,-1,-1,-1,-1,-1,-1,-1,-1,-1,-1,-1,-1,-1,-1,-1,-1],"loss_changes":[1.2102267E0,2.1498117E0,2.422316E0,1.6097083E0,1.16437435E-1,2.273701E0,3.1785016E0,2.5268564E0,2.408639E0,0E0,0E0,3.4106336E0,2.2614892E0,2.0905144E0,0E0,2.181779E0,3.6057572E0,1.240483E0,2.0812407E0,0E0,0E0,0E0,3.101359E0,8.3676434E-1,1.8400469E0,2.3173933E0,4.641745E-1,2.6581042E0,1.8982234E0,0E0,0E0,1.944595E0,1.7270547E0,1.1387322E0,1.5935009E0,0E0,0E0,8.946023E-1,0E0,0E0,0E0,0E0,0E0,0E0,0E0,0E0,0E0,0E0,0E0,0E0,0E0,0E0,0E0,0E0,0E0,0E0,0E0],"parents":[2147483647,0,0,1,1,2,2,3,3,4,4,5,5,6,6,7,7,8,8,11,11,12,12,13,13,15,15,16,16,17,17,18,18,22,22,23,23,24,24,25,25,26,26,27,27,28,28,31,31,32,32,33,33,34,34,37,37],"right_children":[2,4,6,8,10,12,14,16,18,-1,-1,20,22,24,-1,26,28,30,32,-1,-1,-1,34,36,38,40,42,44,46,-1,-1,48,50,52,54,-1,-1,56,-1,-1,-1,-1,-1,-1,-1,-1,-1,-1,-1,-1,-1,-1,-1,-1,-1,-1,-1],"split_conditions":[2.2372267E-1,1.0216272E-1,3.5143462E-1,-2.2851652E-1,-5.4121006E-1,6.7308384E-1,1.6737417E0,-1.2284538E0,4.8177835E-1,2.6437962E-2,9.175832E-2,-3.0338848E-1,7.0499474E-1,-6.4730155E-1,-8.423062E-2,2.304098E-1,-5.795523E-1,-6.2338997E-2,-5.565428E-2,3.663221E-2,-1.152211E-1,7.441295E-2,-5.0915825E-1,-6.913974E-1,2.041516E0,5.6112313E-1,-5.0075454E-1,-5.797629E-1,-6.479607E-1,-7.1061365E-3,1.0581463E-1,-9.286382E-1,-2.2626834E-1,-7.264425E-1,2.3136932E-1,-7.810479E-2,1.805875E-2,2.4813046E0,-3.9355192E-2,2.4793679E-2,-9.7524084E-2,1.0236893E-1,1.4306026E-2,-5.0588083E-2,6.920912E-2,6.9497935E-3,-8.790418E-2,-4.186856E-2,7.279657E-2,1.3988616E-2,-9.55139E-2,6.981589E-2,-1.6972462E-2,6.5160766E-3,-8.105099E-2,8.4075324E-2,-3.9149746E-3],"split_indices":[18,18,23,15,14,10,3,9,21,0,0,0,6,26,0,20,25,13,26,0,0,0,27,13,26,0,8,25,13,0,0,22,10,21,8,0,0,27,0,0,0,0,0,0,0,0,0,0,0,0,0,0,0,0,0,0,0],"split_type":[0,0,0,0,0,0,0,0,0,0,0,0,0,0,0,0,0,0,0,0,0,0,0,0,0,0,0,0,0,0,0,0,0,0,0,0,0,0,0,0,0,0,0,0,0,0,0,0,0,0,0,0,0,0,0,0,0],"sum_hessian":[7.8494156E1,4.3276478E1,3.521768E1,3.97471E1,3.5293756E0,2.1892277E1,1.3325405E1,2.5882372E1,1.3864728E1,1.5215871E0,2.0077884E0,6.317395E0,1.5574882E1,1.1736025E1,1.5893801E0,9.17559E0,1.6706783E1,4.475969E0,9.38876E0,1.4419736E0,4.8754215E0,1.644239E0,1.3930642E1,2.1197882E0,9.616237E0,5.7864823E0,3.3891068E0,5.9443088E0,1.0762474E1,1.0963795E0,3.379589E0,5.014232E0,4.374527E0,4.6634808E0,9.267161E0,1.0411847E0,1.0786035E0,8.5207615E0,1.0954762E0,4.6394544E0,1.1470281E0,2.198353E0,1.1907537E0,2.1075284E0,3.8367805E0,2.556594E0,8.20588E0,1.4002433E0,3.613989E0,2.2780275E0,2.0964994E0,2.61686E0,2.046621E0,2.6665945E0,6.600567E0,7.2783446E0,1.2424165E0],"tree_param":{"num_deleted":"0","num_feature":"29","num_nodes":"57","size_leaf_vector":"1"}},{"base_weights":[-6.5383483E-3,5.804065E-2,-2.991372E-2,-7.3980585E-2,-6.903462E-3,-1.469782E-1,9.953058E-2,-8.491056E-2,-6.285126E-2,4.2758623E-1,-9.7066484E-2,4.982134E-1,-1.653077E-1,8.447283E-1,1.18264165E-2,-9.467443E-2,4.121599E-3,9.2772834E-2,-1.2713904E-2,2.8879007E-2,-3.380498E-2,2.3955463E-2,9.508306E-2,5.4569628E-2,-3.3295438E-2,6.945877E-2,-1.7555693E-2],"categories":[],"categories_nodes":[],"categories_segments":[],"categories_sizes":[],"default_left":[0,0,0,0,0,0,0,0,0,0,0,0,0,0,0,0,0,0,0,0,0,0,0,0,0,0,0],"id":26,"left_children":[1,-1,3,-1,5,7,9,-1,11,13,15,17,19,21,23,-1,25,-1,-1,-1,-1,-1,-1,-1,-1,-1,-1],"loss_changes":[1.0890323E0,0E0,1.2374667E0,0E0,1.1281654E0,1.8753426E0,2.8172185E0,0E0,1.8206196E0,2.8190281E0,2.387685E0,1.4390209E0,2.1622365E0,2.941451E-1,1.8721312E0,0E0,3.3191297E0,0E0,0E0,0E0,0E0,0E0,0E0,0E0,0E0,0E0,0E0],"parents":[2147483647,0,0,2,2,4,4,5,5,6,6,8,8,9,9,10,10,11,11,12,12,13,13,14,14,16,16],"right_children":[2,-1,4,-1,6,8,10,-1,12,14,16,18,20,22,24,-1,26,-1,-1,-1,-1,-1,-1,-1,-1,-1,-1],"split_conditions":[-1.873577E0,5.804065E-2,-2.3542905E0,-7.3980585E-2,-2.2365178E-1,-7.628734E-1,5.224584E-1,-8.491056E-2,-1.3284434E0,4.4634888E-1,-1.0028275E0,3.498676E-1,-5.79534E-1,-8.1980866E-1,-2.1996209E-1,-9.467443E-2,-7.022801E-1,9.2772834E-2,-1.2713904E-2,2.8879007E-2,-3.380498E-2,2.3955463E-2,9.508306E-2,5.4569628E-2,-3.3295438E-2,6.945877E-2,-1.7555693E-2],"split_indices":[11,0,2,0,15,26,5,0,19,21,23,0,25,0,26,0,22,0,0,0,0,0,0,0,0,0,0],"split_type":[0,0,0,0,0,0,0,0,0,0,0,0,0,0,0,0,0,0,0,0,0,0,0,0,0,0,0],"sum_hessian":[7.7109764E1,2.0406308E0,7.506913E1,1.378853E0,7.369028E1,3.1652462E1,4.2037815E1,2.413782E0,2.923868E1,1.5312077E1,2.6725739E1,3.9183893E0,2.5320292E1,7.1283035E0,8.183773E0,1.9548186E0,2.4770922E1,2.0362735E0,1.8821157E0,6.792535E0,1.8527756E1,1.5493094E0,5.5789943E0,2.9826326E0,5.20114E0,4.523264E0,2.0247658E1],"tree_param":{"num_deleted":"0","num_feature":"29","num_nodes":"27","size_leaf_vector":"1"}},{"base_weights":[-4.928534E-3,1.3901745E-1,-9.798331E-2,6.937216E-1,-2.7081862E-3,-2.0121934E-1,2.0550057E-1,1.0312515E-2,8.035234E-1,5.092141E-1,-1.3372746E-1,2.5531456E-1,-3.0431497E-1,-2.2244836E-1,4.9791986E-1,9.327842E-2,1.46917E-2,8.1338054E-1,-3.389239E-2,3.8468054E-1,-3.0957806E-1,7.59998E-1,-2.5721213E-1,7.1710154E-2,-4.8232305E-1,3.4249768E-1,-8.384883E-2,9.5368795E-2,-6.013707E-2,9.575697E-2,2.0979604E-2,-3.3464104E-1,8.940007E-2,-8.141684E-1,-2.2664307E-2,1.10360555E-1,-5.592156E-3,-8.646574E-2,2.643504E-1,-4.8951635E-1,3.583891E-1,-2.737682E-1,-9.5167255E-1,3.3593543E-3,5.2309074E-2,-4.0943466E-2,3.807065E-2,-4.6441797E-2,-5.441776E-3,-1.00687504E-1,-1.0730144E-2,-6.0444515E-2,2.2952244E-2,4.1159067E-2,-7.342447E-4,-8.243401E-2,1.3888123E-3,-1.1719787E-2,5.7328578E-2,-7.50237E-2,-8.65881E-3,-1.23752765E-1,1.92813E-2],"categories":[],"categories_nodes":[],"categories_segments":[],"categories_sizes":[],"default_left":[0,0,0,0,0,0,0,0,0,0,0,0,0,0,0,0,0,0,0,0,0,0,0,0,0,0,0,0,0,0,0,0,0,0,0,0,0,0,0,0,0,0,0,0,0,0,0,0,0,0,0,0,0,0,0,0,0,0,0,0,0,0,0],"id":27,"left_children":[1,3,5,7,9,11,13,-1,15,17,19,21,23,25,27,-1,-1,29,-1,31,33,35,37,39,41,43,-1,-1,45,-1,-1,47,-1,49,51,-1,-1,-1,53,55,57,59,61,-1,-1,-1,-1,-1,-1,-1,-1,-1,-1,-1,-1,-1,-1,-1,-1,-1,-1,-1,-1],"loss_changes":[1.0491176E0,2.4205928E0,1.530777E0,3.2340765E-1,1.778514E0,1.7710508E0,1.6827042E0,0E0,2.9882812E-1,1.6699477E0,2.04231E0,2.0505276E0,2.0296774E0,2.3023612E0,2.0339036E0,0E0,0E0,1.7091393E-1,0E0,2.4202545E0,2.3423934E0,1.1456661E0,1.5925865E0,1.8562957E0,1.7323079E0,1.9053003E-1,0E0,0E0,8.3868194E-1,0E0,0E0,8.846825E-2,0E0,6.932709E-1,1.8149153E0,0E0,0E0,0E0,1.2632544E-1,6.780501E-1,8.329116E-1,1.3173668E0,2.1555986E0,0E0,0E0,0E0,0E0,0E0,0E0,0E0,0E0,0E0,0E0,0E0,0E0,0E0,0E0,0E0,0E0,0E0,0E0,0E0,0E0],"parents":[2147483647,0,0,1,1,2,2,3,3,4,4,5,5,6,6,8,8,9,9,10,10,11,11,12,12,13,13,14,14,17,17,19,19,20,20,21,21,22,22,23,23,24,24,25,25,28,28,31,31,33,33,34,34,38,38,39,39,40,40,41,41,42,42],"right_children":[2,4,6,8,10,12,14,-1,16,18,20,22,24,26,28,-1,-1,30,-1,32,34,36,38,40,42,44,-1,-1,46,-1,-1,48,-1,50,52,-1,-1,-1,54,56,58,60,62,-1,-1,-1,-1,-1,-1,-1,-1,-1,-1,-1,-1,-1,-1,-1,-1,-1,-1,-1,-1],"split_conditions":[-4.3221395E-2,-6.855141E-1,4.8499614E-1,-8.188932E-1,-4.1597098E-1,-5.79534E-1,1.01939395E-1,1.0312515E-2,1.0060326E-1,1.218237E0,-4.760981E-1,1.0979583E-1,-5.0915825E-1,-1.9697492E-1,8.839775E-1,9.327842E-2,1.46917E-2,3.9717603E-1,-3.389239E-2,-5.7760966E-1,-7.5606994E-2,-5.156758E-1,-5.797793E-1,-1.0066527E0,7.988304E-2,-4.869932E-1,-8.384883E-2,9.5368795E-2,5.7541597E-1,9.575697E-2,2.0979604E-2,3.255111E-1,8.940007E-2,-1.2529413E-1,-1.8406047E-1,1.10360555E-1,-5.592156E-3,-8.646574E-2,2.2917433E-1,-2.8623104E-1,-2.9040515E-1,-2.4301656E-1,9.922847E-1,3.3593543E-3,5.2309074E-2,-4.0943466E-2,3.807065E-2,-4.6441797E-2,-5.441776E-3,-1.00687504E-1,-1.0730144E-2,-6.0444515E-2,2.2952244E-2,4.1159067E-2,-7.342447E-4,-8.243401E-2,1.3888123E-3,-1.1719787E-2,5.7328578E-2,-7.50237E-2,-8.65881E-3,-1.23752765E-1,1.92813E-2],"split_indices":[8,4,23,26,2,25,17,0,0,3,24,6,27,12,6,0,0,21,0,25,24,15,25,27,4,17,0,0,8,0,0,0,0,12,0,0,0,0,6,24,15,15,0,0,0,0,0,0,0,0,0,0,0,0,0,0,0,0,0,0,0,0,0],"split_type":[0,0,0,0,0,0,0,0,0,0,0,0,0,0,0,0,0,0,0,0,0,0,0,0,0,0,0,0,0,0,0,0,0,0,0,0,0,0,0,0,0,0,0,0,0,0,0,0,0,0,0,0,0,0,0,0,0,0,0,0,0,0,0],"sum_hessian":[7.630549E1,2.9766264E1,4.6539223E1,5.2649193E0,2.4501345E1,3.4977802E1,1.156142E1,1.1293926E0,4.1355267E0,4.4046826E0,2.0096663E1,6.1716537E0,2.8806149E1,4.790263E0,6.7711577E0,3.1038773E0,1.0316492E0,3.27217E0,1.1325125E0,4.7895412E0,1.530712E1,2.8663359E0,3.3053179E0,9.447132E0,1.9359016E1,2.7303758E0,2.0598874E0,3.3369277E0,3.43423E0,2.16783E0,1.1043403E0,2.1276252E0,2.6619163E0,4.882563E0,1.0424557E1,1.7688366E0,1.0974994E0,1.2230519E0,2.082266E0,2.9548774E0,6.4922547E0,1.4499481E1,4.859534E0,1.444898E0,1.2854778E0,1.9558114E0,1.4784186E0,1.0049152E0,1.1227099E0,3.5031207E0,1.3794428E0,2.7299345E0,7.694623E0,1.0164846E0,1.0657816E0,1.3917007E0,1.5631766E0,2.1620536E0,4.330201E0,3.241107E0,1.1258374E1,3.8233023E0,1.0362318E0],"tree_param":{"num_deleted":"0","num_feature":"29","num_nodes":"63","size_leaf_vector":"1"}},{"base_weights":[-4.629933E-3,4.698065E-1,-3.3649057E-2,6.761156E-2,-1.1587415E-2,-5.014448E-1,6.0224314E-3,1.9007908E-2,-7.230063E-1,9.7434856E-2,-3.4366675E-2,-2.0600235E-2,-9.653985E-2,-6.340501E-1,1.3827052E-2,1.7712867E-2,-8.906014E-2,4.9381262E-1,-5.2598756E-2,9.121993E-2,1.767346E-3,4.4911597E-3,-2.4396708E-2],"categories":[],"categories_nodes":[],"categories_segments":[],"categories_sizes":[],"default_left":[0,0,0,0,0,0,0,0,0,0,0,0,0,0,0,0,0,0,0,0,0,0,0],"id":28,"left_children":[1,3,5,-1,-1,7,9,-1,11,-1,13,-1,-1,15,17,-1,-1,19,21,-1,-1,-1,-1],"loss_changes":[1.0649326E0,6.1714214E-1,1.3529881E0,0E0,0E0,1.0105325E0,2.6946752E0,0E0,3.680582E-1,0E0,1.924482E0,0E0,0E0,1.1883333E0,2.0133746E0,0E0,0E0,1.5126109E0,1.049583E0,0E0,0E0,0E0,0E0],"parents":[2147483647,0,0,1,1,2,2,5,5,6,6,8,8,10,10,13,13,14,14,17,17,18,18],"right_children":[2,4,6,-1,-1,8,10,-1,12,-1,14,-1,-1,16,18,-1,-1,20,22,-1,-1,-1,-1],"split_conditions":[-1.7919749E0,7.769083E-1,-1.3150667E0,6.761156E-2,-1.1587415E-2,-5.7462335E-1,-1.5770721E0,1.9007908E-2,-4.5433486E-1,9.7434856E-2,-8.9312047E-1,-2.0600235E-2,-9.653985E-2,-7.5696206E-1,-5.4517174E-1,1.7712867E-2,-8.906014E-2,-2.2689213E-1,3.9717603E-1,9.121993E-2,1.767346E-3,4.4911597E-3,-2.4396708E-2],"split_indices":[10,0,5,0,0,0,11,0,4,0,19,0,0,0,19,0,0,26,21,0,0,0,0],"split_type":[0,0,0,0,0,0,0,0,0,0,0,0,0,0,0,0,0,0,0,0,0,0,0],"sum_hessian":[7.520168E1,3.459093E0,7.174259E1,2.4438307E0,1.0152625E0,4.698553E0,6.704404E1,1.1745899E0,3.5239635E0,1.7585629E0,6.528547E1,1.7152781E0,1.8086852E0,3.9521286E0,6.1333344E1,1.0239913E0,2.9281373E0,6.6739645E0,5.4659378E1,3.0649486E0,3.609016E0,3.6716213E1,1.7943167E1],"tree_param":{"num_deleted":"0","num_feature":"29","num_nodes":"23","size_leaf_vector":"1"}},{"base_weights":[-3.4035314E-3,9.9843256E-2,-1.2939483E-1,3.1303834E-2,7.4017537E-1,-2.999611E-1,1.5625133E-1,1.8677214E-1,-2.2319646E-1,9.725545E-2,3.334157E-3,-7.1360296E-1,-9.950181E-2,3.3359563E-1,-7.823804E-2,3.8549942E-1,-2.1171875E-1,-8.854226E-1,3.883169E-2,3.7895393E-2,-1.0625757E-1,6.9721065E-2,-2.367957E-1,-3.7514027E-2,5.137925E-1,-5.160402E-2,4.9984095E-1,-5.1729935E-1,2.6966602E-1,-1.8525084E-2,-1.0411612E-1,6.6911834E-1,-3.167324E-1,2.2095928E-1,-5.70232E-1,6.6176856E-1,-3.769557E-2,7.4738204E-2,-8.668895E-3,-7.770924E-2,7.5964616E-3,-1.8449785E-2,7.965543E-2,-2.6613746E-3,9.759964E-2,5.5860307E-2,-5.533088E-2,-2.1708166E-2,7.1954936E-2,1.0566471E-2,-8.823789E-2,7.748502E-2,-5.017211E-3],"categories":[],"categories_nodes":[],"categories_segments":[],"categories_sizes":[],"default_left":[0,0,0,0,0,0,0,0,0,0,0,0,0,0,0,0,0,0,0,0,0,0,0,0,0,0,0,0,0,0,0,0,0,0,0,0,0,0,0,0,0,0,0,0,0,0,0,0,0,0,0,0,0],"id":29,"left_children":[1,3,5,7,9,11,13,15,17,-1,-1,19,21,23,-1,25,27,29,31,-1,-1,-1,33,-1,35,-1,37,39,41,-1,-1,43,45,47,49,51,-1,-1,-1,-1,-1,-1,-1,-1,-1,-1,-1,-1,-1,-1,-1,-1,-1],"loss_changes":[9.9768263E-1,1.8276595E0,1.729306E0,1.5902628E0,6.300628E-1,1.7501835E0,2.5195427E0,2.0487788E0,2.6888537E0,0E0,0E0,3.074433E0,1.9104385E0,1.739711E0,0E0,2.003074E0,1.4503759E0,2.8461862E-1,2.8829978E0,0E0,0E0,0E0,2.3173594E0,0E0,1.5780323E0,0E0,2.3198643E0,9.519943E-1,1.132287E0,0E0,0E0,1.0123594E0,2.0276122E0,1.6350809E0,1.9046605E0,7.639661E-1,0E0,0E0,0E0,0E0,0E0,0E0,0E0,0E0,0E0,0E0,0E0,0E0,0E0,0E0,0E0,0E0,0E0],"parents":[2147483647,0,0,1,1,2,2,3,3,4,4,5,5,6,6,7,7,8,8,11,11,12,12,13,13,15,15,16,16,17,17,18,18,22,22,24,24,26,26,27,27,28,28,31,31,32,32,33,33,34,34,35,35],"right_children":[2,4,6,8,10,12,14,16,18,-1,-1,20,22,24,-1,26,28,30,32,-1,-1,-1,34,-1,36,-1,38,40,42,-1,-1,44,46,48,50,52,-1,-1,-1,-1,-1,-1,-1,-1,-1,-1,-1,-1,-1,-1,-1,-1,-1],"split_conditions":[2.2372267E-1,1.1650932E-1,3.5143462E-1,-4.3221395E-2,5.260842E-1,6.7308384E-1,1.6737417E0,4.1488582E-1,-6.30674E-1,9.725545E-2,3.334157E-3,-3.0338848E-1,7.0499474E-1,-6.4730155E-1,-7.823804E-2,-9.780162E-1,1.02414556E-1,-6.231088E-1,-2.2693768E-1,3.7895393E-2,-1.0625757E-1,6.9721065E-2,-4.5272195E-1,-3.7514027E-2,2.041516E0,-5.160402E-2,8.6521554E-1,-2.505538E-1,1.5977035E-1,-1.8525084E-2,-1.0411612E-1,-1.935246E-1,-4.9057305E-1,-3.7445292E-1,2.3136932E-1,2.4813046E0,-3.769557E-2,7.4738204E-2,-8.668895E-3,-7.770924E-2,7.5964616E-3,-1.8449785E-2,7.965543E-2,-2.6613746E-3,9.759964E-2,5.5860307E-2,-5.533088E-2,-2.1708166E-2,7.1954936E-2,1.0566471E-2,-8.823789E-2,7.748502E-2,-5.017211E-3],"split_indices":[18,18,23,8,27,10,3,2,4,0,0,0,6,26,0,3,3,6,4,0,0,0,27,0,26,0,16,6,14,0,0,6,24,13,8,27,0,0,0,0,0,0,0,0,0,0,0,0,0,0,0,0,0],"split_type":[0,0,0,0,0,0,0,0,0,0,0,0,0,0,0,0,0,0,0,0,0,0,0,0,0,0,0,0,0,0,0,0,0,0,0,0,0,0,0,0,0,0,0,0,0,0,0,0,0,0,0,0,0],"sum_hessian":[7.4703316E1,4.1171673E1,3.3531643E1,3.8138332E1,3.0333376E0,2.0963633E1,1.2568008E1,2.3840717E1,1.4297617E1,1.9999136E0,1.033424E0,6.0074964E0,1.4956136E1,1.1112934E1,1.4550749E0,1.5929355E1,7.9113617E0,3.3789227E0,1.09186945E1,1.4335265E0,4.57397E0,1.5989923E0,1.3357143E1,2.0334187E0,9.079515E0,1.3974946E0,1.453186E1,4.7937236E0,3.117638E0,1.0132117E0,2.365711E0,3.6199613E0,7.2987328E0,5.77134E0,7.585804E0,8.006496E0,1.0730193E0,1.0026147E1,4.505714E0,3.118332E0,1.6753914E0,2.023376E0,1.0942621E0,1.3875294E0,2.232432E0,1.2633027E0,6.03543E0,3.37277E0,2.3985696E0,2.60552E0,4.980284E0,6.8328342E0,1.1736617E0],"tree_param":{"num_deleted":"0","num_feature":"29","num_nodes":"53","size_leaf_vector":"1"}},{"base_weights":[-3.5629529E-3,4.454494E-1,-3.0983066E-2,-8.3036907E-4,7.3273115E-2,-4.8981154E-1,7.967013E-3,1.6694136E-2,-6.9768375E-1,9.294268E-2,-3.0238517E-2,-1.3118863E-2,-9.4453536E-2,-5.744339E-1,2.0885779E-2,1.3006327E-2,-7.811114E-1,4.163451E-1,-5.0292667E-2,-1.4198094E-2,-9.418338E-2,7.287702E-2,-4.9316543E-3,-4.2802E-2,1.9367777E-3],"categories":[],"categories_nodes":[],"categories_segments":[],"categories_sizes":[],"default_left":[0,0,0,0,0,0,0,0,0,0,0,0,0,0,0,0,0,0,0,0,0,0,0,0,0],"id":30,"left_children":[1,3,5,-1,-1,7,9,-1,11,-1,13,-1,-1,15,17,-1,19,21,23,-1,-1,-1,-1,-1,-1],"loss_changes":[9.302343E-1,5.729915E-1,1.2742977E0,0E0,0E0,8.7802255E-1,2.3694766E0,0E0,4.9561262E-1,0E0,1.8156121E0,0E0,0E0,9.173106E-1,1.7161782E0,0E0,3.258896E-1,1.38811E0,1.3747393E0,0E0,0E0,0E0,0E0,0E0,0E0],"parents":[2147483647,0,0,1,1,2,2,5,5,6,6,8,8,10,10,13,13,14,14,16,16,17,17,18,18],"right_children":[2,4,6,-1,-1,8,10,-1,12,-1,14,-1,-1,16,18,-1,20,22,24,-1,-1,-1,-1,-1,-1],"split_conditions":[-1.7919749E0,-7.5606994E-2,-1.3150667E0,-8.3036907E-4,7.3273115E-2,-1.5914056E0,-1.5770721E0,1.6694136E-2,-4.5433486E-1,9.294268E-2,-8.5641795E-1,-1.3118863E-2,-9.4453536E-2,-1.2284538E0,-2.7869818E-1,1.3006327E-2,-2.0661652E0,5.676144E-1,-2.4377009E-2,-1.4198094E-2,-9.418338E-2,7.287702E-2,-4.9316543E-3,-4.2802E-2,1.9367777E-3],"split_indices":[10,24,5,0,0,14,11,0,4,0,9,0,0,9,11,0,8,16,6,0,0,0,0,0,0],"split_type":[0,0,0,0,0,0,0,0,0,0,0,0,0,0,0,0,0,0,0,0,0,0,0,0,0],"sum_hessian":[7.343431E1,3.3489485E0,7.008536E1,1.6747792E0,1.6741693E0,4.5782785E0,6.550708E1,1.1480441E0,3.4302344E0,1.6792434E0,6.382784E1,1.5058755E0,1.9243588E0,4.6023064E0,5.922553E1,1.1280028E0,3.4743037E0,8.294259E0,5.093127E1,1.0765748E0,2.3977287E0,4.625718E0,3.6685412E0,7.129242E0,4.380203E1],"tree_param":{"num_deleted":"0","num_feature":"29","num_nodes":"25","size_leaf_vector":"1"}},{"base_weights":[-3.137568E-3,3.3609837E-2,-3.287461E-1,-6.0487848E-2,2.836012E-1,-8.2072E-2,2.7887782E-3,1.5766878E-2,-6.025239E-1,4.3067062E-1,-3.3376452E-1,4.2689303E-1,-4.0781194E-1,8.364285E-2,-3.647192E-2,-8.269378E-1,2.5463784E-2,8.9628303E-1,1.8336241E-1,1.124723E-2,-6.8852685E-2,-1.0257214E-2,7.3805064E-2,1.7268335E-2,-7.8146055E-2,-3.638773E-1,8.667942E-2,-9.9648066E-2,-1.8455371E-2,1.01320505E-1,2.5428325E-2,-3.5550374E-1,4.8595092E-1,2.8751258E-2,-7.978351E-2,4.4249006E-2,-2.9547978E-2,3.0720046E-2,-6.417731E-2,9.9283926E-2,1.5549393E-2],"categories":[],"categories_nodes":[],"categories_segments":[],"categories_sizes":[],"default_left":[0,0,0,0,0,0,0,0,0,0,0,0,0,0,0,0,0,0,0,0,0,0,0,0,0,0,0,0,0,0,0,0,0,0,0,0,0,0,0,0,0],"id":31,"left_children":[1,3,5,7,9,-1,11,13,15,17,19,21,23,-1,25,27,-1,29,31,-1,-1,-1,-1,-1,-1,33,35,-1,-1,-1,-1,37,39,-1,-1,-1,-1,-1,-1,-1,-1],"loss_changes":[8.9567083E-1,1.6012819E0,1.2403364E0,2.0658188E0,1.8317918E0,0E0,1.1372854E0,1.9420531E0,1.3957462E0,1.6148927E0,7.32874E-1,6.044495E-1,8.554439E-1,0E0,1.7604312E0,3.7354064E-1,0E0,1.2539768E-1,2.0232103E0,0E0,0E0,0E0,0E0,0E0,0E0,3.596763E0,4.477403E0,0E0,0E0,0E0,0E0,1.080928E0,1.1337565E0,0E0,0E0,0E0,0E0,0E0,0E0,0E0,0E0],"parents":[2147483647,0,0,1,1,2,2,3,3,4,4,6,6,7,7,8,8,9,9,10,10,11,11,12,12,14,14,15,15,17,17,18,18,25,25,26,26,31,31,32,32],"right_children":[2,4,6,8,10,-1,12,14,16,18,20,22,24,-1,26,28,-1,30,32,-1,-1,-1,-1,-1,-1,34,36,-1,-1,-1,-1,38,40,-1,-1,-1,-1,-1,-1,-1,-1],"split_conditions":[1.169873E0,2.1862388E-1,1.3802212E0,1.0226098E0,1.9254853E0,-8.2072E-2,1.0267889E-1,-1.0859407E0,1.5685785E0,5.0731903E-1,3.8245514E-2,2.5844452E-1,1.0841901E0,8.364285E-2,-5.694517E-1,1.7255367E0,2.5463784E-2,1.1347241E-2,-5.349642E-1,1.124723E-2,-6.8852685E-2,-1.0257214E-2,7.3805064E-2,1.7268335E-2,-7.8146055E-2,-5.359484E-1,-5.2016776E-2,-9.9648066E-2,-1.8455371E-2,1.01320505E-1,2.5428325E-2,-5.81348E-1,-3.350665E-1,2.8751258E-2,-7.978351E-2,4.4249006E-2,-2.9547978E-2,3.0720046E-2,-6.417731E-2,9.9283926E-2,1.5549393E-2],"split_indices":[6,15,6,21,24,0,21,20,24,5,5,20,7,0,4,21,0,26,3,0,0,0,0,0,0,21,4,0,0,0,0,20,3,0,0,0,0,0,0,0,0],"split_type":[0,0,0,0,0,0,0,0,0,0,0,0,0,0,0,0,0,0,0,0,0,0,0,0,0,0,0,0,0,0,0,0,0,0,0,0,0,0,0,0,0],"sum_hessian":[7.293245E1,6.6342026E1,6.5904245E0,4.875028E1,1.7591747E1,2.0592017E0,4.531223E0,4.3589E1,5.1612763E0,1.4451504E1,3.1402442E0,2.2094407E0,2.3217824E0,1.710215E0,4.1878784E1,4.1183186E0,1.042958E0,4.102842E0,1.0348662E1,1.6932981E0,1.4469461E0,1.0659595E0,1.1434811E0,1.1198478E0,1.2019345E0,1.0912505E1,3.096628E1,2.8222313E0,1.296087E0,2.9816227E0,1.121219E0,3.658511E0,6.690151E0,4.4981084E0,6.414397E0,1.59542E1,1.501208E1,1.0815775E0,2.5769334E0,1.8492073E0,4.840944E0],"tree_param":{"num_deleted":"0","num_feature":"29","num_nodes":"41","size_leaf_vector":"1"}},{"base_weights":[-2.5361592E-3,9.804603E-2,-1.2469487E-1,3.341752E-2,6.902914E-1,8.130242E-2,-3.5070172E-1,1.4113961E-1,-2.7724284E-1,8.9840144E-2,4.3369248E-3,-1.3071747E-1,7.381904E-1,-7.4304795E-1,2.348054E-1,8.491672E-2,6.3892625E-2,1.1504706E-1,-6.043625E-1,3.430597E-1,-3.4687355E-1,1.0142856E-1,-9.113185E-3,-9.3264997E-1,1.0325394E-2,-1.9716652E-1,5.8157474E-1,-4.8873675E-1,1.4427008E-1,-4.3816153E-2,5.677579E-1,1.2682316E-2,-8.1163234E-1,9.651345E-2,-1.5668744E-1,-7.584076E-1,1.2240862E-1,-1.6578149E-2,-1.0521259E0,-5.4581888E-2,3.240752E-2,-4.7243866E-3,9.304324E-2,-4.4696E-3,-7.108774E-2,6.0946174E-2,3.351323E-3,8.054818E-2,1.8126048E-3,-1.7719759E-2,-9.593236E-2,-5.4399688E-2,4.329485E-2,-1.4998058E-2,-1.0067403E-1,-3.308708E-2,4.6867166E-2,-1.1692029E-1,-4.2508494E-2],"categories":[],"categories_nodes":[],"categories_segments":[],"categories_sizes":[],"default_left":[0,0,0,0,0,0,0,0,0,0,0,0,0,0,0,0,0,0,0,0,0,0,0,0,0,0,0,0,0,0,0,0,0,0,0,0,0,0,0,0,0,0,0,0,0,0,0,0,0,0,0,0,0,0,0,0,0,0,0],"id":32,"left_children":[1,3,5,7,9,11,13,15,17,-1,-1,19,21,23,25,-1,27,29,31,33,35,-1,-1,37,-1,39,41,43,45,-1,47,-1,49,-1,51,53,55,-1,57,-1,-1,-1,-1,-1,-1,-1,-1,-1,-1,-1,-1,-1,-1,-1,-1,-1,-1,-1,-1],"loss_changes":[9.092612E-1,1.530909E0,1.5838647E0,1.2992773E0,4.9196923E-1,2.6437056E0,3.8771963E0,1.5112243E0,1.3569791E0,0E0,0E0,1.6219788E0,1.1487179E0,1.683456E0,1.1972423E0,0E0,1.2648807E0,1.6016634E0,9.5627785E-1,1.7369606E0,2.1352043E0,0E0,0E0,5.7509613E-1,0E0,8.9745194E-1,9.789212E-1,3.2748884E-1,1.2288362E0,0E0,4.3048537E-1,0E0,2.5374293E-1,0E0,1.0779467E0,7.2131205E-1,1.0657207E0,0E0,8.856773E-3,0E0,0E0,0E0,0E0,0E0,0E0,0E0,0E0,0E0,0E0,0E0,0E0,0E0,0E0,0E0,0E0,0E0,0E0,0E0,0E0],"parents":[2147483647,0,0,1,1,2,2,3,3,4,4,5,5,6,6,7,7,8,8,11,11,12,12,13,13,14,14,16,16,17,17,18,18,19,19,20,20,23,23,25,25,26,26,27,27,28,28,30,30,32,32,34,34,35,35,36,36,38,38],"right_children":[2,4,6,8,10,12,14,16,18,-1,-1,20,22,24,26,-1,28,30,32,34,36,-1,-1,38,-1,40,42,44,46,-1,48,-1,50,-1,52,54,56,-1,58,-1,-1,-1,-1,-1,-1,-1,-1,-1,-1,-1,-1,-1,-1,-1,-1,-1,-1,-1,-1],"split_conditions":[2.2372267E-1,1.1650932E-1,-8.9285E-3,3.3277974E-1,5.260842E-1,-1.5205488E-1,-1.4827684E-1,-4.906769E-1,-5.795523E-1,8.9840144E-2,4.3369248E-3,-3.4981304E-1,-2.4233466E-2,1.3085396E0,-5.771265E-1,8.491672E-2,-4.8825932E-1,-5.797629E-1,-7.5308233E-1,-4.1597098E-1,2.7297863E-1,1.0142856E-1,-9.113185E-3,-1.0322974E0,1.0325394E-2,1.8755283E0,4.0389964E-1,-2.4051328E-1,-4.760981E-1,-4.3816153E-2,-3.7839302E-1,1.2682316E-2,4.0203077E-1,9.651345E-2,-1.5676197E-1,-5.8198094E-1,1.07306965E-1,-1.6578149E-2,8.871588E-1,-5.4581888E-2,3.240752E-2,-4.7243866E-3,9.304324E-2,-4.4696E-3,-7.108774E-2,6.0946174E-2,3.351323E-3,8.054818E-2,1.8126048E-3,-1.7719759E-2,-9.593236E-2,-5.4399688E-2,4.329485E-2,-1.4998058E-2,-1.0067403E-1,-3.308708E-2,4.6867166E-2,-1.1692029E-1,-4.2508494E-2],"split_indices":[18,18,0,8,27,0,3,24,25,0,0,3,27,18,25,0,24,25,28,2,23,0,0,16,0,14,3,27,24,0,14,0,8,0,16,27,19,0,7,0,0,0,0,0,0,0,0,0,0,0,0,0,0,0,0,0,0,0,0],"split_type":[0,0,0,0,0,0,0,0,0,0,0,0,0,0,0,0,0,0,0,0,0,0,0,0,0,0,0,0,0,0,0,0,0,0,0,0,0,0,0,0,0,0,0,0,0,0,0,0,0,0,0,0,0,0,0,0,0,0,0],"sum_hessian":[7.200693E1,3.959931E1,3.240762E1,3.66557E1,2.9436116E0,1.7289299E1,1.51183195E1,2.7623035E1,9.032664E0,1.9330363E0,1.0105754E0,1.3676137E1,3.6131618E0,8.891254E0,6.227065E0,1.7342677E0,2.5888767E1,4.401991E0,4.630673E0,4.100797E0,9.575339E0,2.543394E0,1.0697677E0,7.1805286E0,1.7107263E0,2.9649873E0,3.2620776E0,2.6421738E0,2.3246593E1,1.9955659E0,2.4064252E0,1.1084654E0,3.5222075E0,1.411966E0,2.6888313E0,4.773312E0,4.8020277E0,1.2897449E0,5.890784E0,1.7483714E0,1.216616E0,1.4724859E0,1.7895917E0,1.2815893E0,1.3605845E0,3.6045144E0,1.964208E1,1.3549124E0,1.0515127E0,1.080501E0,2.4417064E0,1.6695619E0,1.0192695E0,1.8484563E0,2.9248557E0,2.0988965E0,2.703131E0,4.2353516E0,1.6554319E0],"tree_param":{"num_deleted":"0","num_feature":"29","num_nodes":"59","size_leaf_vector":"1"}},{"base_weights":[-1.3241273E-3,-6.0106125E-2,1.8545102E-2,-6.5271826E-3,6.876994E-2,3.8152896E-2,-3.2037148E-1,2.1565375E-3,6.2429863E-1,4.4991605E-2,-5.9318817E-1,3.346482E-2,-7.299768E-2,8.52097E-2,2.971015E-3,-7.4193937E-1,1.3871225E-2,-5.4063083E-4,8.062073E-2,-9.5648915E-2,-8.503334E-3],"categories":[],"categories_nodes":[],"categories_segments":[],"categories_sizes":[],"default_left":[0,0,0,0,0,0,0,0,0,0,0,0,0,0,0,0,0,0,0,0,0],"id":33,"left_children":[1,-1,3,5,-1,7,9,11,13,-1,15,17,-1,-1,-1,19,-1,-1,-1,-1,-1],"loss_changes":[8.685447E-1,0E0,1.1892021E0,9.8054874E-1,0E0,1.2929268E0,2.097722E0,1.3721594E0,4.549408E-1,0E0,8.5030246E-1,1.7267537E0,0E0,0E0,0E0,7.4496984E-1,0E0,0E0,0E0,0E0,0E0],"parents":[2147483647,0,0,2,2,3,3,5,5,6,6,7,7,8,8,10,10,11,11,15,15],"right_children":[2,-1,4,6,-1,8,10,12,14,-1,16,18,-1,-1,-1,20,-1,-1,-1,-1,-1],"split_conditions":[-2.3542905E0,-6.0106125E-2,1.9016606E0,7.3205435E-1,6.876994E-2,5.363321E-1,-6.4730155E-1,1.0077611E0,3.86705E-1,4.4991605E-2,5.506983E-1,9.007214E-1,-7.299768E-2,8.52097E-2,2.971015E-3,-1.21013755E-2,1.3871225E-2,-5.4063083E-4,8.062073E-2,-9.5648915E-2,-8.503334E-3],"split_indices":[2,0,4,4,0,4,26,2,20,0,20,2,0,0,0,15,0,0,0,0,0],"split_type":[0,0,0,0,0,0,0,0,0,0,0,0,0,0,0,0,0,0,0,0,0],"sum_hessian":[7.0951614E1,1.3372393E0,6.961437E1,6.80547E1,1.55967E0,6.034254E1,7.712162E0,5.7796806E1,2.545736E0,1.8472817E0,5.86488E0,5.634175E1,1.4550555E0,1.5274523E0,1.0182836E0,4.862842E0,1.0020382E0,5.4588783E1,1.7529663E0,3.3218517E0,1.5409901E0],"tree_param":{"num_deleted":"0","num_feature":"29","num_nodes":"21","size_leaf_vector":"1"}},{"base_weights":[-4.110153E-4,4.3001825E-1,-2.7071742E-2,-8.3197857E-4,7.119509E-2,-4.5488483E-1,9.468016E-3,1.7011166E-2,-6.5755284E-1,8.784623E-2,-2.6885446E-2,-2.0005139E-2,-8.6740695E-2,-5.50955E-1,2.2455437E-2,1.1369317E-2,-7.5211114E-1,4.497493E-1,-3.3931974E-2,-1.4795772E-2,-9.025515E-2,7.9704575E-2,-1.1542591E-3,5.7574916E-3,-2.134659E-2],"categories":[],"categories_nodes":[],"categories_segments":[],"categories_sizes":[],"default_left":[0,0,0,0,0,0,0,0,0,0,0,0,0,0,0,0,0,0,0,0,0,0,0,0,0],"id":34,"left_children":[1,3,5,-1,-1,7,9,-1,11,-1,13,-1,-1,15,17,-1,19,21,23,-1,-1,-1,-1,-1,-1],"loss_changes":[8.337746E-1,5.296507E-1,1.0736144E0,0E0,0E0,7.9624987E-1,2.045474E0,0E0,2.3792672E-1,0E0,1.6259538E0,0E0,0E0,8.086417E-1,1.4125398E0,0E0,2.5577307E-1,1.1035507E0,8.6923647E-1,0E0,0E0,0E0,0E0,0E0,0E0],"parents":[2147483647,0,0,1,1,2,2,5,5,6,6,8,8,10,10,13,13,14,14,16,16,17,17,18,18],"right_children":[2,4,6,-1,-1,8,10,-1,12,-1,14,-1,-1,16,18,-1,20,22,24,-1,-1,-1,-1,-1,-1],"split_conditions":[-1.7919749E0,-7.5606994E-2,-1.3150667E0,-8.3197857E-4,7.119509E-2,-5.7462335E-1,-1.5770721E0,1.7011166E-2,-4.5433486E-1,8.784623E-2,-8.5641795E-1,-2.0005139E-2,-8.6740695E-2,-1.2284538E0,-5.4517174E-1,1.1369317E-2,-2.0661652E0,1.0740738E0,3.9717603E-1,-1.4795772E-2,-9.025515E-2,7.9704575E-2,-1.1542591E-3,5.7574916E-3,-2.134659E-2],"split_indices":[10,24,5,0,0,0,11,0,4,0,9,0,0,9,19,0,8,16,21,0,0,0,0,0,0],"split_type":[0,0,0,0,0,0,0,0,0,0,0,0,0,0,0,0,0,0,0,0,0,0,0,0,0],"sum_hessian":[7.064212E1,3.2379022E0,6.740421E1,1.6472738E0,1.5906284E0,4.403093E0,6.3001125E1,1.1175089E0,3.285584E0,1.5996066E0,6.1401516E1,1.6473956E0,1.6381884E0,4.408694E0,5.6992825E1,1.1253104E0,3.2833831E0,5.830939E0,5.1161884E1,1.0500371E0,2.233346E0,2.91126E0,2.919679E0,3.4338936E1,1.682295E1],"tree_param":{"num_deleted":"0","num_feature":"29","num_nodes":"25","size_leaf_vector":"1"}},{"base_weights":[1.6099746E-4,3.5690084E-2,-3.1449905E-1,-5.254451E-2,2.6968798E-1,-5.683005E-1,1.9799967E-1,1.892504E-2,-5.6846327E-1,4.1349843E-1,-3.2470894E-1,-8.7215394E-2,-8.90555E-2,5.7512797E-2,-2.4648732E-2,7.977221E-2,-3.05306E-2,1.8959725E-2,-7.7791923E-1,6.478942E-1,1.5995186E-2,7.7422485E-3,-6.3676976E-2,5.3208716E-2,-6.720002E-2,-3.347415E-1,8.379449E-2,-9.601372E-2,-1.940578E-2,3.044084E-1,9.574788E-2,-6.27728E-2,3.841858E-1,2.5576174E-2,-7.3768415E-2,4.0716894E-2,-2.6958628E-2,7.400311E-2,-3.5137266E-2,8.989381E-2,-9.217506E-3],"categories":[],"categories_nodes":[],"categories_segments":[],"categories_sizes":[],"default_left":[0,0,0,0,0,0,0,0,0,0,0,0,0,0,0,0,0,0,0,0,0,0,0,0,0,0,0,0,0,0,0,0,0,0,0,0,0,0,0,0,0],"id":35,"left_children":[1,3,5,7,9,11,13,15,17,19,21,23,-1,-1,-1,-1,25,-1,27,29,31,-1,-1,-1,-1,33,35,-1,-1,37,-1,-1,39,-1,-1,-1,-1,-1,-1,-1,-1],"loss_changes":[8.069717E-1,1.3532157E0,1.0651089E0,1.7781763E0,1.6662374E0,7.217201E-1,6.7267126E-1,1.6831901E0,1.078646E0,1.3751547E0,5.5772144E-1,1.508134E0,0E0,0E0,0E0,0E0,1.4699945E0,0E0,3.2337236E-1,7.005687E-1,1.7915381E0,0E0,0E0,0E0,0E0,2.9309852E0,3.644844E0,0E0,0E0,1.942216E0,0E0,0E0,1.2553339E0,0E0,0E0,0E0,0E0,0E0,0E0,0E0,0E0],"parents":[2147483647,0,0,1,1,2,2,3,3,4,4,5,5,6,6,7,7,8,8,9,9,10,10,11,11,16,16,18,18,19,19,20,20,25,25,26,26,29,29,32,32],"right_children":[2,4,6,8,10,12,14,16,18,20,22,24,-1,-1,-1,-1,26,-1,28,30,32,-1,-1,-1,-1,34,36,-1,-1,38,-1,-1,40,-1,-1,-1,-1,-1,-1,-1,-1],"split_conditions":[1.169873E0,2.1862388E-1,1.476865E0,1.0226098E0,1.9254853E0,1.0267889E-1,1.7655057E0,-1.0859407E0,-1.8598684E0,8.3286536E-1,3.8245514E-2,1.2457823E0,-8.90555E-2,5.7512797E-2,-2.4648732E-2,7.977221E-2,-5.694517E-1,1.8959725E-2,2.3389116E-1,-4.0304047E-1,-5.349642E-1,7.7422485E-3,-6.3676976E-2,5.3208716E-2,-6.720002E-2,-5.359484E-1,-5.2016776E-2,-9.601372E-2,-1.940578E-2,5.8938026E-1,9.574788E-2,-6.27728E-2,-2.9246536E-1,2.5576174E-2,-7.3768415E-2,4.0716894E-2,-2.6958628E-2,7.400311E-2,-3.5137266E-2,8.989381E-2,-9.217506E-3],"split_indices":[6,15,6,21,24,21,6,20,8,6,5,7,0,0,0,0,4,0,14,4,3,0,0,0,0,21,4,0,0,5,0,0,3,0,0,0,0,0,0,0,0],"split_type":[0,0,0,0,0,0,0,0,0,0,0,0,0,0,0,0,0,0,0,0,0,0,0,0,0,0,0,0,0,0,0,0,0,0,0,0,0,0,0,0,0],"sum_hessian":[7.0178604E1,6.3855133E1,6.323474E0,4.6933254E1,1.6921877E1,4.1562963E0,2.1671774E0,4.2068832E1,4.864423E0,1.3870371E1,3.0515056E0,2.1769812E0,1.9793154E0,1.0134199E0,1.1537576E0,1.6085362E0,4.0460297E1,1.0736159E0,3.790807E0,8.329062E0,5.541308E0,1.6618685E0,1.3896372E0,1.1010522E0,1.0759289E0,1.0525285E1,2.993501E1,2.397963E0,1.392844E0,4.8885117E0,3.4405506E0,1.7597548E0,3.7815533E0,4.4172177E0,6.108067E0,1.5551662E1,1.4383348E1,2.860118E0,2.0283937E0,1.39117E0,2.3903835E0],"tree_param":{"num_deleted":"0","num_feature":"29","num_nodes":"41","size_leaf_vector":"1"}},{"base_weights":[-2.1229389E-4,9.6650854E-2,-1.1815163E-1,3.5016466E-2,6.555567E-1,-2.8985417E-1,1.3250135E-1,1.9989692E-1,-1.470884E-1,9.39103E-2,1.67938E-2,-1.8663202E-1,-8.6867236E-2,6.111655E-1,-1.329897E-1,4.3067824E-2,8.068293E-2,-6.5405023E-1,5.310945E-2,4.2614233E-1,-3.5867015E-1,7.7434075E-1,2.0072171E-3,3.1685245E-1,-5.1183563E-1,6.1152797E-2,-6.968092E-2,1.3935037E-3,-9.886701E-2,4.443806E-1,-2.929836E-1,-1.361332E-2,7.177953E-2,1.2184776E-1,-6.065121E-1,9.284311E-2,1.6078293E-2,7.2358124E-2,-4.222412E-2,-9.9993475E-2,1.4099748E-1,-2.2615438E-2,4.5806758E-2,6.935503E-2,-5.031083E-2,4.7343176E-2,-4.8838686E-2,6.8527274E-2,-3.3873E-2,-5.9556067E-3,-9.2054635E-2,-3.0681496E-2,4.7733434E-2],"categories":[],"categories_nodes":[],"categories_segments":[],"categories_sizes":[],"default_left":[0,0,0,0,0,0,0,0,0,0,0,0,0,0,0,0,0,0,0,0,0,0,0,0,0,0,0,0,0,0,0,0,0,0,0,0,0,0,0,0,0,0,0,0,0,0,0,0,0,0,0,0,0],"id":36,"left_children":[1,3,5,7,9,11,13,15,17,-1,-1,19,-1,21,23,25,-1,27,29,31,33,35,-1,37,39,-1,41,-1,-1,43,45,-1,-1,47,49,-1,-1,-1,-1,-1,51,-1,-1,-1,-1,-1,-1,-1,-1,-1,-1,-1,-1],"loss_changes":[8.140473E-1,1.324849E0,1.4213047E0,1.119217E0,3.7179422E-1,9.959543E-1,1.8285377E0,1.818774E0,1.8436757E0,0E0,0E0,2.0212336E0,0E0,4.7481632E-1,1.8093262E0,1.1021215E0,0E0,1.1584103E0,1.985728E0,8.0977404E-1,1.7865826E0,2.2488165E-1,0E0,1.8194664E0,1.9346446E0,0E0,1.316875E0,0E0,0E0,1.9611077E0,1.4103761E0,0E0,0E0,1.7180829E0,1.6035244E0,0E0,0E0,0E0,0E0,0E0,6.411562E-1,0E0,0E0,0E0,0E0,0E0,0E0,0E0,0E0,0E0,0E0,0E0,0E0],"parents":[2147483647,0,0,1,1,2,2,3,3,4,4,5,5,6,6,7,7,8,8,11,11,13,13,14,14,15,15,17,17,18,18,19,19,20,20,21,21,23,23,24,24,26,26,29,29,30,30,33,33,34,34,40,40],"right_children":[2,4,6,8,10,12,14,16,18,-1,-1,20,-1,22,24,26,-1,28,30,32,34,36,-1,38,40,-1,42,-1,-1,44,46,-1,-1,48,50,-1,-1,-1,-1,-1,52,-1,-1,-1,-1,-1,-1,-1,-1,-1,-1,-1,-1],"split_conditions":[2.2372267E-1,1.1650932E-1,9.084921E-1,-1.558191E-1,-5.005556E-1,8.3288664E-1,8.3286536E-1,-3.691914E-1,-6.1625487E-1,9.39103E-2,1.67938E-2,-9.101566E-1,-8.6867236E-2,1.4520932E0,-3.948403E-2,-7.408269E-1,8.068293E-2,-7.481547E-1,-2.2693768E-1,-1.3292913E0,-6.838314E-1,1.0303988E0,2.0072171E-3,-2.4233466E-2,1.5943222E0,6.1152797E-2,4.8602247E-1,1.3935037E-3,-9.886701E-2,4.0861297E-1,-6.429968E-1,-1.361332E-2,7.177953E-2,-8.9285E-3,-3.0338848E-1,9.284311E-2,1.6078293E-2,7.2358124E-2,-4.222412E-2,-9.9993475E-2,-3.5829243E-1,-2.2615438E-2,4.5806758E-2,6.935503E-2,-5.031083E-2,4.7343176E-2,-4.8838686E-2,6.8527274E-2,-3.3873E-2,-5.9556067E-3,-9.2054635E-2,-3.0681496E-2,4.7733434E-2],"split_indices":[18,18,18,12,3,18,6,7,4,0,0,16,0,22,0,4,0,4,4,27,23,10,0,27,18,0,26,0,0,5,26,0,0,0,0,0,0,0,0,0,26,0,0,0,0,0,0,0,0,0,0,0,0],"split_type":[0,0,0,0,0,0,0,0,0,0,0,0,0,0,0,0,0,0,0,0,0,0,0,0,0,0,0,0,0,0,0,0,0,0,0,0,0,0,0,0,0,0,0,0,0,0,0,0,0,0,0,0,0],"sum_hessian":[6.9258194E1,3.8125973E1,3.1132221E1,3.529626E1,2.82971E0,1.8383049E1,1.2749171E1,1.8472912E1,1.682335E1,1.2038085E0,1.6259015E0,1.6723196E1,1.659854E0,4.083982E0,8.665189E0,1.5530776E1,2.9421353E0,4.120917E0,1.2702434E1,3.3421016E0,1.3381094E1,2.9575236E0,1.1264583E0,4.036217E0,4.628972E0,1.838344E0,1.3692431E1,1.6952091E0,2.4257076E0,5.8287835E0,6.87365E0,1.3235927E0,2.018509E0,4.7262225E0,8.654872E0,1.9536796E0,1.0038439E0,2.6170328E0,1.4191844E0,2.3444378E0,2.2845345E0,1.1001919E1,2.6905134E0,4.8273134E0,1.0014697E0,1.107387E0,5.7662635E0,1.9063406E0,2.819882E0,3.5906515E0,5.06422E0,1.0175294E0,1.267005E0],"tree_param":{"num_deleted":"0","num_feature":"29","num_nodes":"53","size_leaf_vector":"1"}},{"base_weights":[2.0933498E-3,2.8680363E-1,-3.8311828E-2,-2.2478135E-1,6.253989E-1,-5.6668735E-1,2.3056805E-2,3.9494917E-2,-6.2419888E-2,1.7643586E-1,9.049384E-2,3.778579E-5,-7.917548E-1,3.7043554E-1,-3.897894E-2,6.472411E-2,-3.628945E-2,-9.527604E-2,-1.4924707E-2,6.4565885E-1,-3.62224E-2,-1.1166513E-1,2.788013E-1,4.051652E-3,9.229653E-2,3.3802184E-1,-5.5154163E-2,-1.5371406E-2,-5.3492785E-1,5.195995E-1,-3.6863706E-1,6.979606E-2,-1.9733427E-2,-9.578322E-3,7.998786E-2,7.736957E-5,-9.3668066E-2,7.8638874E-2,-2.2049583E-2,-5.2807357E-2,-3.142188E-3],"categories":[],"categories_nodes":[],"categories_segments":[],"categories_sizes":[],"default_left":[0,0,0,0,0,0,0,0,0,0,0,0,0,0,0,0,0,0,0,0,0,0,0,0,0,0,0,0,0,0,0,0,0,0,0,0,0,0,0,0,0],"id":37,"left_children":[1,3,5,7,9,11,13,-1,-1,15,-1,-1,17,19,21,-1,-1,-1,-1,23,25,27,29,-1,-1,31,-1,33,35,37,39,-1,-1,-1,-1,-1,-1,-1,-1,-1,-1],"loss_changes":[8.062039E-1,1.6491275E0,2.0045772E0,1.2871531E0,5.3120875E-1,8.209729E-1,1.2209641E0,0E0,0E0,1.0866514E0,0E0,0E0,3.3404183E-1,9.8352003E-1,1.1492922E0,0E0,0E0,0E0,0E0,8.3004737E-1,1.0368102E0,1.6266234E0,1.641027E0,0E0,0E0,7.4941593E-1,0E0,2.286294E0,1.5943418E0,1.5934373E0,1.5037107E-1,0E0,0E0,0E0,0E0,0E0,0E0,0E0,0E0,0E0,0E0],"parents":[2147483647,0,0,1,1,2,2,3,3,4,4,5,5,6,6,9,9,12,12,13,13,14,14,19,19,20,20,21,21,22,22,25,25,27,27,28,28,29,29,30,30],"right_children":[2,4,6,8,10,12,14,-1,-1,16,-1,-1,18,20,22,-1,-1,-1,-1,24,26,28,30,-1,-1,32,-1,34,36,38,40,-1,-1,-1,-1,-1,-1,-1,-1,-1,-1],